{"type":"LSTM","options":{"inputSize":37,"inputRange":37,"hiddenLayers":[20,20],"outputSize":37,"decayRate":0.999,"smoothEps":1e-8,"regc":0.000001,"clipval":5,"maxPredictionLength":100,"dataFormatter":{"values":["A car must be driven a distance of 120km in 2.5h. During the first 1.5h the average speed was 70 kmh-1. Calculate the average speed for the remainder of the journey.","1"],"indexTable":{"0":19,"1":17,"2":18,"5":22,"7":28,"A":0," ":1,"c":2,"a":3,"r":4,"m":5,"u":6,"s":7,"t":8,"b":9,"e":10,"d":11,"i":12,"v":13,"n":14,"o":15,"f":16,"k":20,".":21,"h":23,"D":24,"g":25,"p":26,"w":27,"-":29,"C":30,"l":31,"j":32,"y":33,"stop-input":34,"start-output":35,"unrecognized":36},"characterTable":{"0":"A","1":" ","2":"c","3":"a","4":"r","5":"m","6":"u","7":"s","8":"t","9":"b","10":"e","11":"d","12":"i","13":"v","14":"n","15":"o","16":"f","17":"1","18":"2","19":"0","20":"k","21":".","22":"5","23":"h","24":"D","25":"g","26":"p","27":"w","28":"7","29":"-","30":"C","31":"l","32":"j","33":"y","34":null,"35":null,"36":null},"characters":["A"," ","c","a","r","m","u","s","t","b","e","d","i","v","n","o","f","1","2","0","k",".","5","h","D","g","p","w","7","-","C","l","j","y","stop-input","start-output","unrecognized"],"specialIndexes":[34,35,36]}},"input":{"rows":38,"columns":37,"weights":{"0":-0.30878734588623047,"1":-0.19733713567256927,"2":-0.5819457769393921,"3":-0.3709961473941803,"4":0.6645249724388123,"5":0.10835975408554077,"6":0.0294955987483263,"7":-0.26713433861732483,"8":-0.5820528864860535,"9":0.32154712080955505,"10":0.6770226359367371,"11":0.4011313319206238,"12":-0.02759174443781376,"13":0.2728360593318939,"14":-0.19058260321617126,"15":0.33722740411758423,"16":0.3880273401737213,"17":0.4441945552825928,"18":-0.11666730791330338,"19":-0.493320494890213,"20":-0.38072583079338074,"21":0.5081905126571655,"22":-0.6920236945152283,"23":1.1524637937545776,"24":0.18141531944274902,"25":-0.4934537410736084,"26":-0.3000865876674652,"27":0.22473734617233276,"28":0.052229542285203934,"29":-0.3150104284286499,"30":-0.9824762940406799,"31":-0.14853106439113617,"32":0.04349547252058983,"33":0.23953117430210114,"34":0.5404558181762695,"35":0.22030015289783478,"36":-0.05802222713828087,"37":-0.3636528551578522,"38":0.2554655969142914,"39":-0.036109670996665955,"40":1.0546125173568726,"41":-0.25512856245040894,"42":-0.4681449830532074,"43":-0.01860845275223255,"44":0.113174207508564,"45":-0.049174707382917404,"46":-0.0416395328938961,"47":0.009306428022682667,"48":-0.8638824224472046,"49":0.2103102207183838,"50":0.016157781705260277,"51":-0.0067784045822918415,"52":0.19633346796035767,"53":-0.8472914695739746,"54":-0.2589530646800995,"55":0.792149543762207,"56":0.04328077286481857,"57":0.07531840354204178,"58":0.6960353851318359,"59":0.046220067888498306,"60":-0.14671604335308075,"61":-0.11524485796689987,"62":-0.07707637548446655,"63":-0.7222978472709656,"64":0.16975420713424683,"65":1.023816466331482,"66":1.6820847988128662,"67":0.07391908764839172,"68":-0.34713655710220337,"69":-0.22219730913639069,"70":0.8141308426856995,"71":-0.004165271297097206,"72":-0.9055114984512329,"73":0.9249845743179321,"74":1.0289589166641235,"75":-1.7084016799926758,"76":0.0007994594052433968,"77":-0.7819877862930298,"78":-0.15838047862052917,"79":0.1837034374475479,"80":0.040738657116889954,"81":0.17484350502490997,"82":-0.35425934195518494,"83":0.4136604368686676,"84":0.04442333057522774,"85":0.5921946167945862,"86":-0.15027111768722534,"87":-0.06904605031013489,"88":0.012778614647686481,"89":-0.16180934011936188,"90":0.7332341074943542,"91":-0.3489508032798767,"92":-1.1075506210327148,"93":0.32679182291030884,"94":-0.14965961873531342,"95":-0.5036154985427856,"96":0.3326481878757477,"97":-0.014047708362340927,"98":-0.10580244660377502,"99":-0.2747315764427185,"100":0.7329413294792175,"101":0.16795144975185394,"102":-0.6093844175338745,"103":0.14823304116725922,"104":-0.04401692375540733,"105":1.0977898836135864,"106":0.06610694527626038,"107":-1.325666069984436,"108":0.00022596711642108858,"109":0.04303714260458946,"110":-0.7172772884368896,"111":-0.8794253468513489,"112":0.5479696989059448,"113":0.5356916785240173,"114":0.19220459461212158,"115":0.14597252011299133,"116":0.6154422760009766,"117":0.7313928604125977,"118":0.6306408643722534,"119":-0.5122414231300354,"120":0.440519243478775,"121":0.380206435918808,"122":-0.03406410664319992,"123":0.7859252095222473,"124":-0.6426547765731812,"125":-0.5449966788291931,"126":0.7506328821182251,"127":-0.1938626766204834,"128":-0.7057774662971497,"129":1.0193437337875366,"130":0.6401629447937012,"131":-0.9292483925819397,"132":0.6872998476028442,"133":0.4757488965988159,"134":-0.06641123443841934,"135":-0.6879845261573792,"136":-0.5268734097480774,"137":-0.0476391538977623,"138":0.6326966285705566,"139":0.0892547070980072,"140":0.22118866443634033,"141":0.8577619791030884,"142":-0.11651881784200668,"143":-0.5525793433189392,"144":0.5568443536758423,"145":-0.5932573676109314,"146":-0.060896314680576324,"147":0.01858310028910637,"148":0.33982962369918823,"149":0.02450242079794407,"150":-0.33173659443855286,"151":0.6039524674415588,"152":-0.18588712811470032,"153":-0.40381893515586853,"154":0.38790377974510193,"155":-0.20918868482112885,"156":-0.27063074707984924,"157":0.46992820501327515,"158":-0.03905455395579338,"159":-0.7779573202133179,"160":-0.13093000650405884,"161":0.11453728377819061,"162":-0.09428466111421585,"163":0.7320705652236938,"164":-0.9622862935066223,"165":0.1091715469956398,"166":-0.28521981835365295,"167":-0.4820793867111206,"168":0.17340150475502014,"169":0.8540899157524109,"170":-0.2379334568977356,"171":-0.008460293523967266,"172":0.40977030992507935,"173":0.24590158462524414,"174":-0.8891220688819885,"175":0.8489838242530823,"176":0.9419416785240173,"177":0.6636360883712769,"178":0.38014674186706543,"179":0.1084287092089653,"180":0.408520370721817,"181":0.322628378868103,"182":0.3926486670970917,"183":-1.1868298053741455,"184":0.22292399406433105,"185":-0.18186797201633453,"186":0.14302679896354675,"187":-0.09948180615901947,"188":0.7910828590393066,"189":-0.17474395036697388,"190":-0.4264627695083618,"191":-0.05206983536481857,"192":-0.021437080577015877,"193":0.06813399493694305,"194":-0.09664636105298996,"195":-0.2033103108406067,"196":-0.680851399898529,"197":-0.125106543302536,"198":0.12898755073547363,"199":0.07246488332748413,"200":0.10292618721723557,"201":-0.8420442938804626,"202":0.10217765718698502,"203":0.04065949097275734,"204":-0.09012948721647263,"205":0.1355779618024826,"206":0.3223039507865906,"207":0.011022662743926048,"208":0.09636455774307251,"209":0.04062545672059059,"210":0.000009410011443833355,"211":-0.7750924825668335,"212":0.007633830886334181,"213":0.7890209555625916,"214":0.6138396263122559,"215":0.24076291918754578,"216":-0.7444224953651428,"217":-0.08832008391618729,"218":0.6662721037864685,"219":0.11047562211751938,"220":-0.6176221370697021,"221":0.6478024125099182,"222":-0.27741214632987976,"223":-0.44438499212265015,"224":0.7744127511978149,"225":0.3278450071811676,"226":0.6172564029693604,"227":0.4862877130508423,"228":0.42619356513023376,"229":0.704302191734314,"230":-0.4563879668712616,"231":0.4443094730377197,"232":0.5974439978599548,"233":0.019601233303546906,"234":0.5038595199584961,"235":-0.5347879528999329,"236":-0.554643452167511,"237":0.479141503572464,"238":-0.13496553897857666,"239":-0.5646497011184692,"240":-0.3814561069011688,"241":0.6564152240753174,"242":-0.6299643516540527,"243":-0.43188342452049255,"244":0.5592896342277527,"245":-0.07545790076255798,"246":-0.47501054406166077,"247":0.9969190955162048,"248":0.1158042699098587,"249":0.43265658617019653,"250":0.17309296131134033,"251":0.44003236293792725,"252":-0.7340041995048523,"253":0.45755258202552795,"254":-0.48560285568237305,"255":-0.6069368720054626,"256":-0.6492828130722046,"257":-0.2634577751159668,"258":0.21823734045028687,"259":0.1324635148048401,"260":0.023319706320762634,"261":0.09377653896808624,"262":0.7942239046096802,"263":-0.09580690413713455,"264":0.012115607969462872,"265":-0.002685217186808586,"266":-0.014711420051753521,"267":-0.08011513948440552,"268":-0.04702266678214073,"269":0.0328105203807354,"270":-0.0767156183719635,"271":0.09894397109746933,"272":0.019472802057862282,"273":-0.0982002317905426,"274":0.07431582361459732,"275":-0.12530677020549774,"276":-0.13840274512767792,"277":0.20731662213802338,"278":0.07045015692710876,"279":0.03481804206967354,"280":0.21722179651260376,"281":0.028916774317622185,"282":0.5471474528312683,"283":-0.0842767059803009,"284":-0.17442798614501953,"285":-0.11477885395288467,"286":0.15867052972316742,"287":0.41200220584869385,"288":0.32123035192489624,"289":-0.005514305550605059,"290":0.22535574436187744,"291":-0.08174379169940948,"292":0.38396114110946655,"293":0.01954597234725952,"294":-0.3701246976852417,"295":0.4234100580215454,"296":0.24627646803855896,"297":0.36326712369918823,"298":0.2024877965450287,"299":0.3629816174507141,"300":0.21258629858493805,"301":-0.10239125043153763,"302":-0.14395399391651154,"303":0.40614834427833557,"304":-0.013906577602028847,"305":0.0157387126237154,"306":0.19976472854614258,"307":0.028788892552256584,"308":0.5800771117210388,"309":-0.433519572019577,"310":0.4039574861526489,"311":0.029458986595273018,"312":0.1079278439283371,"313":-0.4582500755786896,"314":0.4722059369087219,"315":0.6350160837173462,"316":-0.032127249985933304,"317":-0.23757021129131317,"318":0.7023885846138,"319":-0.6257461309432983,"320":-0.4641270041465759,"321":-0.6195635795593262,"322":-0.34474655985832214,"323":0.4313035011291504,"324":0.3668822944164276,"325":0.03129887580871582,"326":0.06739914417266846,"327":-0.9682864546775818,"328":-0.45913922786712646,"329":0.11757571250200272,"330":-0.47713133692741394,"331":-0.5606928467750549,"332":0.630409836769104,"333":-0.8931294679641724,"334":0.4653482437133789,"335":0.1491916924715042,"336":0.48809707164764404,"337":0.11427430808544159,"338":0.03558257967233658,"339":0.209586039185524,"340":0.2555505931377411,"341":-0.5095913410186768,"342":0.6135372519493103,"343":0.08766812831163406,"344":-0.32107001543045044,"345":0.186606302857399,"346":-0.36148884892463684,"347":-0.3172004520893097,"348":0.431762158870697,"349":-0.4261704981327057,"350":-0.2847020924091339,"351":0.8814052939414978,"352":0.5069853663444519,"353":-0.20123276114463806,"354":-0.08225393295288086,"355":0.375520259141922,"356":-0.366035521030426,"357":-0.3054562509059906,"358":-0.4903959035873413,"359":-0.4189152717590332,"360":0.46646183729171753,"361":0.4712141156196594,"362":0.19293954968452454,"363":-0.18052856624126434,"364":-0.40227997303009033,"365":-0.3832954168319702,"366":0.34796544909477234,"367":-0.30112719535827637,"368":-0.14224408566951752,"369":0.25465652346611023,"370":0.0555778332054615,"371":0.019583357498049736,"372":-0.3696970045566559,"373":-0.13520567119121552,"374":-0.3100522458553314,"375":-0.14494499564170837,"376":-0.6146568655967712,"377":-0.45218291878700256,"378":0.7746182680130005,"379":-0.6371657252311707,"380":-0.3664988875389099,"381":0.06217139586806297,"382":-0.28484392166137695,"383":0.4316937327384949,"384":0.4766778349876404,"385":-0.4291350841522217,"386":0.1134294718503952,"387":0.33825451135635376,"388":-0.051225338131189346,"389":-0.6149482727050781,"390":0.12925110757350922,"391":-0.005874509923160076,"392":-0.6037444472312927,"393":0.3083505630493164,"394":0.35820791125297546,"395":0.8153240084648132,"396":0.1279168725013733,"397":-0.6706359386444092,"398":-0.011508025228977203,"399":-0.5116218328475952,"400":0.17998822033405304,"401":-0.04550882801413536,"402":0.5181430578231812,"403":-0.14299695193767548,"404":0.4943750500679016,"405":-0.1693272888660431,"406":0.06632400304079056,"407":-0.2534372806549072,"408":1.0835274457931519,"409":-0.3411734998226166,"410":0.24506400525569916,"411":-0.26827937364578247,"412":-0.10980460047721863,"413":-0.22707775235176086,"414":-0.2692050635814667,"415":0.37989795207977295,"416":-0.18301866948604584,"417":-0.45093077421188354,"418":-0.13734491169452667,"419":-0.20571115612983704,"420":0.1787967085838318,"421":0.21158826351165771,"422":-0.26684972643852234,"423":-0.09982630610466003,"424":0.1891137957572937,"425":0.40375202894210815,"426":-0.12284128367900848,"427":0.2420300990343094,"428":-0.006704906467348337,"429":-0.08678896725177765,"430":0.19036099314689636,"431":0.2710586190223694,"432":0.13951921463012695,"433":-0.27194714546203613,"434":-0.34825119376182556,"435":0.013848881237208843,"436":-0.4162457287311554,"437":0.2070644646883011,"438":-0.5519875884056091,"439":0.05221691355109215,"440":0.18670852482318878,"441":0.23545563220977783,"442":-0.10396764427423477,"443":0.1976327896118164,"444":-0.014952561818063259,"445":0.1921217441558838,"446":-0.009175721555948257,"447":0.316129207611084,"448":0.05504670366644859,"449":-0.053021784871816635,"450":0.3599565029144287,"451":0.06217529997229576,"452":-0.37306836247444153,"453":0.3585020899772644,"454":0.1072697564959526,"455":-0.4849652945995331,"456":0.3195495903491974,"457":-0.13352446258068085,"458":-0.2562829256057739,"459":0.28401362895965576,"460":-0.45889073610305786,"461":-0.12897540628910065,"462":0.38205528259277344,"463":0.21674038469791412,"464":0.018252048641443253,"465":0.25296542048454285,"466":0.1784907430410385,"467":-0.1699165254831314,"468":-0.2529063820838928,"469":0.03748674318194389,"470":-0.301890105009079,"471":0.2345389425754547,"472":0.5044853687286377,"473":0.9004179835319519,"474":-0.04665761813521385,"475":-0.28601279854774475,"476":-0.2149633765220642,"477":0.27747732400894165,"478":-0.18222291767597198,"479":-0.2724757194519043,"480":0.3619410991668701,"481":-0.2846524119377136,"482":-0.089162677526474,"483":0.5875414609909058,"484":0.05504457652568817,"485":0.48649001121520996,"486":0.5527564287185669,"487":0.28061869740486145,"488":0.33674943447113037,"489":-0.3167988955974579,"490":0.281388521194458,"491":0.6538806557655334,"492":-0.12452979385852814,"493":0.5230851173400879,"494":-0.3130333125591278,"495":-0.4756764769554138,"496":0.4120161235332489,"497":-0.07404366135597229,"498":-0.6147534251213074,"499":-0.3236510157585144,"500":0.15382318198680878,"501":-0.6108408570289612,"502":0.5707631707191467,"503":0.1883777230978012,"504":-0.2537453770637512,"505":-0.4505961239337921,"506":-0.2233218550682068,"507":0.4104063808917999,"508":0.3444092571735382,"509":0.0614825077354908,"510":0.39526957273483276,"511":-0.866508960723877,"512":0.5868213176727295,"513":-0.3011772632598877,"514":-0.5352129340171814,"515":-0.31851693987846375,"516":-0.217611625790596,"517":0.11581268906593323,"518":0.42862963676452637,"519":-0.376994252204895,"520":-0.7636062502861023,"521":-0.6775645017623901,"522":-0.08080317080020905,"523":-0.13755430281162262,"524":-0.4637211859226227,"525":-0.44142842292785645,"526":1.8943108320236206,"527":-0.739626944065094,"528":-0.24426831305027008,"529":-0.42922142148017883,"530":-1.2378621101379395,"531":0.6662410497665405,"532":0.3530115783214569,"533":-0.11712769418954849,"534":-0.2607419788837433,"535":0.5579463243484497,"536":-0.538394033908844,"537":-0.722294270992279,"538":0.24391816556453705,"539":0.7514908313751221,"540":-0.4402039349079132,"541":0.5744760632514954,"542":0.484952449798584,"543":1.8621121644973755,"544":0.5951436161994934,"545":-1.1870826482772827,"546":-0.43403124809265137,"547":0.3161507844924927,"548":0.02796393632888794,"549":0.37336164712905884,"550":0.23766793310642242,"551":-0.3957708477973938,"552":0.47786131501197815,"553":-0.21481327712535858,"554":-0.6466801166534424,"555":-0.6960771679878235,"556":0.6755845546722412,"557":-0.4256518483161926,"558":0.4644385576248169,"559":-0.45009925961494446,"560":-0.5143731236457825,"561":0.0027850917540490627,"562":-0.452265202999115,"563":0.731901228427887,"564":-0.12912337481975555,"565":-0.793533444404602,"566":-0.527064859867096,"567":-0.16271832585334778,"568":0.162246972322464,"569":0.21350228786468506,"570":-0.1287446916103363,"571":-0.4666789174079895,"572":0.6446018815040588,"573":0.4462733268737793,"574":0.1310485601425171,"575":0.4505304992198944,"576":-0.5604901909828186,"577":-0.0916399136185646,"578":0.04600539430975914,"579":0.3667061924934387,"580":0.4011014401912689,"581":-0.46770578622817993,"582":-0.25165390968322754,"583":0.39568591117858887,"584":-0.28016549348831177,"585":0.22422091662883759,"586":-0.5686797499656677,"587":-0.010389138013124466,"588":0.599543571472168,"589":0.2661615014076233,"590":-0.005747499410063028,"591":0.22959470748901367,"592":-0.02614896558225155,"593":-0.35298746824264526,"594":-0.3846008777618408,"595":0.2704402506351471,"596":-0.06835164874792099,"597":1.0642154216766357,"598":1.1754933595657349,"599":-0.2645922005176544,"600":-0.9829995632171631,"601":0.5213178396224976,"602":0.5955930948257446,"603":-0.9594879150390625,"604":1.2602722644805908,"605":0.34478724002838135,"606":-1.3889449834823608,"607":1.4587173461914062,"608":-1.1316139698028564,"609":0.02077735774219036,"610":-0.4141932725906372,"611":-0.3942209780216217,"612":0.10066228359937668,"613":1.2543941736221313,"614":-0.2184193730354309,"615":-0.006476149428635836,"616":-0.06697042286396027,"617":0.37686771154403687,"618":-0.33856645226478577,"619":0.49028104543685913,"620":0.7458474636077881,"621":0.9810564517974854,"622":0.40336185693740845,"623":-0.09615880250930786,"624":-0.2083364725112915,"625":0.5107871294021606,"626":0.08765653520822525,"627":0.34167563915252686,"628":-0.81625896692276,"629":-0.6802934408187866,"630":0.5879378318786621,"631":-0.6186907291412354,"632":1.0609514713287354,"633":-0.8418869972229004,"634":-1.3791204690933228,"635":-0.45238974690437317,"636":-0.5109423398971558,"637":0.03914671018719673,"638":-0.2592390179634094,"639":-0.808709979057312,"640":-1.2497601509094238,"641":-0.8472886085510254,"642":0.34468966722488403,"643":0.32697156071662903,"644":-0.3435116410255432,"645":-1.3581299781799316,"646":0.5091843605041504,"647":0.5901101231575012,"648":-0.2932933568954468,"649":0.6184532642364502,"650":0.7409987449645996,"651":-0.38058674335479736,"652":0.27199670672416687,"653":0.4636593163013458,"654":-0.3246394991874695,"655":-1.1425853967666626,"656":-0.3448948264122009,"657":1.106785535812378,"658":0.2429400235414505,"659":0.33206385374069214,"660":-0.8740314245223999,"661":0.26055464148521423,"662":1.0228294134140015,"663":0.3786567449569702,"664":0.3983618915081024,"665":0.44790008664131165,"666":0.02415689080953598,"667":0.5685375332832336,"668":0.46241506934165955,"669":-0.353609561920166,"670":0.5294428467750549,"671":0.5261919498443604,"672":0.764218807220459,"673":0.3474635183811188,"674":-1.3948607444763184,"675":1.4441606998443604,"676":0.5121564865112305,"677":-0.14137253165245056,"678":-0.12118911743164062,"679":-0.2635822296142578,"680":-0.5748239755630493,"681":0.3856717050075531,"682":0.034253064543008804,"683":-0.2310577929019928,"684":-0.3541533946990967,"685":0.1919378787279129,"686":-0.7970505952835083,"687":1.0442790985107422,"688":0.8506434559822083,"689":0.08393649756908417,"690":0.43813976645469666,"691":-0.7625524401664734,"692":0.07634902745485306,"693":1.2659870386123657,"694":0.19172057509422302,"695":-0.08723139017820358,"696":-0.2797008454799652,"697":0.14282779395580292,"698":-0.6531003713607788,"699":-0.42287179827690125,"700":0.35944226384162903,"701":0.4185083508491516,"702":-0.21976234018802643,"703":0.7198323011398315,"704":-0.3342088758945465,"705":0.4627894163131714,"706":-0.30527907609939575,"707":0.976921021938324,"708":0.5782281756401062,"709":0.4479384422302246,"710":0.4376097321510315,"711":-0.46203088760375977,"712":0.4378155469894409,"713":1.0991711616516113,"714":0.7415081858634949,"715":0.5082315802574158,"716":-0.2513596713542938,"717":-0.7464048266410828,"718":0.6624614596366882,"719":0.674735963344574,"720":-0.6033642888069153,"721":-0.40050452947616577,"722":0.34379449486732483,"723":-0.6859581470489502,"724":0.4172971248626709,"725":0.23593461513519287,"726":0.37397855520248413,"727":-0.49852216243743896,"728":-0.24337318539619446,"729":0.2538659870624542,"730":0.09941396117210388,"731":-0.5817838907241821,"732":-0.07420084625482559,"733":-0.8500155806541443,"734":0.23723633587360382,"735":-0.42273831367492676,"736":-0.38927653431892395,"737":-0.5791195631027222,"738":0.5874595642089844,"739":-0.5603500604629517,"740":-0.0693945661187172,"741":-0.10153883695602417,"742":-0.19772399961948395,"743":0.6858148574829102,"744":-0.14427223801612854,"745":-0.7219943404197693,"746":-0.1881943792104721,"747":-0.11744043231010437,"748":0.03445935994386673,"749":-0.1156373992562294,"750":-0.2582630515098572,"751":-0.8006993532180786,"752":-0.2049643099308014,"753":0.06816890835762024,"754":0.18406902253627777,"755":-0.14454224705696106,"756":-0.7691339254379272,"757":0.14093153178691864,"758":-0.0026263094041496515,"759":-0.07342441380023956,"760":0.12225411087274551,"761":0.6670563817024231,"762":-0.1358627825975418,"763":0.2911876142024994,"764":0.24398906528949738,"765":0.05654597654938698,"766":-0.7169649004936218,"767":-0.15568365156650543,"768":0.7467382550239563,"769":0.3606676161289215,"770":0.09259005635976791,"771":-0.24682003259658813,"772":0.15160596370697021,"773":0.6443972587585449,"774":0.2207796722650528,"775":-0.39536476135253906,"776":0.40698716044425964,"777":-0.02706764079630375,"778":0.42529186606407166,"779":-0.37748920917510986,"780":0.9614105224609375,"781":-0.28624042868614197,"782":-0.45531848073005676,"783":-0.228960320353508,"784":-0.32527753710746765,"785":0.2801320254802704,"786":-0.3255736529827118,"787":-0.45971062779426575,"788":-1.0165780782699585,"789":-0.26390472054481506,"790":0.37362727522850037,"791":0.3009548783302307,"792":-0.1657477468252182,"793":-1.0945186614990234,"794":0.362275093793869,"795":0.40436792373657227,"796":-0.34141796827316284,"797":0.5190198421478271,"798":0.8388022780418396,"799":-0.39321357011795044,"800":-0.3463912308216095,"801":0.3766997158527374,"802":0.306313693523407,"803":-0.36644718050956726,"804":-0.4438607096672058,"805":0.9759712815284729,"806":0.16778407990932465,"807":0.2790761888027191,"808":0.18921281397342682,"809":0.2799176871776581,"810":0.771164059638977,"811":0.33710977435112,"812":-0.5567381978034973,"813":0.6049073934555054,"814":-0.7822554707527161,"815":0.6436574459075928,"816":0.6375689506530762,"817":-0.02439720928668976,"818":0.5970747470855713,"819":0.5087548494338989,"820":0.5777961015701294,"821":0.8547554612159729,"822":-1.2989422082901,"823":1.1263747215270996,"824":0.4712525010108948,"825":-0.14133036136627197,"826":0.7546195387840271,"827":-0.7156530022621155,"828":-0.12814302742481232,"829":0.2108435183763504,"830":-0.2144690454006195,"831":-0.7943260669708252,"832":0.8342090845108032,"833":0.830446720123291,"834":-0.5750441551208496,"835":0.04580843076109886,"836":0.7901058793067932,"837":-0.6821333765983582,"838":-0.8690330982208252,"839":-0.8075300455093384,"840":0.11955142021179199,"841":0.6991958618164062,"842":0.014848758466541767,"843":0.18223074078559875,"844":-0.32372817397117615,"845":0.4699566662311554,"846":-0.7715937495231628,"847":-0.018368499353528023,"848":-0.8567335605621338,"849":-0.03115439973771572,"850":-0.14200733602046967,"851":-1.1516658067703247,"852":0.5529052019119263,"853":0.8487745523452759,"854":0.41864803433418274,"855":0.4836798906326294,"856":0.4802744686603546,"857":0.8229725956916809,"858":0.7744180560112,"859":-0.6754183769226074,"860":0.7025056481361389,"861":0.5156749486923218,"862":-0.2523624897003174,"863":0.7046188116073608,"864":-0.6669052243232727,"865":-0.6208412051200867,"866":0.7428192496299744,"867":-0.23792274296283722,"868":-0.7436201572418213,"869":0.2899217903614044,"870":0.6764422655105591,"871":-0.6927139759063721,"872":0.06968419253826141,"873":0.6312434077262878,"874":-0.029234733432531357,"875":-0.7479771971702576,"876":-0.6752555966377258,"877":-0.6555916666984558,"878":0.7677608728408813,"879":0.2710687518119812,"880":0.36245864629745483,"881":-0.3460254669189453,"882":-0.5103808641433716,"883":-0.6332919001579285,"884":0.021802131086587906,"885":-0.6789491772651672,"886":-0.08123701065778732,"887":0.06536106765270233,"888":-0.362581729888916,"889":0.9906712174415588,"890":0.24284522235393524,"891":1.0808109045028687,"892":0.04713151231408119,"893":-0.11904007941484451,"894":-0.40320178866386414,"895":0.42548713088035583,"896":-0.28085988759994507,"897":-0.13172543048858643,"898":0.1871870905160904,"899":-0.4938201606273651,"900":0.27803218364715576,"901":-0.3371202349662781,"902":0.057005733251571655,"903":-0.21523785591125488,"904":-0.6020461916923523,"905":-0.31744763255119324,"906":0.9723883271217346,"907":0.3946126401424408,"908":0.1342693716287613,"909":0.867820680141449,"910":0.17123503983020782,"911":-0.3847498297691345,"912":-0.4411604106426239,"913":-1.0873937606811523,"914":-1.053655743598938,"915":0.17079602181911469,"916":0.5552698969841003,"917":-0.18836107850074768,"918":0.17563745379447937,"919":-0.7679632902145386,"920":-0.16003620624542236,"921":0.8724049925804138,"922":-0.2946019470691681,"923":-1.9575257301330566,"924":1.7249997854232788,"925":-0.2751430571079254,"926":-0.6657618284225464,"927":1.2688374519348145,"928":0.2522636950016022,"929":1.2542510032653809,"930":0.8067476749420166,"931":0.9211056232452393,"932":0.8171221613883972,"933":-0.024368703365325928,"934":0.1628638356924057,"935":1.2571924924850464,"936":-0.13367998600006104,"937":1.3059824705123901,"938":-0.2792762517929077,"939":-1.3721678256988525,"940":1.095811128616333,"941":0.20790469646453857,"942":-1.0244290828704834,"943":-0.3555091917514801,"944":-0.29537099599838257,"945":-1.0205578804016113,"946":0.36994636058807373,"947":-0.3678925335407257,"948":-0.39939385652542114,"949":-0.9606137871742249,"950":0.6119827032089233,"951":-0.14179329574108124,"952":0.08742339164018631,"953":-0.34871575236320496,"954":1.5662342309951782,"955":-0.9947027564048767,"956":0.3728545010089874,"957":-1.1373180150985718,"958":0.3528289794921875,"959":-0.9645415544509888,"960":-0.09838102757930756,"961":-0.32089608907699585,"962":-0.935082197189331,"963":1.456678867340088,"964":-0.5999582409858704,"965":0.6715072989463806,"966":-0.612159788608551,"967":-0.432407945394516,"968":-0.5810579657554626,"969":-0.7864590287208557,"970":0.20824642479419708,"971":-0.3384018838405609,"972":-0.9767409563064575,"973":-0.4501286745071411,"974":-0.3521164655685425,"975":0.48823878169059753,"976":0.26243114471435547,"977":-0.49708178639411926,"978":-0.510315477848053,"979":0.7468115091323853,"980":0.7276555895805359,"981":-0.15782037377357483,"982":0.8402639627456665,"983":-0.45999768376350403,"984":-0.23149269819259644,"985":0.19611568748950958,"986":0.5476997494697571,"987":0.03702247887849808,"988":-0.6885239481925964,"989":-0.34378060698509216,"990":0.6312099695205688,"991":-0.6272216439247131,"992":0.2821248471736908,"993":-0.7331433296203613,"994":0.1391282081604004,"995":0.6656790971755981,"996":0.5929874777793884,"997":-0.0370839461684227,"998":0.8836493492126465,"999":0.7135693430900574,"1000":-1.4402353763580322,"1001":0.04431850463151932,"1002":-0.6015591621398926,"1003":0.09177917242050171,"1004":0.16061489284038544,"1005":-0.31305283308029175,"1006":-0.09572301059961319,"1007":1.3800901174545288,"1008":-0.4422444999217987,"1009":-0.030563924461603165,"1010":0.5808289051055908,"1011":-0.00761802913621068,"1012":0.051788512617349625,"1013":0.07322651147842407,"1014":-1.0843065977096558,"1015":0.37273672223091125,"1016":-0.08824539184570312,"1017":-1.2368481159210205,"1018":-0.327802836894989,"1019":-0.034541692584753036,"1020":-0.6020059585571289,"1021":-0.3419184982776642,"1022":-0.29451149702072144,"1023":-0.09215551614761353,"1024":0.8203966617584229,"1025":0.6167702078819275,"1026":-0.9723537564277649,"1027":-0.5944244265556335,"1028":0.296610027551651,"1029":-0.31798386573791504,"1030":0.6193334460258484,"1031":0.14263446629047394,"1032":-0.6764640212059021,"1033":0.08763688802719116,"1034":-0.21445778012275696,"1035":0.42415866255760193,"1036":0.01969977468252182,"1037":-1.1587327718734741,"1038":0.8529505729675293,"1039":-0.7397099733352661,"1040":0.7320491075515747,"1041":0.9295607209205627,"1042":1.4880765676498413,"1043":0.7978082895278931,"1044":-0.09840571135282516,"1045":0.6889808773994446,"1046":0.6698834896087646,"1047":0.6976415514945984,"1048":0.7723389267921448,"1049":-0.8131085634231567,"1050":-1.8927242755889893,"1051":0.9974921345710754,"1052":0.3853958249092102,"1053":-1.693912386894226,"1054":-0.32878053188323975,"1055":-0.21632181107997894,"1056":0.5787461996078491,"1057":-0.2894851267337799,"1058":0.4837731420993805,"1059":-0.6410931348800659,"1060":-0.8594105839729309,"1061":1.0141689777374268,"1062":0.8969116806983948,"1063":0.39917343854904175,"1064":-0.8688685894012451,"1065":0.9647866487503052,"1066":-0.29725775122642517,"1067":1.4515403509140015,"1068":0.30920538306236267,"1069":-1.5038689374923706,"1070":-0.7620474100112915,"1071":0.20617622137069702,"1072":-0.7568345069885254,"1073":0.5024153590202332,"1074":-0.1132892593741417,"1075":-0.24004419147968292,"1076":0.6826629042625427,"1077":-0.2487228512763977,"1078":-0.3382974863052368,"1079":1.5733739137649536,"1080":-0.22181370854377747,"1081":-0.4755413234233856,"1082":0.8902972340583801,"1083":-0.23908881843090057,"1084":-1.0253121852874756,"1085":0.01435126457363367,"1086":0.003326266072690487,"1087":-0.4760657846927643,"1088":1.1732457876205444,"1089":-1.242456078529358,"1090":0.08908362686634064,"1091":-0.8126858472824097,"1092":-0.8351340293884277,"1093":0.20608028769493103,"1094":1.3516467809677124,"1095":-0.012744572944939137,"1096":-0.05411411076784134,"1097":0.29677098989486694,"1098":0.32268548011779785,"1099":-1.1259113550186157,"1100":0.4581172466278076,"1101":1.4579291343688965,"1102":0.9192291498184204,"1103":0.5080199837684631,"1104":-0.1321025788784027,"1105":0.3975045382976532,"1106":0.44598644971847534,"1107":0.5383140444755554,"1108":-0.9011991620063782,"1109":1.2378042936325073,"1110":0.48285236954689026,"1111":0.5713207721710205,"1112":0.45829150080680847,"1113":1.0923924446105957,"1114":0.394569993019104,"1115":-0.26298680901527405,"1116":0.7502396106719971,"1117":0.5170233845710754,"1118":-0.062279123812913895,"1119":0.45152872800827026,"1120":-0.30197224020957947,"1121":-0.2671954333782196,"1122":-0.04927310347557068,"1123":-0.5186907649040222,"1124":-0.2681659758090973,"1125":-0.5175900459289551,"1126":-0.3882516026496887,"1127":-0.23912566900253296,"1128":0.6998560428619385,"1129":0.8434230089187622,"1130":-0.4551088511943817,"1131":0.07993756234645844,"1132":0.573499858379364,"1133":0.020723838359117508,"1134":-0.4513264000415802,"1135":-0.8247145414352417,"1136":-1.0164893865585327,"1137":-0.08181999623775482,"1138":0.11111743748188019,"1139":0.41243162751197815,"1140":0.004914192482829094,"1141":-1.8031599521636963,"1142":-0.2835571765899658,"1143":0.8321154117584229,"1144":-0.47452154755592346,"1145":-0.7561699151992798,"1146":0.7975323796272278,"1147":0.16130700707435608,"1148":-0.8862212300300598,"1149":0.4597524404525757,"1150":0.03786873072385788,"1151":-0.05926668643951416,"1152":-0.24977563321590424,"1153":-0.13919909298419952,"1154":0.06723875552415848,"1155":0.27081528306007385,"1156":-0.4385480582714081,"1157":0.057796455919742584,"1158":-0.8968406915664673,"1159":0.10244841128587723,"1160":0.07068335264921188,"1161":-0.16069339215755463,"1162":-0.019019508734345436,"1163":-1.168002963066101,"1164":-0.052931495010852814,"1165":0.04895869269967079,"1166":-0.2720813751220703,"1167":-0.2731558680534363,"1168":0.7225938439369202,"1169":-0.2399950474500656,"1170":-0.6346147656440735,"1171":-0.0018151357071474195,"1172":0.3123082220554352,"1173":0.7483236789703369,"1174":-0.03611982986330986,"1175":1.155458927154541,"1176":1.0696302652359009,"1177":-0.6174094676971436,"1178":0.8907127380371094,"1179":0.20883281528949738,"1180":0.06338203698396683,"1181":0.07947926223278046,"1182":-1.2029907703399658,"1183":1.244141697883606,"1184":-1.3559688329696655,"1185":1.0641810894012451,"1186":0.30813631415367126,"1187":-0.2667219638824463,"1188":0.4557691216468811,"1189":0.920637309551239,"1190":1.2433323860168457,"1191":0.8157209157943726,"1192":-1.3245974779129028,"1193":1.11038339138031,"1194":0.6464309096336365,"1195":-0.2661984860897064,"1196":0.9117926955223083,"1197":-0.8105618953704834,"1198":-0.6751543283462524,"1199":0.914019763469696,"1200":-0.3337424099445343,"1201":-0.5731526613235474,"1202":0.5199158787727356,"1203":1.1031789779663086,"1204":-0.5853297710418701,"1205":0.4978637099266052,"1206":1.2169350385665894,"1207":-0.44751977920532227,"1208":-1.051119327545166,"1209":-1.0494874715805054,"1210":0.09337985515594482,"1211":1.2091699838638306,"1212":0.2520359754562378,"1213":-0.0024616268929094076,"1214":-0.22628456354141235,"1215":0.6664841771125793,"1216":-0.6433106064796448,"1217":-0.2897648513317108,"1218":-1.0053439140319824,"1219":0.736806333065033,"1220":0.25102266669273376,"1221":-0.8616950511932373,"1222":1.0137451887130737,"1223":0.5743383169174194,"1224":0.749751091003418,"1225":0.2601911127567291,"1226":-0.18070530891418457,"1227":0.0030849273316562176,"1228":0.3606157600879669,"1229":0.09781906753778458,"1230":-0.023701705038547516,"1231":0.05565785616636276,"1232":-0.3629039525985718,"1233":0.3327764868736267,"1234":-0.421754390001297,"1235":-0.4168177545070648,"1236":-0.19819216430187225,"1237":-0.5278939008712769,"1238":-0.37412214279174805,"1239":0.9977599382400513,"1240":0.4102267920970917,"1241":-0.2770269215106964,"1242":0.10642735660076141,"1243":-0.05923456698656082,"1244":-0.4015634059906006,"1245":-0.3361515402793884,"1246":-0.5397050976753235,"1247":-0.6059480309486389,"1248":-0.14110982418060303,"1249":0.38257497549057007,"1250":-0.5053192973136902,"1251":-0.39587244391441345,"1252":-0.5716015100479126,"1253":0.14719447493553162,"1254":0.6455963253974915,"1255":-0.25676169991493225,"1256":-0.9677876234054565,"1257":1.009947419166565,"1258":0.2790263295173645,"1259":2.2079105377197266,"1260":0.5760011672973633,"1261":0.6874178051948547,"1262":0.7870468497276306,"1263":0.30895888805389404,"1264":0.8143473267555237,"1265":0.5761963129043579,"1266":-0.7530149817466736,"1267":1.1045584678649902,"1268":0.6253513693809509,"1269":0.8549763560295105,"1270":0.07240170240402222,"1271":-0.6298043727874756,"1272":-0.6223755478858948,"1273":0.4897313714027405,"1274":0.2893597483634949,"1275":-0.15207982063293457,"1276":0.5662777423858643,"1277":1.1355313062667847,"1278":-0.7624382376670837,"1279":0.1675138622522354,"1280":0.9483407139778137,"1281":-0.51407790184021,"1282":-0.46303290128707886,"1283":-1.6338828802108765,"1284":-1.2059162855148315,"1285":1.2168782949447632,"1286":-0.5756266713142395,"1287":-1.4437141418457031,"1288":-0.5990156531333923,"1289":-1.5406001806259155,"1290":-0.3025975823402405,"1291":0.5819774866104126,"1292":-0.3834993243217468,"1293":1.0491176843643188,"1294":-0.5379087328910828,"1295":-0.28793585300445557,"1296":1.2096232175827026,"1297":0.6041910648345947,"1298":0.2067679613828659,"1299":0.24370285868644714,"1300":0.072390116751194,"1301":0.3956165015697479,"1302":0.8560653924942017,"1303":-0.9013118743896484,"1304":0.9092929363250732,"1305":0.007335882168263197,"1306":-0.5099502801895142,"1307":0.20539574325084686,"1308":-0.6986932158470154,"1309":-0.4032556116580963,"1310":0.010913494974374771,"1311":-0.529858410358429,"1312":-0.6091076135635376,"1313":1.124327540397644,"1314":0.7283672094345093,"1315":0.10306259989738464,"1316":0.2538168728351593,"1317":0.8550472855567932,"1318":-1.2172279357910156,"1319":-0.3564492166042328,"1320":-0.9439700841903687,"1321":0.5976030826568604,"1322":0.6574365496635437,"1323":0.6264318227767944,"1324":0.24759411811828613,"1325":-0.3270794153213501,"1326":0.13219638168811798,"1327":-0.4720488488674164,"1328":-0.06732451915740967,"1329":-0.6060234904289246,"1330":-1.263746738433838,"1331":1.2291699647903442,"1332":0.8646548390388489,"1333":-1.7046114206314087,"1334":0.6133117079734802,"1335":0.07249561697244644,"1336":0.41336628794670105,"1337":1.0604498386383057,"1338":0.6933212876319885,"1339":0.7616232633590698,"1340":0.3595881164073944,"1341":-0.0718550980091095,"1342":0.7638952732086182,"1343":0.47407612204551697,"1344":0.88779217004776,"1345":-0.6406765580177307,"1346":-1.1279274225234985,"1347":0.8314160704612732,"1348":0.41880887746810913,"1349":-1.0885348320007324,"1350":-0.22533734142780304,"1351":-0.1798405796289444,"1352":-0.2641913592815399,"1353":0.329148530960083,"1354":-0.016903361305594444,"1355":-0.12742385268211365,"1356":-0.721322774887085,"1357":0.8186196684837341,"1358":-0.021726911887526512,"1359":-0.22854390740394592,"1360":-0.5555814504623413,"1361":1.0368399620056152,"1362":-0.23877482116222382,"1363":0.534486711025238,"1364":0.014137815684080124,"1365":-0.28779613971710205,"1366":-0.8258934617042542,"1367":-0.05762258172035217,"1368":-0.6255297660827637,"1369":0.07920703291893005,"1370":-0.038958627730607986,"1371":-0.029364950954914093,"1372":-0.07440638542175293,"1373":0.052258413285017014,"1374":-0.04956937953829765,"1375":0.0016377076972275972,"1376":-0.07739093899726868,"1377":0.0318414606153965,"1378":-0.05858004838228226,"1379":-0.04641525074839592,"1380":0.06694835424423218,"1381":0.01605628989636898,"1382":0.06740938872098923,"1383":-0.042087554931640625,"1384":0.06679132580757141,"1385":-0.055184610188007355,"1386":-0.034205302596092224,"1387":-0.01944400556385517,"1388":0.06929648667573929,"1389":0.036987364292144775,"1390":0.046279244124889374,"1391":-0.043085865676403046,"1392":-0.03472325578331947,"1393":0.03278189152479172,"1394":0.0276541355997324,"1395":-0.008200673386454582,"1396":0.031790100038051605,"1397":-0.07208611816167831,"1398":0.0772458091378212,"1399":0.03880104422569275,"1400":-0.025133084505796432,"1401":0.03803635016083717,"1402":0.005121649242937565,"1403":-0.048191774636507034,"1404":-0.003824093146249652,"1405":0.011347808875143528}},"hiddenLayers":[{"inputMatrix":{"rows":20,"columns":37,"weights":{"0":-0.5743181705474854,"1":0.9119403958320618,"2":-0.32307881116867065,"3":0.5179299712181091,"4":-0.8975433707237244,"5":-0.5406259894371033,"6":0.14183568954467773,"7":0.17113171517848969,"8":-0.522916316986084,"9":0.5307384729385376,"10":-0.944236159324646,"11":-0.5321101546287537,"12":-0.6872013807296753,"13":-0.37689149379730225,"14":1.0774487257003784,"15":0.08997593075037003,"16":-0.6376728415489197,"17":-0.20709173381328583,"18":0.7811951637268066,"19":0.29306042194366455,"20":-0.05678160488605499,"21":0.3959138095378876,"22":0.4743654131889343,"23":0.03988593444228172,"24":-0.04360036551952362,"25":-0.7178940773010254,"26":-0.7981473207473755,"27":0.9124943017959595,"28":0.7828043699264526,"29":-0.5071297883987427,"30":1.28447425365448,"31":-0.7726422548294067,"32":0.09767943620681763,"33":0.43723976612091064,"34":-0.12566044926643372,"35":0.133309468626976,"36":0.12896999716758728,"37":-0.9513617157936096,"38":0.7013521790504456,"39":-0.6962800025939941,"40":0.8141286969184875,"41":-0.5995158553123474,"42":-1.0174915790557861,"43":-0.8610313534736633,"44":-0.4337783753871918,"45":0.9012348651885986,"46":-0.10753052681684494,"47":-0.793123722076416,"48":-1.1601625680923462,"49":-0.9780049324035645,"50":0.24349169433116913,"51":0.8193484544754028,"52":-0.6556371450424194,"53":-0.8694480657577515,"54":0.8569028377532959,"55":0.5452113747596741,"56":0.4097275733947754,"57":0.25713276863098145,"58":0.10881274193525314,"59":-0.2518186569213867,"60":0.4603535234928131,"61":0.4841874837875366,"62":-0.1543191820383072,"63":-0.38006293773651123,"64":-0.39449387788772583,"65":0.7843987941741943,"66":-0.028151601552963257,"67":0.6411866545677185,"68":-0.26175475120544434,"69":0.5686575770378113,"70":0.5520728826522827,"71":0.3766632676124573,"72":-0.42629343271255493,"73":0.5086638331413269,"74":-0.11854398995637894,"75":0.4798371493816376,"76":0.7006157636642456,"77":0.6876121759414673,"78":0.6518752574920654,"79":0.666741132736206,"80":0.8149135112762451,"81":0.8012021780014038,"82":-0.7697346210479736,"83":0.9059072732925415,"84":0.07208970934152603,"85":-0.09751991182565689,"86":0.5009071230888367,"87":-0.5554276704788208,"88":-0.7202792763710022,"89":0.6934307813644409,"90":-0.7215322256088257,"91":-0.6014640927314758,"92":0.42531538009643555,"93":0.6742095947265625,"94":-0.044914666563272476,"95":0.6888065934181213,"96":0.8569557070732117,"97":-0.5047693848609924,"98":-0.6845876574516296,"99":-0.6680280566215515,"100":-0.4928877651691437,"101":0.7114700078964233,"102":0.02679757960140705,"103":0.1623225212097168,"104":-0.000798337918240577,"105":-0.19916988909244537,"106":-0.5877624750137329,"107":0.19947543740272522,"108":-0.5963388681411743,"109":-0.18359485268592834,"110":0.15214186906814575,"111":0.4122728109359741,"112":-0.5174464583396912,"113":0.16111084818840027,"114":-0.4274844527244568,"115":0.2036316990852356,"116":0.18492208421230316,"117":0.150488018989563,"118":-0.0859622061252594,"119":0.04058463126420975,"120":-0.06416303664445877,"121":0.14870135486125946,"122":0.6605003476142883,"123":0.07892157137393951,"124":-0.07876422256231308,"125":-0.11101443320512772,"126":0.09122368693351746,"127":0.542776346206665,"128":0.06400474160909653,"129":-0.4748152494430542,"130":-0.08563400059938431,"131":0.06480967253446579,"132":-0.6633611917495728,"133":-0.0770043432712555,"134":-0.13209743797779083,"135":0.015932299196720123,"136":0.6380513310432434,"137":0.3042910695075989,"138":-0.37465035915374756,"139":-0.5209391713142395,"140":0.015628064051270485,"141":-0.14976902306079865,"142":0.10492054373025894,"143":-0.02486121468245983,"144":-0.3668052852153778,"145":-0.1112813800573349,"146":0.21942083537578583,"147":-0.5811290144920349,"148":0.07732269912958145,"149":0.2383604198694229,"150":-0.6598749160766602,"151":-0.659049928188324,"152":0.11597136408090591,"153":-0.6981232166290283,"154":-0.8016470670700073,"155":-0.6950830817222595,"156":0.8555384874343872,"157":-0.7514978647232056,"158":-0.1181541383266449,"159":0.23830391466617584,"160":-0.4566786289215088,"161":0.6221014261245728,"162":0.4503359794616699,"163":-0.26108723878860474,"164":0.16263112425804138,"165":0.2220674753189087,"166":-0.4419861435890198,"167":-0.4241533875465393,"168":0.07774435728788376,"169":-0.6307307481765747,"170":-0.5473183989524841,"171":0.4630120098590851,"172":0.6455084681510925,"173":0.9653196930885315,"174":-0.19926315546035767,"175":-0.8217766880989075,"176":-0.7551499009132385,"177":-0.1705636978149414,"178":-0.07766028493642807,"179":-0.16268645226955414,"180":0.028251808136701584,"181":-0.4788219928741455,"182":0.5618230104446411,"183":0.09229718148708344,"184":-0.5606994032859802,"185":0.513395369052887,"186":-0.45160987973213196,"187":-0.04120982065796852,"188":-0.4640401303768158,"189":0.06473259627819061,"190":-0.0042758723720908165,"191":-0.02355985902249813,"192":-0.01203294936567545,"193":0.04113531485199928,"194":-0.08151864260435104,"195":0.10453576594591141,"196":0.5700026154518127,"197":0.1042885109782219,"198":0.08086549490690231,"199":-0.0528520829975605,"200":0.04593099281191826,"201":0.4933483600616455,"202":-0.0067207347601652145,"203":-0.547789990901947,"204":-0.021636193618178368,"205":0.04110128432512283,"206":-0.6666030883789062,"207":-0.06938553601503372,"208":0.04883630946278572,"209":-0.05303068831562996,"210":0.10556195676326752,"211":0.40026479959487915,"212":-0.12005189061164856,"213":-0.5756037831306458,"214":-0.0014748928369954228,"215":0.023086825385689735,"216":0.3661993443965912,"217":0.12382908165454865,"218":-0.2824254035949707,"219":-0.04368959367275238,"220":0.66786128282547,"221":-0.5698583126068115,"222":0.05737197771668434,"223":-0.5214429497718811,"224":-0.37477999925613403,"225":-0.474093496799469,"226":0.8625134229660034,"227":0.8478050231933594,"228":0.2773849666118622,"229":-0.2133432924747467,"230":0.893725574016571,"231":-0.9002034068107605,"232":0.9090625047683716,"233":0.15346916019916534,"234":0.3992507755756378,"235":0.33179229497909546,"236":-0.5522674918174744,"237":0.6219653487205505,"238":0.19789186120033264,"239":0.25396105647087097,"240":-0.5366802215576172,"241":-0.7740609645843506,"242":-0.05483400821685791,"243":0.387763112783432,"244":-0.40672850608825684,"245":0.06178003549575806,"246":-0.017334850504994392,"247":1.1225485801696777,"248":0.48948463797569275,"249":-0.5741460919380188,"250":-0.5611423254013062,"251":0.5744279026985168,"252":-0.39565369486808777,"253":0.4604770541191101,"254":-0.09014125913381577,"255":-0.06080496311187744,"256":-0.10115677118301392,"257":0.22554871439933777,"258":-0.7210342288017273,"259":0.5433846116065979,"260":-0.5948595404624939,"261":-0.0979008823633194,"262":-0.5778867602348328,"263":0.13834860920906067,"264":0.2265327125787735,"265":0.0009224151144735515,"266":-0.03907964751124382,"267":0.47508612275123596,"268":-0.12823787331581116,"269":0.011048655025660992,"270":0.5133612751960754,"271":0.015356634743511677,"272":-0.021092679351568222,"273":-0.06996708363294601,"274":0.02668887749314308,"275":0.5582685470581055,"276":-0.025048771873116493,"277":-0.5297110080718994,"278":-0.08887223154306412,"279":-0.010538887232542038,"280":-0.5246337056159973,"281":-0.10179419815540314,"282":0.06235478073358536,"283":0.0522022619843483,"284":0.7169877886772156,"285":0.5330187678337097,"286":-0.1281081736087799,"287":-0.689057469367981,"288":-0.07148908078670502,"289":-0.030770136043429375,"290":0.4778130054473877,"291":0.09079524874687195,"292":-0.5334311723709106,"293":0.03431513160467148,"294":0.07368739694356918,"295":-0.6804867386817932,"296":-0.6624560356140137,"297":0.7168911099433899,"298":0.7491523623466492,"299":0.846279501914978,"300":0.6278359889984131,"301":0.5884958505630493,"302":0.4190071225166321,"303":0.6891485452651978,"304":-0.5551328063011169,"305":0.5528219938278198,"306":0.5627192258834839,"307":-0.1376589983701706,"308":0.5669832229614258,"309":-0.5886687636375427,"310":-0.6361700892448425,"311":0.5319865942001343,"312":-0.21445369720458984,"313":-0.6894160509109497,"314":0.6828928589820862,"315":0.8526330590248108,"316":-0.08774899691343307,"317":-0.16772626340389252,"318":0.722499668598175,"319":-0.5492990612983704,"320":-0.7173681855201721,"321":-0.7268366813659668,"322":-0.7060996890068054,"323":0.6860944032669067,"324":-0.012445385567843914,"325":0.18384775519371033,"326":0.08100774139165878,"327":-0.8210856914520264,"328":-0.8040388226509094,"329":0.7517763376235962,"330":-0.7580353617668152,"331":-0.05498066172003746,"332":0.15773563086986542,"333":0.12353398650884628,"334":0.13178053498268127,"335":0.5210638642311096,"336":0.008832364343106747,"337":0.27000969648361206,"338":-0.17429403960704803,"339":0.6578643918037415,"340":0.6672942638397217,"341":-0.8379271030426025,"342":0.8216555118560791,"343":0.29370880126953125,"344":-0.08097201585769653,"345":0.4678913950920105,"346":-0.6594758629798889,"347":-0.5620874762535095,"348":0.6241714358329773,"349":-0.08326826989650726,"350":-0.714706540107727,"351":0.3013102412223816,"352":0.5592290163040161,"353":-0.3230905532836914,"354":0.4153379797935486,"355":0.8033359050750732,"356":-0.41991713643074036,"357":-0.6162689924240112,"358":-0.6962856650352478,"359":-0.17991164326667786,"360":0.39070457220077515,"361":0.09021604806184769,"362":0.672004759311676,"363":0.5175866484642029,"364":-0.0799345150589943,"365":-0.5500873327255249,"366":-0.04722253978252411,"367":-0.525052547454834,"368":-0.28144681453704834,"369":0.19101114571094513,"370":-0.5220532417297363,"371":0.749110996723175,"372":0.4262617528438568,"373":0.5763013958930969,"374":0.10149185359477997,"375":0.06670865416526794,"376":0.2688456177711487,"377":0.4047020971775055,"378":-0.5385069847106934,"379":0.24686387181282043,"380":-0.05554300546646118,"381":-0.568243682384491,"382":0.19698204100131989,"383":-0.427636981010437,"384":-0.21844644844532013,"385":-0.09788748621940613,"386":-0.5862387418746948,"387":-0.3582408130168915,"388":0.6258461475372314,"389":0.17917855083942413,"390":-0.3129223883152008,"391":0.5007362365722656,"392":0.29006868600845337,"393":-0.5479587316513062,"394":-0.2700228691101074,"395":-0.2748756408691406,"396":-0.5703403353691101,"397":0.605228841304779,"398":0.6660146713256836,"399":-0.07640235126018524,"400":0.3842499256134033,"401":-0.46199145913124084,"402":-0.22120729088783264,"403":0.4519880414009094,"404":-0.3414902985095978,"405":-0.19049088656902313,"406":0.7190966010093689,"407":-0.286102831363678,"408":0.13657760620117188,"409":-0.2892957925796509,"410":-0.2157391905784607,"411":-0.6779235005378723,"412":0.07052142173051834,"413":-0.0800449326634407,"414":-0.17502008378505707,"415":0.3165190815925598,"416":-0.07583597302436829,"417":-0.8333948850631714,"418":0.19731149077415466,"419":-0.7130110263824463,"420":0.07290784269571304,"421":0.1760675013065338,"422":-0.1290179044008255,"423":0.2125113606452942,"424":0.7546777129173279,"425":0.12387239187955856,"426":0.10014989227056503,"427":0.6660668253898621,"428":-1.182214379310608,"429":-0.036434356123209,"430":0.7291929125785828,"431":0.0566469170153141,"432":0.07913234084844589,"433":0.130454882979393,"434":-0.3205861449241638,"435":-0.3065212666988373,"436":-0.8862443566322327,"437":0.47801634669303894,"438":-0.34415003657341003,"439":0.054163843393325806,"440":-0.1905783712863922,"441":0.06148578226566315,"442":0.8355814814567566,"443":-0.5652126669883728,"444":-0.02802070789039135,"445":-0.1302013248205185,"446":0.0057731810957193375,"447":-0.1665869504213333,"448":0.21649563312530518,"449":0.3810049295425415,"450":0.23030799627304077,"451":-0.2847915589809418,"452":1.0928553342819214,"453":-0.9022138714790344,"454":-0.20880712568759918,"455":0.37068766355514526,"456":0.22687271237373352,"457":0.010631776414811611,"458":-0.1517072170972824,"459":0.3763740360736847,"460":0.1988779604434967,"461":0.32754775881767273,"462":-0.331513911485672,"463":-0.8821675777435303,"464":0.3682396709918976,"465":-0.9758359789848328,"466":-0.2792855501174927,"467":-0.10195714980363846,"468":0.09663323312997818,"469":0.9090387225151062,"470":0.23034708201885223,"471":-0.889347493648529,"472":-0.45037662982940674,"473":-0.09224715828895569,"474":-0.14068759977817535,"475":0.20857320725917816,"476":-0.005327136721462011,"477":0.2172168493270874,"478":0.02061389572918415,"479":-0.1116761788725853,"480":-0.4100225269794464,"481":-0.3485434651374817,"482":0.44099950790405273,"483":-0.6550650000572205,"484":-0.35356011986732483,"485":-0.5739956498146057,"486":-0.2441588044166565,"487":-0.612984299659729,"488":-0.7578060626983643,"489":0.18553999066352844,"490":-0.10116086155176163,"491":-0.6203994750976562,"492":0.2120191901922226,"493":-0.6794784069061279,"494":0.5953235626220703,"495":0.6073651313781738,"496":-0.21231253445148468,"497":0.30810290575027466,"498":0.6914549469947815,"499":0.3004247546195984,"500":-0.24576076865196228,"501":0.6699332594871521,"502":-0.5484825968742371,"503":-0.612533688545227,"504":0.5701807737350464,"505":0.7063570618629456,"506":0.10778942704200745,"507":0.22732415795326233,"508":-0.6129069328308105,"509":-0.23487889766693115,"510":-0.8958126902580261,"511":0.5802500247955322,"512":-1.1064987182617188,"513":0.5802861452102661,"514":-0.07674672454595566,"515":0.6330647468566895,"516":0.6935990452766418,"517":-0.6377581357955933,"518":0.7165414094924927,"519":0.13478833436965942,"520":-0.37175658345222473,"521":-0.5953343510627747,"522":0.4388006329536438,"523":0.39151039719581604,"524":-0.053717005997896194,"525":-0.1802038699388504,"526":0.4802508056163788,"527":-0.3248308598995209,"528":0.27203038334846497,"529":0.8631656765937805,"530":-0.11537691205739975,"531":0.11464550346136093,"532":0.008454203605651855,"533":-0.6738956570625305,"534":0.6900120377540588,"535":0.1538780778646469,"536":-0.5246074795722961,"537":-0.18688516318798065,"538":0.850869357585907,"539":-0.5205157399177551,"540":-0.12625984847545624,"541":0.05744331702589989,"542":0.12945911288261414,"543":0.13741855323314667,"544":0.5580506920814514,"545":-0.4569550156593323,"546":-0.7236904501914978,"547":-0.9401730298995972,"548":-0.2909373939037323,"549":0.37359973788261414,"550":0.18538932502269745,"551":-0.6131789684295654,"552":0.07615908980369568,"553":0.6792458295822144,"554":-0.22249728441238403,"555":-0.34552478790283203,"556":0.6814583539962769,"557":0.9787062406539917,"558":0.29966285824775696,"559":0.538587212562561,"560":0.19300398230552673,"561":0.29004982113838196,"562":1.2576390504837036,"563":-1.5029164552688599,"564":0.7786718606948853,"565":0.7177967429161072,"566":-0.07224279642105103,"567":0.6302995085716248,"568":-0.896929144859314,"569":-0.48698151111602783,"570":0.5841894149780273,"571":-0.12034055590629578,"572":-0.9669137597084045,"573":1.0128244161605835,"574":1.63511323928833,"575":-0.7951151132583618,"576":0.06787849217653275,"577":1.6331114768981934,"578":-0.34430602192878723,"579":-1.1851444244384766,"580":-1.7138009071350098,"581":0.33472520112991333,"582":0.7951911091804504,"583":0.27239352464675903,"584":0.7080716490745544,"585":-0.5888490080833435,"586":-0.06590299308300018,"587":-1.5272482633590698,"588":0.14332109689712524,"589":-1.225067377090454,"590":0.0020108348689973354,"591":0.1341937631368637,"592":-0.4294879734516144,"593":0.14249207079410553,"594":-0.6425877213478088,"595":-0.43197131156921387,"596":-0.5734537839889526,"597":-0.20722301304340363,"598":-0.15109989047050476,"599":-0.12094582617282867,"600":0.15509694814682007,"601":-0.1657896190881729,"602":-0.6746876239776611,"603":0.18973639607429504,"604":-0.5716220140457153,"605":0.31484776735305786,"606":0.5340943336486816,"607":-0.7350624203681946,"608":0.08021330088376999,"609":0.6946609020233154,"610":0.19734765589237213,"611":0.029987242072820663,"612":0.6608108282089233,"613":-0.7931396961212158,"614":-0.12270370870828629,"615":0.4792705774307251,"616":0.5091874003410339,"617":0.16567520797252655,"618":0.268198162317276,"619":-0.2508752644062042,"620":-0.22122050821781158,"621":-0.732785165309906,"622":0.5760372281074524,"623":-1.07476007938385,"624":0.5033038854598999,"625":0.16374915838241577,"626":-0.02453475072979927,"627":0.6623111367225647,"628":-0.2248564213514328,"629":-0.1260501891374588,"630":0.6745746731758118,"631":-0.6671465039253235,"632":0.798938512802124,"633":-0.6014708876609802,"634":-0.938956618309021,"635":-0.32629185914993286,"636":-0.6326419115066528,"637":0.04396921396255493,"638":0.07977346330881119,"639":-0.6920391917228699,"640":-0.2605750858783722,"641":-0.638116717338562,"642":0.5695475339889526,"643":0.6897947192192078,"644":-0.3278357982635498,"645":-0.4965267479419708,"646":0.6840531229972839,"647":0.2052815556526184,"648":-0.013182669878005981,"649":0.7773892283439636,"650":0.2391054779291153,"651":-0.06113261729478836,"652":0.5523269176483154,"653":0.6665459275245667,"654":-0.04642124101519585,"655":-1.0190422534942627,"656":-0.09924609959125519,"657":0.06518516689538956,"658":-0.6339597105979919,"659":0.6308090090751648,"660":-0.8787214159965515,"661":0.36872851848602295,"662":0.9936974048614502,"663":0.637822687625885,"664":0.2794223427772522,"665":-0.13108162581920624,"666":-0.34331828355789185,"667":0.9059552550315857,"668":-1.28190279006958,"669":0.48838815093040466,"670":-0.8297861218452454,"671":-0.6178389191627502,"672":0.7902195453643799,"673":0.02841048315167427,"674":-1.711045503616333,"675":1.255824327468872,"676":-0.7067552208900452,"677":-0.6185171008110046,"678":-0.9309991598129272,"679":0.034356676042079926,"680":0.9894752502441406,"681":-0.1891975998878479,"682":-0.6337913870811462,"683":0.6406717300415039,"684":0.6947752833366394,"685":0.9365800023078918,"686":0.46192997694015503,"687":0.7934964299201965,"688":1.1586169004440308,"689":0.18480093777179718,"690":-0.07633554190397263,"691":-1.3595603704452515,"692":-0.675786018371582,"693":0.8897997736930847,"694":0.8626119494438171,"695":-0.5911616683006287,"696":1.31162691116333,"697":-0.6895052790641785,"698":0.17140044271945953,"699":0.5391339063644409,"700":-0.1481715887784958,"701":1.1186801195144653,"702":0.3865033984184265,"703":0.5815251469612122,"704":-0.5349515080451965,"705":-0.328204482793808,"706":-0.5910109877586365,"707":-0.25407931208610535,"708":0.1317310929298401,"709":-0.11200661957263947,"710":-0.14748765528202057,"711":0.32099494338035583,"712":-0.16358977556228638,"713":-0.3373318016529083,"714":0.6355510950088501,"715":-0.11681496351957321,"716":0.13612551987171173,"717":0.07804166525602341,"718":-0.04448956623673439,"719":0.6285531520843506,"720":0.15133316814899445,"721":-0.513628363609314,"722":-0.047635212540626526,"723":0.15230728685855865,"724":-0.8088171482086182,"725":-0.13823167979717255,"726":0.2419121265411377,"727":0.06326635926961899,"728":0.6083188652992249,"729":0.5411142110824585,"730":-0.5449584722518921,"731":-0.6655935645103455,"732":-0.10503119975328445,"733":-0.010349961929023266,"734":0.6039819717407227,"735":0.0880114808678627,"736":-0.5033526420593262,"737":0.03463808447122574,"738":0.26494652032852173,"739":-0.5586864352226257}},"inputHidden":{"rows":20,"columns":20,"weights":{"0":-0.15965896844863892,"1":0.5775711536407471,"2":0.10385643690824509,"3":-0.5670715570449829,"4":-0.3261471092700958,"5":0.7555346488952637,"6":-0.7080422043800354,"7":-0.887026309967041,"8":0.202162504196167,"9":-0.20673877000808716,"10":0.11601675301790237,"11":-0.3758109509944916,"12":-0.7167054414749146,"13":0.4445090591907501,"14":0.23230348527431488,"15":0.709997832775116,"16":1.2147235870361328,"17":0.536137044429779,"18":0.11669645458459854,"19":-0.5685940980911255,"20":-0.20462051033973694,"21":0.31058603525161743,"22":0.06275293231010437,"23":0.9269406795501709,"24":0.09437856823205948,"25":-0.041459061205387115,"26":-0.19603334367275238,"27":0.20158231258392334,"28":0.38537904620170593,"29":-0.07686518877744675,"30":0.1575840711593628,"31":-0.6076955199241638,"32":-0.05899500474333763,"33":0.07267308980226517,"34":0.5525225400924683,"35":0.31765735149383545,"36":0.463462233543396,"37":0.35762593150138855,"38":-0.07603611797094345,"39":-0.32297441363334656,"40":-0.5795373916625977,"41":-0.5483095049858093,"42":0.5106779932975769,"43":0.3787233531475067,"44":0.5045590996742249,"45":-0.07093704491853714,"46":0.0062232110649347305,"47":0.18001393973827362,"48":0.7106014490127563,"49":-0.6011045575141907,"50":0.7474530339241028,"51":0.03817111998796463,"52":-0.11772552132606506,"53":-0.39882442355155945,"54":0.012517631985247135,"55":-0.7428358793258667,"56":0.20635132491588593,"57":-0.3883607089519501,"58":-0.5868216156959534,"59":0.07305160164833069,"60":-0.2574603259563446,"61":-0.4148644506931305,"62":0.055354043841362,"63":0.42455390095710754,"64":0.8963250517845154,"65":-0.5215181112289429,"66":0.5766006112098694,"67":0.5270710587501526,"68":-0.09223580360412598,"69":-0.10756389796733856,"70":-0.04450441896915436,"71":0.5977853536605835,"72":0.16905373334884644,"73":-1.0254677534103394,"74":-0.5398958325386047,"75":0.08181267976760864,"76":-0.6939531564712524,"77":-0.8089230060577393,"78":-0.3680846393108368,"79":0.4888060688972473,"80":0.613186240196228,"81":0.9369266629219055,"82":-0.5375407338142395,"83":0.14543801546096802,"84":-0.05155609920620918,"85":-0.1642175018787384,"86":-0.4029519855976105,"87":-0.10276874899864197,"88":-0.5463147163391113,"89":0.6572678089141846,"90":-0.7098960280418396,"91":0.014288361184298992,"92":0.10318777710199356,"93":0.7034422755241394,"94":0.7258887887001038,"95":0.6621120572090149,"96":0.36900779604911804,"97":1.0990363359451294,"98":0.9906157851219177,"99":-0.6236797571182251,"100":-0.9232046604156494,"101":-1.5652525424957275,"102":-0.11274085938930511,"103":0.025762436911463737,"104":0.7301220893859863,"105":-0.48050349950790405,"106":0.565134584903717,"107":0.2036619782447815,"108":-0.2221585512161255,"109":-0.07812414318323135,"110":0.1091737374663353,"111":0.5596339106559753,"112":0.6484671235084534,"113":-0.7089056968688965,"114":-0.4479106068611145,"115":0.2953953444957733,"116":-0.6407540440559387,"117":-1.0268267393112183,"118":-1.1397653818130493,"119":0.6550219655036926,"120":-0.5939858555793762,"121":-0.27124926447868347,"122":1.0499370098114014,"123":-0.06492366641759872,"124":0.7908967137336731,"125":-0.01275126077234745,"126":0.25881636142730713,"127":-0.06779563426971436,"128":0.389875590801239,"129":-0.09404680877923965,"130":-0.14253251254558563,"131":-0.20825541019439697,"132":0.06535802036523819,"133":-0.7880444526672363,"134":-0.3373222053050995,"135":0.6630436778068542,"136":-0.9259127974510193,"137":-0.6569430232048035,"138":-0.740569531917572,"139":-0.10894274711608887,"140":0.0953579768538475,"141":-0.15727241337299347,"142":-0.04069018363952637,"143":0.004458918236196041,"144":0.8612787127494812,"145":-0.3281044661998749,"146":0.5876312851905823,"147":0.3384045958518982,"148":-0.13373570144176483,"149":-0.0599796324968338,"150":0.0418173111975193,"151":0.4516919255256653,"152":-0.012737816199660301,"153":-0.8038908839225769,"154":-0.6994509696960449,"155":-0.03911765664815903,"156":-0.7491371035575867,"157":-0.7191214561462402,"158":0.08962024003267288,"159":0.5344048142433167,"160":-0.3425738215446472,"161":-0.4951142966747284,"162":0.5984753370285034,"163":0.7605893611907959,"164":0.053726762533187866,"165":-0.05032212659716606,"166":-0.0911027044057846,"167":0.16158749163150787,"168":0.7622506618499756,"169":-0.7640279531478882,"170":0.6092842817306519,"171":0.005475152749568224,"172":0.12996456027030945,"173":-0.3529471457004547,"174":-0.0008721213089302182,"175":-1.0407638549804688,"176":0.11103394627571106,"177":-0.4098847210407257,"178":-0.29375553131103516,"179":0.6526108980178833,"180":-0.7051391005516052,"181":-0.7575651407241821,"182":0.6128258109092712,"183":0.4678780138492584,"184":0.7467684745788574,"185":-0.6512948274612427,"186":-0.1438395380973816,"187":0.899046778678894,"188":0.6398604512214661,"189":-0.5604563355445862,"190":0.8401340842247009,"191":-0.005856659263372421,"192":-0.2540960907936096,"193":-0.6547678709030151,"194":0.10731302201747894,"195":0.02412734553217888,"196":-0.819006621837616,"197":-0.7298821806907654,"198":-0.6814181208610535,"199":-0.07240338623523712,"200":0.05988961085677147,"201":0.3340798318386078,"202":0.20409542322158813,"203":-0.15281863510608673,"204":-0.5844582319259644,"205":0.8019112944602966,"206":-0.48723581433296204,"207":0.11711014807224274,"208":-0.20586995780467987,"209":-0.48106783628463745,"210":-0.8514703512191772,"211":-0.6581313014030457,"212":-0.5189828872680664,"213":1.0308005809783936,"214":0.383122056722641,"215":1.4604802131652832,"216":1.1867871284484863,"217":0.24611850082874298,"218":-0.13302969932556152,"219":-0.5200524926185608,"220":-0.28802186250686646,"221":-0.012423328123986721,"222":-0.2758793830871582,"223":0.01802464760839939,"224":-0.1109166219830513,"225":-1.3219125270843506,"226":0.8445719480514526,"227":0.6622301936149597,"228":-0.627338171005249,"229":0.18251024186611176,"230":0.27683767676353455,"231":0.6697760224342346,"232":0.8938412666320801,"233":-0.14728446304798126,"234":-0.49672219157218933,"235":-0.12687116861343384,"236":-0.7171589732170105,"237":-0.12538950145244598,"238":-0.327556848526001,"239":1.483066439628601,"240":0.017664503306150436,"241":-0.34508705139160156,"242":-0.20017673075199127,"243":-0.020692747086286545,"244":0.8783048987388611,"245":-0.038290105760097504,"246":0.49644652009010315,"247":-0.05692645162343979,"248":-0.431117981672287,"249":-0.03517986088991165,"250":-0.7180220484733582,"251":0.3004879653453827,"252":0.48865988850593567,"253":-1.026285171508789,"254":-0.34897980093955994,"255":-0.21589507162570953,"256":-0.7935226559638977,"257":-1.0064375400543213,"258":-0.2995961606502533,"259":0.6059976816177368,"260":-0.2707933783531189,"261":-0.3079414665699005,"262":-0.21972042322158813,"263":0.22651956975460052,"264":0.16197533905506134,"265":-0.10295234620571136,"266":-0.12179023772478104,"267":0.05154097080230713,"268":-0.6554307341575623,"269":0.34724295139312744,"270":-0.12713147699832916,"271":0.40870964527130127,"272":0.26134636998176575,"273":-0.13166438043117523,"274":0.636551022529602,"275":0.9395423531532288,"276":-0.09612073749303818,"277":-0.061890460550785065,"278":-0.14297977089881897,"279":-0.35678401589393616,"280":-0.9315907955169678,"281":-0.5912558436393738,"282":0.8314815163612366,"283":-0.0014715201687067747,"284":0.7276843786239624,"285":-0.06661039590835571,"286":0.337990403175354,"287":-0.023246629163622856,"288":0.9116231799125671,"289":-0.2827305495738983,"290":0.919526219367981,"291":0.07647183537483215,"292":0.024508250877261162,"293":-0.6881494522094727,"294":-0.2841942012310028,"295":-0.3004629909992218,"296":-0.5681885480880737,"297":-0.6613391637802124,"298":-0.645297646522522,"299":0.11392586678266525,"300":-0.5684576630592346,"301":-0.6209410429000854,"302":0.48746830224990845,"303":-0.16613997519016266,"304":0.5098903775215149,"305":0.12258663773536682,"306":-0.3319146931171417,"307":-0.10113725066184998,"308":0.46521666646003723,"309":-0.13439686596393585,"310":0.4812045693397522,"311":-0.20142997801303864,"312":-0.1365075707435608,"313":-0.38966283202171326,"314":0.4290674030780792,"315":-0.668438196182251,"316":0.30358806252479553,"317":-0.5874269008636475,"318":-0.6266065239906311,"319":-0.022885899990797043,"320":-0.7040004134178162,"321":-0.43421342968940735,"322":-0.3980892300605774,"323":0.37947747111320496,"324":0.4410361051559448,"325":-0.15327176451683044,"326":0.2709699869155884,"327":0.054167233407497406,"328":-0.8630360960960388,"329":0.7384127378463745,"330":0.36013877391815186,"331":0.5982831716537476,"332":-0.03116174228489399,"333":-0.3377012610435486,"334":0.9898771047592163,"335":0.9040960073471069,"336":-0.6877246499061584,"337":-0.2061610370874405,"338":-0.5313456058502197,"339":0.4773852229118347,"340":-0.12925752997398376,"341":0.09503486752510071,"342":-0.24564169347286224,"343":0.18958044052124023,"344":-0.03077932819724083,"345":-0.17763873934745789,"346":-0.2355288714170456,"347":0.25752773880958557,"348":-0.12129160016775131,"349":-0.10261974483728409,"350":0.21600794792175293,"351":0.32340702414512634,"352":0.21434833109378815,"353":0.12439288198947906,"354":0.508597195148468,"355":0.542775571346283,"356":0.11249244213104248,"357":0.1837792992591858,"358":-0.19461575150489807,"359":-0.35293054580688477,"360":-0.2736808955669403,"361":0.1075802892446518,"362":0.2275824248790741,"363":0.2405577450990677,"364":0.02532467618584633,"365":0.4992184340953827,"366":-0.5894835591316223,"367":-0.7201616168022156,"368":0.14272832870483398,"369":-0.06693561375141144,"370":-0.08693490922451019,"371":-0.1441221982240677,"372":-0.5859672427177429,"373":-0.053698450326919556,"374":0.5203274488449097,"375":1.001619577407837,"376":-0.11569223552942276,"377":0.05049664527177811,"378":-0.027684099972248077,"379":-0.5257072448730469,"380":-0.4934143126010895,"381":-0.7809447050094604,"382":-0.2012602537870407,"383":0.42772436141967773,"384":0.9462811350822449,"385":-0.9928128123283386,"386":0.7245165705680847,"387":0.5694279670715332,"388":-0.54740971326828,"389":0.04278164356946945,"390":0.6563483476638794,"391":0.5701694488525391,"392":0.7850589752197266,"393":-0.8702884912490845,"394":-0.16672903299331665,"395":0.2382955551147461,"396":-0.7369471192359924,"397":-0.7721301913261414,"398":-0.7135566473007202,"399":0.8025803565979004}},"inputBias":{"rows":20,"columns":1,"weights":{"0":-0.45884355902671814,"1":-0.22807997465133667,"2":0.07655949145555496,"3":-1.4982459545135498,"4":-0.6342160701751709,"5":-1.4564647674560547,"6":-1.9642049074172974,"7":-1.157240867614746,"8":-0.9727928042411804,"9":-0.9420028924942017,"10":-0.9466181993484497,"11":0.06813148409128189,"12":-1.0686120986938477,"13":-0.13620412349700928,"14":-0.526734471321106,"15":0.2671273350715637,"16":-0.18860305845737457,"17":-0.04285150393843651,"18":-0.015091660432517529,"19":0.1298544555902481}},"forgetMatrix":{"rows":20,"columns":37,"weights":{"0":-0.13576927781105042,"1":-0.08484956622123718,"2":1.0487638711929321,"3":-0.11869131028652191,"4":0.4995358884334564,"5":0.15761367976665497,"6":0.15498925745487213,"7":0.7470506429672241,"8":-0.7097288370132446,"9":0.242963507771492,"10":0.5740746855735779,"11":-0.2349330335855484,"12":-0.0024922224693000317,"13":-0.4324520230293274,"14":-0.1726132482290268,"15":-0.4095894992351532,"16":-0.22434447705745697,"17":-0.526149570941925,"18":0.21630224585533142,"19":0.6767014265060425,"20":-0.2464689165353775,"21":0.1970975399017334,"22":0.42369094491004944,"23":-0.09850619733333588,"24":-0.8168668150901794,"25":-0.7750129699707031,"26":0.6044097542762756,"27":0.20949973165988922,"28":0.5170897841453552,"29":0.38319945335388184,"30":-0.4885636270046234,"31":0.7367575168609619,"32":-0.6035351753234863,"33":-0.0755377933382988,"34":-0.706535816192627,"35":-0.3679056167602539,"36":0.8990620970726013,"37":-0.43321821093559265,"38":0.6950053572654724,"39":0.1563742309808731,"40":0.17677561938762665,"41":0.004222098272293806,"42":0.19082896411418915,"43":0.3898301124572754,"44":-0.009557276032865047,"45":-0.6277307868003845,"46":0.21128621697425842,"47":0.18493036925792694,"48":-0.724962055683136,"49":0.37409549951553345,"50":-0.11468237638473511,"51":-0.32280293107032776,"52":0.1678672730922699,"53":-1.2567037343978882,"54":-0.01720402203500271,"55":0.7437745928764343,"56":0.2453218251466751,"57":0.06338909268379211,"58":0.5924692749977112,"59":0.1716633141040802,"60":-0.12535828351974487,"61":-0.2816273868083954,"62":-0.3054008483886719,"63":-0.17358092963695526,"64":0.5964255332946777,"65":0.7898116111755371,"66":0.22325214743614197,"67":0.07791229337453842,"68":-0.12811388075351715,"69":-0.06583043932914734,"70":0.19215068221092224,"71":-0.1361541599035263,"72":-0.4541037976741791,"73":0.6450376510620117,"74":0.26637768745422363,"75":-0.10001419484615326,"76":0.2557371258735657,"77":-0.22548897564411163,"78":0.2872801125049591,"79":-0.19294090569019318,"80":1.6220405101776123,"81":0.8770495653152466,"82":0.4269629418849945,"83":1.0803402662277222,"84":-0.08455167710781097,"85":0.5317273736000061,"86":-0.42865267395973206,"87":-0.6358191967010498,"88":0.48046836256980896,"89":-0.24995462596416473,"90":0.38867563009262085,"91":-0.19857124984264374,"92":-0.08993582427501678,"93":1.0453318357467651,"94":-0.15536507964134216,"95":-0.9234746694564819,"96":1.2153282165527344,"97":-0.0108137596398592,"98":-0.17546866834163666,"99":-0.31102874875068665,"100":0.1004754975438118,"101":-0.2872295081615448,"102":-0.4539167881011963,"103":-0.22238044440746307,"104":-0.09392023086547852,"105":0.023017028346657753,"106":-0.3771715760231018,"107":-0.208900585770607,"108":-0.7169340252876282,"109":0.7154542803764343,"110":-0.7034984230995178,"111":-0.5777798295021057,"112":0.5723891854286194,"113":0.5395888686180115,"114":0.09106945991516113,"115":0.6790164113044739,"116":0.43670347332954407,"117":0.6308903098106384,"118":0.6570926308631897,"119":-0.6405676007270813,"120":0.6132416725158691,"121":0.6028980612754822,"122":-0.04668938368558884,"123":0.6521875262260437,"124":-0.6903423070907593,"125":-0.6296897530555725,"126":0.6752339601516724,"127":-0.0470857098698616,"128":-0.6639463901519775,"129":0.46845686435699463,"130":0.6873252391815186,"131":-0.6145859956741333,"132":0.08559413254261017,"133":0.6564009785652161,"134":-0.6234380006790161,"135":-0.5862767696380615,"136":-0.5581188797950745,"137":0.002143631223589182,"138":0.42429158091545105,"139":0.0009296532953158021,"140":0.11506063491106033,"141":-0.6794012784957886,"142":-0.2056882679462433,"143":-0.37613824009895325,"144":0.06711705029010773,"145":-0.5822402238845825,"146":0.001664408715441823,"147":-0.04422106593847275,"148":-0.1137743890285492,"149":-0.00415033008903265,"150":-0.002702889498323202,"151":-0.28831300139427185,"152":-0.09644578397274017,"153":0.10382961481809616,"154":0.0980319157242775,"155":0.18635936081409454,"156":-0.3435794413089752,"157":0.41378796100616455,"158":-0.0222526453435421,"159":-0.25701335072517395,"160":0.23670922219753265,"161":-0.12846639752388,"162":-0.039246782660484314,"163":0.1314978450536728,"164":0.2540009617805481,"165":-0.11320102959871292,"166":-0.0161601472645998,"167":0.18361937999725342,"168":-0.22642146050930023,"169":0.10800309479236603,"170":0.21489989757537842,"171":-0.05406805872917175,"172":-0.11101537197828293,"173":-0.24233025312423706,"174":0.23259644210338593,"175":0.3346358835697174,"176":0.3948324918746948,"177":0.1769561469554901,"178":-0.03809068724513054,"179":0.37742117047309875,"180":0.02786015160381794,"181":-0.6240618824958801,"182":0.005844425410032272,"183":-0.2427973449230194,"184":0.23457041382789612,"185":-0.41256994009017944,"186":0.3970082104206085,"187":0.6549816131591797,"188":-0.6906589865684509,"189":0.5581731796264648,"190":0.6448580622673035,"191":0.6076111197471619,"192":0.5530409216880798,"193":-0.5169655680656433,"194":0.6343426704406738,"195":0.6242421269416809,"196":-0.0010851338738575578,"197":0.5483227968215942,"198":-0.6164557933807373,"199":-0.6254216432571411,"200":0.5369496941566467,"201":-0.03725943714380264,"202":-0.6868013143539429,"203":0.35808244347572327,"204":0.5905483961105347,"205":-0.6731515526771545,"206":0.009689095430076122,"207":0.6591212153434753,"208":-0.6002934575080872,"209":-0.5642647743225098,"210":-0.6849247813224792,"211":0.626362681388855,"212":0.44670239090919495,"213":-0.0681014433503151,"214":0.05573057010769844,"215":-0.6285516023635864,"216":0.25773918628692627,"217":-0.45542529225349426,"218":-0.6190733313560486,"219":-0.6766496896743774,"220":-0.06408876925706863,"221":-0.021728722378611565,"222":-0.5980488657951355,"223":0.2714637517929077,"224":-0.16794881224632263,"225":-0.49604716897010803,"226":0.6286842226982117,"227":0.5956640839576721,"228":0.6614212989807129,"229":-0.048447128385305405,"230":-0.7631287574768066,"231":0.6300963759422302,"232":0.592123806476593,"233":-0.027209803462028503,"234":0.6335856318473816,"235":-0.4511469304561615,"236":-0.6010985970497131,"237":0.4922432601451874,"238":-0.01502315979450941,"239":0.11872751265764236,"240":0.7682411074638367,"241":0.007012692280113697,"242":-0.6356139779090881,"243":-0.029483264312148094,"244":-0.09216796606779099,"245":0.34251275658607483,"246":0.23256000876426697,"247":-0.07222042977809906,"248":0.15429933369159698,"249":-0.1645597368478775,"250":-0.5581011176109314,"251":-0.13861316442489624,"252":-0.6331610083580017,"253":-0.11350291222333908,"254":-0.043258361518383026,"255":-0.44935765862464905,"256":-0.34199708700180054,"257":0.3885367214679718,"258":-0.5134678483009338,"259":-0.6493479609489441,"260":0.5897151827812195,"261":0.6135910153388977,"262":0.04868435859680176,"263":0.5999780297279358,"264":0.651979923248291,"265":0.564464807510376,"266":0.58903568983078,"267":-0.6158825159072876,"268":0.5773027539253235,"269":0.5482232570648193,"270":-0.00012457025877665728,"271":0.6752921342849731,"272":-0.6233545541763306,"273":-0.5589014291763306,"274":0.5451167225837708,"275":-0.042516689747571945,"276":-0.6588022112846375,"277":0.4948238432407379,"278":0.7027350068092346,"279":-0.6428972482681274,"280":0.0448484793305397,"281":0.5789220929145813,"282":-0.5280495882034302,"283":-0.6518808603286743,"284":-0.5391867160797119,"285":0.3875828683376312,"286":0.5646250247955322,"287":-0.06712522357702255,"288":0.08811627328395844,"289":-0.5675198435783386,"290":0.016891907900571823,"291":-0.28805530071258545,"292":0.1026151031255722,"293":-0.6039534211158752,"294":0.007506494410336018,"295":0.015635399147868156,"296":-0.01516144908964634,"297":0.052304912358522415,"298":-0.064067043364048,"299":0.16871824860572815,"300":-0.1598808914422989,"301":-0.49973592162132263,"302":0.3084885776042938,"303":-0.2840660810470581,"304":0.21295864880084991,"305":-0.048616018146276474,"306":-0.3547224998474121,"307":0.03822914510965347,"308":-0.41514384746551514,"309":0.0743701308965683,"310":0.4973962903022766,"311":-0.708316445350647,"312":-0.14298774302005768,"313":0.294556587934494,"314":-0.590749979019165,"315":-0.192947655916214,"316":-0.18524721264839172,"317":-0.7500008344650269,"318":0.02438635379076004,"319":0.02462594211101532,"320":0.39815738797187805,"321":0.06399913132190704,"322":-0.29747503995895386,"323":-0.33530521392822266,"324":-0.5966435670852661,"325":-0.16630257666110992,"326":0.03941935673356056,"327":-0.2514553368091583,"328":0.06607334315776825,"329":0.2828832268714905,"330":0.37206608057022095,"331":0.49369674921035767,"332":-0.4642549157142639,"333":-0.41319429874420166,"334":0.3890635371208191,"335":0.1437152475118637,"336":-0.0745476707816124,"337":0.059031590819358826,"338":-0.18085458874702454,"339":0.6531689763069153,"340":1.242078185081482,"341":-1.0427138805389404,"342":0.97306889295578,"343":-0.03246467560529709,"344":0.00560534093528986,"345":-0.5227305889129639,"346":-1.3378878831863403,"347":0.2675897181034088,"348":0.23537825047969818,"349":0.19647137820720673,"350":-0.4425051212310791,"351":0.3029056489467621,"352":0.9160085320472717,"353":-0.026372583582997322,"354":-0.48426946997642517,"355":0.9565603733062744,"356":0.7920493483543396,"357":-0.9682963490486145,"358":-0.9185306429862976,"359":-0.056298449635505676,"360":0.5516510009765625,"361":-0.302931010723114,"362":-0.580816924571991,"363":0.07138659060001373,"364":-0.14133554697036743,"365":-0.8294292092323303,"366":0.013691337779164314,"367":-1.2768336534500122,"368":0.7654390931129456,"369":0.0033138561993837357,"370":-1.223332166671753,"371":0.8912137150764465,"372":-0.7873966693878174,"373":1.0527653694152832,"374":0.417059987783432,"375":-0.09387000650167465,"376":0.005791328847408295,"377":-0.5246522426605225,"378":0.1034511998295784,"379":-0.22194574773311615,"380":0.1921086609363556,"381":-1.0698754787445068,"382":-0.00945870392024517,"383":0.3228479325771332,"384":-0.7104057669639587,"385":0.29925161600112915,"386":-1.6857130527496338,"387":0.3318462073802948,"388":0.2806607186794281,"389":-0.5833431482315063,"390":0.4185057282447815,"391":0.28051474690437317,"392":-0.42505884170532227,"393":-0.20949529111385345,"394":0.5317782163619995,"395":0.07066071033477783,"396":-0.7443110942840576,"397":-0.21860899031162262,"398":0.5869608521461487,"399":0.8196220993995667,"400":-0.7601431012153625,"401":-0.46467354893684387,"402":-0.14438693225383759,"403":1.4941211938858032,"404":0.5285428762435913,"405":-0.24882711470127106,"406":0.4988708794116974,"407":0.23839928209781647,"408":-0.43590015172958374,"409":-0.42589518427848816,"410":-0.5244082808494568,"411":0.03354800119996071,"412":0.3216482698917389,"413":-0.3443666100502014,"414":-0.5381507873535156,"415":0.4862571358680725,"416":-0.6326638460159302,"417":-0.17035146057605743,"418":0.1645253449678421,"419":-0.18847987055778503,"420":0.47739121317863464,"421":0.24025386571884155,"422":-0.3519541025161743,"423":0.3770168125629425,"424":0.3677144944667816,"425":-0.44995078444480896,"426":-0.5634400844573975,"427":0.3765392601490021,"428":-0.8056840896606445,"429":-0.5193960666656494,"430":0.16534699499607086,"431":0.5068045258522034,"432":0.5900853872299194,"433":0.41508835554122925,"434":-0.4631673991680145,"435":-0.3340849280357361,"436":-0.12571123242378235,"437":0.04355316981673241,"438":0.40605056285858154,"439":0.07029727846384048,"440":-0.1997215300798416,"441":0.4358864426612854,"442":0.15175969898700714,"443":-0.15594013035297394,"444":-0.6119995713233948,"445":0.5724993348121643,"446":0.7656332850456238,"447":-0.5900512933731079,"448":0.6690858602523804,"449":0.6062664985656738,"450":0.6610766649246216,"451":0.675027072429657,"452":-0.6738765835762024,"453":0.6599814295768738,"454":0.7619358897209167,"455":0.01605311781167984,"456":0.7130398750305176,"457":-0.6383059620857239,"458":-0.7220610976219177,"459":0.6664770245552063,"460":0.01703678071498871,"461":-0.6797974109649658,"462":0.48198941349983215,"463":0.6255597472190857,"464":-0.6312647461891174,"465":0.08389542251825333,"466":0.603630542755127,"467":-0.43002888560295105,"468":-0.6704273819923401,"469":-0.6552624106407166,"470":0.2745203375816345,"471":0.6344547271728516,"472":0.06499382853507996,"473":0.07565869390964508,"474":-0.6625360250473022,"475":0.25441572070121765,"476":-0.09285334497690201,"477":-0.17179442942142487,"478":-0.6435079574584961,"479":0.007484498433768749,"480":-0.003594811540096998,"481":-0.40489521622657776,"482":0.45952463150024414,"483":0.15335048735141754,"484":0.07463056594133377,"485":0.09769615530967712,"486":0.057511575520038605,"487":0.199945867061615,"488":-0.043928589671850204,"489":0.1311013102531433,"490":-0.18049053847789764,"491":0.08008908480405807,"492":-0.7526488304138184,"493":0.26001599431037903,"494":-0.12845595180988312,"495":-0.11314928531646729,"496":0.2513684928417206,"497":-0.28723153471946716,"498":0.09017381072044373,"499":0.41881778836250305,"500":-0.3587997257709503,"501":-0.10934165120124817,"502":0.5941113829612732,"503":-0.04206053167581558,"504":-0.17094793915748596,"505":-0.0424051508307457,"506":0.10985101014375687,"507":0.19311761856079102,"508":0.07793080806732178,"509":0.825592577457428,"510":0.4962577521800995,"511":-0.13267381489276886,"512":0.2814004123210907,"513":-0.21861715614795685,"514":0.10611885786056519,"515":-0.14973537623882294,"516":-0.7078531384468079,"517":0.8065880537033081,"518":0.2707855701446533,"519":-0.5160962343215942,"520":0.20766809582710266,"521":-0.5906814932823181,"522":0.2689003050327301,"523":0.7410503625869751,"524":0.3771189749240875,"525":0.08689288049936295,"526":-0.1861443966627121,"527":0.23526939749717712,"528":0.4031258821487427,"529":-0.07717805355787277,"530":0.054786406457424164,"531":-0.05226868391036987,"532":-0.14212551712989807,"533":0.1114305779337883,"534":0.6234659552574158,"535":-0.01920814998447895,"536":-0.4952796995639801,"537":0.03981306776404381,"538":-0.8261457681655884,"539":0.06886757165193558,"540":0.17365364730358124,"541":0.0020611502695828676,"542":0.02305101417005062,"543":-0.044480033218860626,"544":0.7011867165565491,"545":-0.04117058217525482,"546":-0.6446422338485718,"547":-0.1804983764886856,"548":-1.1391936540603638,"549":0.6290001273155212,"550":-0.08663353323936462,"551":-0.7328033447265625,"552":-0.0050019570626318455,"553":0.5968636274337769,"554":-0.7032275795936584,"555":-0.09280671179294586,"556":-0.8587989211082458,"557":0.08004076778888702,"558":0.2691316306591034,"559":0.1845046579837799,"560":0.5039772987365723,"561":0.8697397708892822,"562":0.11994706094264984,"563":0.29892697930336,"564":0.12859824299812317,"565":0.0790577307343483,"566":0.06562955677509308,"567":0.11372034251689911,"568":-0.07043380290269852,"569":-0.2527439594268799,"570":0.379223108291626,"571":-0.02439037337899208,"572":-0.18553711473941803,"573":-0.2088928371667862,"574":0.2099592089653015,"575":-1.0883594751358032,"576":-0.06744560599327087,"577":0.19970858097076416,"578":0.25497138500213623,"579":-0.30226728320121765,"580":0.2215070128440857,"581":-0.22440485656261444,"582":-0.16421851515769958,"583":-0.5427806377410889,"584":0.27325063943862915,"585":-0.3891851007938385,"586":-0.41038671135902405,"587":-0.15711164474487305,"588":-0.16531401872634888,"589":-0.2372732311487198,"590":0.7082293033599854,"591":-0.5282310247421265,"592":0.29878169298171997,"593":-0.26067426800727844,"594":-0.18732215464115143,"595":-0.6541293859481812,"596":0.34812551736831665,"597":0.1286705881357193,"598":-0.4215678870677948,"599":-1.158024549484253,"600":0.975594162940979,"601":-0.7850856781005859,"602":-0.034566670656204224,"603":0.31835055351257324,"604":0.5972176790237427,"605":0.7628942131996155,"606":-0.8528969287872314,"607":-0.6638957858085632,"608":0.4120813310146332,"609":0.37136518955230713,"610":-0.5655914545059204,"611":-0.624121367931366,"612":0.2562873065471649,"613":-0.47257018089294434,"614":-1.0332506895065308,"615":-0.7180508971214294,"616":0.7831069827079773,"617":1.120105504989624,"618":0.560032308101654,"619":-0.9517685174942017,"620":-0.4766683876514435,"621":-0.10707932710647583,"622":-0.5262486338615417,"623":0.5971185564994812,"624":-0.6264410018920898,"625":-0.07374869287014008,"626":0.747931718826294,"627":-0.28759047389030457,"628":0.14108629524707794,"629":-0.7481715083122253,"630":-0.054274655878543854,"631":-0.29894742369651794,"632":-0.35160401463508606,"633":-0.2778643071651459,"634":0.1268077790737152,"635":-0.2794402837753296,"636":-0.43757015466690063,"637":0.17288297414779663,"638":-0.2848857045173645,"639":-0.16286492347717285,"640":-0.9303903579711914,"641":0.24793733656406403,"642":0.37074530124664307,"643":0.03303787112236023,"644":0.10454058647155762,"645":-0.29244184494018555,"646":-0.15728706121444702,"647":0.039562053978443146,"648":-1.0695083141326904,"649":0.19421370327472687,"650":0.37913981080055237,"651":-0.32114365696907043,"652":-0.07763445377349854,"653":0.3991440236568451,"654":0.40218114852905273,"655":0.6288855075836182,"656":-0.20725606381893158,"657":0.9517354369163513,"658":0.8439751863479614,"659":0.07824752479791641,"660":0.8271957635879517,"661":-0.41285640001296997,"662":-0.15286517143249512,"663":0.2787432372570038,"664":-0.8679695725440979,"665":0.6406531929969788,"666":0.004743512254208326,"667":-0.07064957916736603,"668":0.16435417532920837,"669":-1.2713749408721924,"670":0.09362629801034927,"671":0.004679231438785791,"672":-0.27772974967956543,"673":0.2458285093307495,"674":-0.4015505909919739,"675":0.0748538002371788,"676":-0.011102399788796902,"677":-0.47542932629585266,"678":-0.11223200708627701,"679":-0.06392242014408112,"680":0.42524075508117676,"681":-0.2975098192691803,"682":-0.4628443121910095,"683":-0.24679061770439148,"684":-0.057552214711904526,"685":0.07246584445238113,"686":0.034862130880355835,"687":-0.02496132254600525,"688":0.23105981945991516,"689":-0.5139010548591614,"690":-0.09630917757749557,"691":-0.15248998999595642,"692":1.68657386302948,"693":0.2353292554616928,"694":0.5018036961555481,"695":0.6860108375549316,"696":-0.26547056436538696,"697":1.5915422439575195,"698":-0.6017432808876038,"699":-1.0114330053329468,"700":-0.12316642701625824,"701":-0.5643278956413269,"702":0.7225056886672974,"703":0.2579873502254486,"704":-0.16499441862106323,"705":-0.16280223429203033,"706":-0.5955494046211243,"707":0.1538013368844986,"708":0.3592623770236969,"709":-0.2525344789028168,"710":-0.2377508580684662,"711":0.3494443893432617,"712":-0.17979571223258972,"713":0.07418599724769592,"714":0.35037168860435486,"715":-0.6185805797576904,"716":0.23188425600528717,"717":0.45223742723464966,"718":-0.5012068748474121,"719":0.5426006317138672,"720":0.44977501034736633,"721":-0.363115131855011,"722":-0.10361927002668381,"723":-0.3161419928073883,"724":0.3322625756263733,"725":-0.20735053718090057,"726":0.47459858655929565,"727":0.3081142008304596,"728":0.06597313284873962,"729":0.5107597708702087,"730":-0.36762735247612,"731":-0.5967481732368469,"732":-0.5811226963996887,"733":-0.4651056230068207,"734":0.36913102865219116,"735":0.27405837178230286,"736":-0.3983670175075531,"737":0.25657644867897034,"738":0.5933754444122314,"739":-0.35589367151260376}},"forgetHidden":{"rows":20,"columns":20,"weights":{"0":0.7261137962341309,"1":0.09216009825468063,"2":-0.48871585726737976,"3":-0.05508983135223389,"4":0.5262933373451233,"5":0.40343302488327026,"6":0.12372187525033951,"7":-0.5038125514984131,"8":-0.8773056268692017,"9":-0.21774059534072876,"10":-0.8449937701225281,"11":-0.6851046681404114,"12":0.01059022918343544,"13":0.5351622700691223,"14":0.04972425103187561,"15":0.1292395144701004,"16":0.4978346526622772,"17":0.1639624536037445,"18":-0.17035552859306335,"19":-0.03830242156982422,"20":0.13150598108768463,"21":0.5281349420547485,"22":0.38525697588920593,"23":-0.8365300297737122,"24":0.010408365167677402,"25":0.7486228346824646,"26":-1.2829102277755737,"27":-1.1922194957733154,"28":0.29236385226249695,"29":0.16869273781776428,"30":-0.33860430121421814,"31":-0.28892308473587036,"32":-1.1046055555343628,"33":0.5589900612831116,"34":0.975541889667511,"35":0.017711415886878967,"36":0.74567049741745,"37":0.5844975113868713,"38":0.5058451294898987,"39":-1.026786208152771,"40":-0.4728613495826721,"41":-0.8212869763374329,"42":0.8329702615737915,"43":-0.620120108127594,"44":0.4789375364780426,"45":-0.0022311166394501925,"46":0.45872217416763306,"47":0.3631953299045563,"48":-0.16560454666614532,"49":0.21123087406158447,"50":0.2129434496164322,"51":-0.626160204410553,"52":0.48473459482192993,"53":-0.5457432866096497,"54":-0.5913187265396118,"55":-0.0523560494184494,"56":0.5626475811004639,"57":-0.42366549372673035,"58":0.2859274744987488,"59":0.3234024941921234,"60":-0.6300873756408691,"61":-0.587675929069519,"62":0.6865286827087402,"63":0.5623770952224731,"64":0.056972160935401917,"65":-0.544639527797699,"66":0.03219762444496155,"67":0.6081823706626892,"68":0.06233718991279602,"69":-0.591924250125885,"70":0.5917457938194275,"71":0.11485887318849564,"72":0.021168403327465057,"73":-0.13443969190120697,"74":-0.06262274831533432,"75":-0.09383795410394669,"76":-0.09684275835752487,"77":-0.2855829894542694,"78":-0.6172588467597961,"79":-0.023685604333877563,"80":0.7906199097633362,"81":0.819267749786377,"82":0.2482200562953949,"83":-0.6801888346672058,"84":-0.8736686110496521,"85":0.709348738193512,"86":-0.20084905624389648,"87":-0.6407106518745422,"88":-0.18339639902114868,"89":0.5659546256065369,"90":-0.8142867088317871,"91":-0.17439107596874237,"92":-0.9465553760528564,"93":0.7644285559654236,"94":-0.07946230471134186,"95":0.04877206310629845,"96":0.20783311128616333,"97":0.7457651495933533,"98":0.35485848784446716,"99":-0.24524220824241638,"100":-0.6494749188423157,"101":-0.6212815642356873,"102":0.64845871925354,"103":0.005520491860806942,"104":-0.06074552610516548,"105":0.018150677904486656,"106":-0.05860992148518562,"107":0.03794623538851738,"108":0.5414701104164124,"109":-0.6090036034584045,"110":0.7161924242973328,"111":-0.10227016359567642,"112":-0.04844825342297554,"113":-0.1716998964548111,"114":0.054615769535303116,"115":-0.6390904784202576,"116":-0.44351038336753845,"117":-0.5422381162643433,"118":-0.5796260833740234,"119":-0.0018657937180250883,"120":-0.4459124207496643,"121":-1.0456995964050293,"122":0.6740806102752686,"123":-0.015783129259943962,"124":0.20951034128665924,"125":-0.2769941985607147,"126":0.7927940487861633,"127":0.16937893629074097,"128":0.6245173215866089,"129":-0.38297316431999207,"130":0.4223391115665436,"131":0.09740854054689407,"132":0.7859892845153809,"133":-0.3971770107746124,"134":-0.48794078826904297,"135":-0.6479002237319946,"136":-0.07628706097602844,"137":-0.6518932580947876,"138":-0.5169617533683777,"139":0.6373662948608398,"140":-0.6646381616592407,"141":-0.6293167471885681,"142":0.6991673707962036,"143":0.5327026844024658,"144":0.02471773326396942,"145":-0.08609730005264282,"146":0.0599428154528141,"147":0.0964556336402893,"148":0.579085111618042,"149":-0.5552670955657959,"150":0.5982130765914917,"151":-0.028308967128396034,"152":-0.04791250079870224,"153":-0.2319982945919037,"154":-0.05671063810586929,"155":0.036437343806028366,"156":-0.05327875167131424,"157":-0.4944148361682892,"158":-0.6946783661842346,"159":0.05116362124681473,"160":-0.07227970659732819,"161":-0.24735568463802338,"162":0.6503502726554871,"163":-0.024817204102873802,"164":0.3377954959869385,"165":-0.03078756295144558,"166":0.6391779780387878,"167":0.049452610313892365,"168":0.5120989680290222,"169":-0.4584367573261261,"170":-0.5765185356140137,"171":-0.3969402015209198,"172":0.600464403629303,"173":-0.2562108337879181,"174":-0.583929181098938,"175":-0.5114637017250061,"176":0.18181969225406647,"177":-0.821185290813446,"178":0.1310422271490097,"179":0.5926753878593445,"180":-0.6006559133529663,"181":-0.6964407563209534,"182":-0.4537620544433594,"183":0.7355718612670898,"184":-0.1421351432800293,"185":-0.429423451423645,"186":0.2096930593252182,"187":0.46158161759376526,"188":-0.16990290582180023,"189":-0.6007591485977173,"190":0.4201106131076813,"191":0.2681313455104828,"192":0.3444811999797821,"193":-0.6267349123954773,"194":-0.23405684530735016,"195":0.17176291346549988,"196":-0.6195089221000671,"197":-0.596855640411377,"198":-0.4577498435974121,"199":0.15263745188713074,"200":-0.6555087566375732,"201":-0.2841303050518036,"202":0.0295440461486578,"203":0.08551827818155289,"204":0.5831838846206665,"205":0.7112960815429688,"206":-0.4796295166015625,"207":-0.4467070698738098,"208":0.42093217372894287,"209":0.18634746968746185,"210":0.7198854684829712,"211":-0.4722400903701782,"212":-0.3165419399738312,"213":0.22700554132461548,"214":0.5070511698722839,"215":-0.4076395630836487,"216":0.394173264503479,"217":-0.34676262736320496,"218":-0.723423182964325,"219":-0.6903330683708191,"220":0.22284100949764252,"221":-0.33868399262428284,"222":-0.03763493895530701,"223":-0.7116861939430237,"224":1.2806546688079834,"225":-0.037958379834890366,"226":-0.054395563900470734,"227":-0.018447894603013992,"228":-0.14364609122276306,"229":0.45881789922714233,"230":-0.34250834584236145,"231":0.24034933745861053,"232":-0.12115458399057388,"233":-0.9108037948608398,"234":-0.0020002764649689198,"235":0.8891675472259521,"236":-0.2905685305595398,"237":-1.0723036527633667,"238":0.3496165871620178,"239":-0.03547390550374985,"240":-0.7054270505905151,"241":-0.7448042035102844,"242":0.6440436244010925,"243":-0.08861523121595383,"244":-0.1178913488984108,"245":0.10312461853027344,"246":0.2741326093673706,"247":0.011599385179579258,"248":0.5454195737838745,"249":-0.6002774834632874,"250":0.6130673885345459,"251":0.06807692348957062,"252":-0.13958530128002167,"253":-0.06967291980981827,"254":-0.658905029296875,"255":-0.6654756665229797,"256":0.0014322155620902777,"257":-0.7541625499725342,"258":-0.559620201587677,"259":0.006076729390770197,"260":0.4860597848892212,"261":0.6001625657081604,"262":0.1292228251695633,"263":-0.6801784634590149,"264":0.09565116465091705,"265":0.559190571308136,"266":-0.5034533143043518,"267":-1.0296545028686523,"268":-0.4636944830417633,"269":0.09415767341852188,"270":-0.5862324833869934,"271":-0.2951824367046356,"272":-0.47301656007766724,"273":0.48391205072402954,"274":0.5942201018333435,"275":0.08056065440177917,"276":0.41843661665916443,"277":0.47011759877204895,"278":0.5551361441612244,"279":-0.6217586994171143,"280":-0.25494518876075745,"281":-0.2770437002182007,"282":0.5034605264663696,"283":-0.032973386347293854,"284":-0.10346224904060364,"285":0.6407065987586975,"286":0.5392735600471497,"287":-0.09626083821058273,"288":0.6100146174430847,"289":0.1722588688135147,"290":0.14266753196716309,"291":0.07857797294855118,"292":0.43805667757987976,"293":-1.0367227792739868,"294":-0.666038453578949,"295":-0.6859212517738342,"296":-0.16004987061023712,"297":-1.0625650882720947,"298":-0.26464423537254333,"299":0.47421368956565857,"300":-0.6263096928596497,"301":0.09757467359304428,"302":0.6742351055145264,"303":0.43932268023490906,"304":-0.4740472733974457,"305":-1.872550129890442,"306":0.7244389057159424,"307":0.7337329387664795,"308":1.3709750175476074,"309":-0.7371457815170288,"310":0.7486667037010193,"311":-0.2649926543235779,"312":0.9429109692573547,"313":-0.6902596354484558,"314":-0.5642541646957397,"315":-0.9158592820167542,"316":0.11358670890331268,"317":-0.24227583408355713,"318":0.35066038370132446,"319":0.8781591653823853,"320":0.5190021395683289,"321":0.39037036895751953,"322":-0.11261651664972305,"323":-0.5730893015861511,"324":0.23937715590000153,"325":0.07980851083993912,"326":-0.1810453236103058,"327":-0.10559578239917755,"328":-0.28389057517051697,"329":0.6738588213920593,"330":-0.583228349685669,"331":0.44656404852867126,"332":-0.10528644174337387,"333":0.3989543616771698,"334":0.27406078577041626,"335":-0.5454137921333313,"336":-0.5189452171325684,"337":0.34327366948127747,"338":0.520021378993988,"339":-0.13108950853347778,"340":0.4564959406852722,"341":0.5137154459953308,"342":-0.15311168134212494,"343":-0.6626091003417969,"344":-0.21758723258972168,"345":0.27143701910972595,"346":-0.11094584316015244,"347":-0.7527753114700317,"348":-0.034856025129556656,"349":0.9046522974967957,"350":-0.4299403429031372,"351":-0.46810126304626465,"352":-0.061124689877033234,"353":0.4436044991016388,"354":-0.0015237107872962952,"355":-0.0008234924753196537,"356":0.4486885070800781,"357":0.4685988426208496,"358":0.6069365739822388,"359":-0.15444879233837128,"360":0.5005044341087341,"361":0.4989059865474701,"362":0.5908320546150208,"363":0.09649135917425156,"364":0.013852600939571857,"365":0.03774638846516609,"366":0.41517242789268494,"367":-0.38252541422843933,"368":-0.3896556496620178,"369":-0.3386848568916321,"370":-0.6689392328262329,"371":-0.6627795696258545,"372":0.22768451273441315,"373":0.508079469203949,"374":-0.27946680784225464,"375":0.10627010464668274,"376":0.6146034002304077,"377":0.5644218325614929,"378":0.7628520131111145,"379":0.07129891216754913,"380":-0.6964766979217529,"381":-1.9549082517623901,"382":0.47576773166656494,"383":-0.09259654581546783,"384":1.0597386360168457,"385":-0.3306407928466797,"386":1.1495202779769897,"387":0.14571723341941833,"388":0.5579947829246521,"389":-0.028210055083036423,"390":0.5574219822883606,"391":0.040775734931230545,"392":0.42181745171546936,"393":-1.2972520589828491,"394":-0.15273620188236237,"395":-0.7175642251968384,"396":-0.8120462894439697,"397":-1.7716845273971558,"398":-0.6320148706436157,"399":0.9382032752037048}},"forgetBias":{"rows":20,"columns":1,"weights":{"0":0,"1":0,"2":0,"3":0,"4":0,"5":0,"6":0,"7":0,"8":0,"9":0,"10":0,"11":0,"12":0,"13":0,"14":0,"15":0,"16":0,"17":0,"18":0,"19":0}},"outputMatrix":{"rows":20,"columns":37,"weights":{"0":-1.0700492858886719,"1":1.2850990295410156,"2":-0.053953077644109726,"3":0.9502273201942444,"4":0.04187934473156929,"5":-0.4805104732513428,"6":0.41752979159355164,"7":-0.12094037979841232,"8":0.0988585352897644,"9":-0.022220205515623093,"10":-0.4022305905818939,"11":-0.8776149153709412,"12":0.23845797777175903,"13":-0.5158989429473877,"14":-0.13536594808101654,"15":0.3165002465248108,"16":-0.9885547161102295,"17":0.24647356569766998,"18":0.787194550037384,"19":-0.1302184760570526,"20":0.04723600298166275,"21":-0.790173351764679,"22":0.02053210325539112,"23":-0.7721351981163025,"24":-0.0018311931053176522,"25":-0.27162203192710876,"26":-0.9281546473503113,"27":0.20753416419029236,"28":0.8169389367103577,"29":0.3226180970668793,"30":-0.6250613927841187,"31":-0.794691801071167,"32":-0.4090498089790344,"33":1.2434797286987305,"34":-0.09659582376480103,"35":-0.22535869479179382,"36":0.926165759563446,"37":-1.8089866638183594,"38":1.1721138954162598,"39":-0.5341752767562866,"40":0.9446613788604736,"41":-0.1465497761964798,"42":-0.2951393127441406,"43":0.12800656259059906,"44":-0.9549970030784607,"45":0.8842960596084595,"46":-0.927566409111023,"47":-0.33002498745918274,"48":-1.423047423362732,"49":0.034942626953125,"50":0.12020255625247955,"51":-0.019285710528492928,"52":0.46457529067993164,"53":-1.430817723274231,"54":0.939985990524292,"55":1.0251412391662598,"56":-0.566389799118042,"57":0.7932918071746826,"58":-0.41405490040779114,"59":-1.1447902917861938,"60":-0.057820647954940796,"61":0.14802153408527374,"62":1.4145082235336304,"63":-0.8686317801475525,"64":-1.1949728727340698,"65":1.3724645376205444,"66":0.29796677827835083,"67":0.36021652817726135,"68":-0.2536173164844513,"69":0.10656318813562393,"70":1.2683522701263428,"71":0.21886879205703735,"72":-0.13288553059101105,"73":0.5446766018867493,"74":0.14912892878055573,"75":0.23496326804161072,"76":0.5784483551979065,"77":0.5401540398597717,"78":0.5557776093482971,"79":-0.005640970077365637,"80":1.1155916452407837,"81":0.906217634677887,"82":-1.0156865119934082,"83":1.1919746398925781,"84":0.532669186592102,"85":-0.008358698338270187,"86":0.39438700675964355,"87":-0.5911083221435547,"88":-0.9602513313293457,"89":0.8090142011642456,"90":-0.5550773739814758,"91":-0.8282720446586609,"92":0.14292357861995697,"93":0.7824325561523438,