{"type":"LSTM","options":{"inputSize":66,"inputRange":66,"hiddenLayers":[20,20],"outputSize":66,"decayRate":0.999,"smoothEps":1e-8,"regc":0.000001,"clipval":5,"maxPredictionLength":100,"dataFormatter":{"values":["A car must be driven a distance of 120km in 2.5h. During the first 1.5h the average speed was 70 kmh-1. Calculate the average speed for the remainder of the journey.",["120km","2.5h","1.5h","70 kmh-1"],"The initial velocity of a car moving on a straight road is 2.0 ms−1. It becomes 8.0 ms−1 after travelling for 2.0s under constant acceleration. Find the acceleration.",["2.0 ms-1","8.0 ms-1","2.0s","constant acceleration"],"A particle has an initial velocity of 12ms−1 and is brought to rest over a distance of 45m. Find the acceleration of the particle.",["12ms-1","45m","rest"],"A particle at the origin has an initial velocity of −6.0ms−1 and moves with an acceleration of 2.0 ms−2. Determine when its position will become 16m.",["-6.0ms-1","2.0 ms-2","16m"],"A plane starting from rest takes 15.0s to take off after speeding over a distance of 450m on the runway with constant acceleration. Find the take-off velocity.",["rest","15.0s","450m","constant acceleration"],"Two balls are dropped from rest from the same height. One of the balls is dropped 1.00s after the other. Find the distance that separates the two balls 2.00s after the second ball is dropped.",["rest","1.00s","2.00s"],"A stone is thrown vertically up from the edge of a cliff 35.0m from the sea. The initial velocity of the stone is 8.00ms−1.",["35.0m","8.00ms-1"]],"indexTable":{"0":19,"1":17,"2":18,"3":60,"4":47,"5":22,"6":51,"7":28,"8":41,"A":0," ":1,"c":2,"a":3,"r":4,"m":5,"u":6,"s":7,"t":8,"b":9,"e":10,"d":11,"i":12,"v":13,"n":14,"o":15,"f":16,"k":20,".":21,"h":23,"D":24,"g":25,"p":26,"w":27,"-":29,"C":30,"l":31,"j":32,"y":33,"120km":34,"2.5h":35,"1.5h":36,"70 kmh-1":37,"T":38,"−":39,"I":40,"F":42,"2.0 ms-1":43,"8.0 ms-1":44,"2.0s":45,"constant acceleration":46,"12ms-1":48,"45m":49,"rest":50,"-6.0ms-1":52,"2.0 ms-2":53,"16m":54,"15.0s":55,"450m":56,"O":57,"1.00s":58,"2.00s":59,"35.0m":61,"8.00ms-1":62,"stop-input":63,"start-output":64,"unrecognized":65},"characterTable":{"0":"A","1":" ","2":"c","3":"a","4":"r","5":"m","6":"u","7":"s","8":"t","9":"b","10":"e","11":"d","12":"i","13":"v","14":"n","15":"o","16":"f","17":"1","18":"2","19":"0","20":"k","21":".","22":"5","23":"h","24":"D","25":"g","26":"p","27":"w","28":"7","29":"-","30":"C","31":"l","32":"j","33":"y","34":"120km","35":"2.5h","36":"1.5h","37":"70 kmh-1","38":"T","39":"−","40":"I","41":"8","42":"F","43":"2.0 ms-1","44":"8.0 ms-1","45":"2.0s","46":"constant acceleration","47":"4","48":"12ms-1","49":"45m","50":"rest","51":"6","52":"-6.0ms-1","53":"2.0 ms-2","54":"16m","55":"15.0s","56":"450m","57":"O","58":"1.00s","59":"2.00s","60":"3","61":"35.0m","62":"8.00ms-1","63":null,"64":null,"65":null},"characters":["A"," ","c","a","r","m","u","s","t","b","e","d","i","v","n","o","f","1","2","0","k",".","5","h","D","g","p","w","7","-","C","l","j","y","120km","2.5h","1.5h","70 kmh-1","T","−","I","8","F","2.0 ms-1","8.0 ms-1","2.0s","constant acceleration","4","12ms-1","45m","rest","6","-6.0ms-1","2.0 ms-2","16m","15.0s","450m","O","1.00s","2.00s","3","35.0m","8.00ms-1","stop-input","start-output","unrecognized"],"specialIndexes":[63,64,65]}},"input":{"rows":67,"columns":66,"weights":{"0":-0.6138333082199097,"1":-0.25837212800979614,"2":0.24994878470897675,"3":1.073928952217102,"4":-1.0149288177490234,"5":0.679802417755127,"6":-0.578985869884491,"7":-0.0035891251172870398,"8":0.6388319134712219,"9":0.7358111143112183,"10":0.8265619874000549,"11":0.7382332682609558,"12":-1.7660772800445557,"13":0.36606311798095703,"14":0.19009335339069366,"15":-0.34818756580352783,"16":-1.2114343643188477,"17":-0.38048723340034485,"18":-0.3189184069633484,"19":0.10502118617296219,"20":1.1235166788101196,"21":-0.11196691542863846,"22":0.03661248832941055,"23":0.22868017852306366,"24":0.9653958082199097,"25":-0.21005894243717194,"26":0.19350562989711761,"27":-0.24556103348731995,"28":-1.5968232154846191,"29":-0.7330575585365295,"30":-0.3845938742160797,"31":0.8117784857749939,"32":-0.6114173531532288,"33":2.6003949642181396,"34":-0.4004642963409424,"35":0.34738343954086304,"36":1.4584099054336548,"37":0.1308559775352478,"38":-0.26305311918258667,"39":-0.22850379347801208,"40":-0.10429193824529648,"41":-1.5458528995513916,"42":0.027211856096982956,"43":-1.0892685651779175,"44":0.9917671084403992,"45":0.8730385303497314,"46":1.1705920696258545,"47":0.10025524348020554,"48":0.7711952328681946,"49":1.0107258558273315,"50":-0.19462771713733673,"51":-2.0222699642181396,"52":1.6299891471862793,"53":0.21009179949760437,"54":0.8070250153541565,"55":-0.8129984140396118,"56":0.4695312976837158,"57":-0.789474368095398,"58":-0.13524119555950165,"59":0.47317686676979065,"60":-0.5081706047058105,"61":1.2498853206634521,"62":0.2645031213760376,"63":-0.20112811028957367,"64":1.8476345539093018,"65":1.8985095024108887,"66":1.3206440210342407,"67":0.3121797740459442,"68":0.0785227045416832,"69":0.054180797189474106,"70":1.7869516611099243,"71":2.9099674224853516,"72":0.5417308211326599,"73":2.4256508350372314,"74":-1.5380468368530273,"75":0.9124615788459778,"76":-0.8249076008796692,"77":-2.993119955062866,"78":0.8486220836639404,"79":1.3004887104034424,"80":1.694116473197937,"81":0.964119017124176,"82":-0.8757508993148804,"83":0.2202146202325821,"84":-1.9748868942260742,"85":-0.007158573251217604,"86":0.3899160623550415,"87":-0.7640703916549683,"88":0.29257574677467346,"89":0.7351243495941162,"90":2.4043641090393066,"91":0.0510571151971817,"92":-0.0901331678032875,"93":-0.11066913604736328,"94":-1.1305809020996094,"95":0.5154393315315247,"96":-0.198014497756958,"97":-0.5483420491218567,"98":-1.73101007938385,"99":1.1094908714294434,"100":-1.9824153184890747,"101":-0.03585132211446762,"102":-0.9721538424491882,"103":1.0523346662521362,"104":0.45747214555740356,"105":0.18887604773044586,"106":0.1433589607477188,"107":-2.8830907344818115,"108":-0.039506860077381134,"109":-0.132715106010437,"110":2.2426278591156006,"111":-0.32640746235847473,"112":1.228261113166809,"113":1.969677209854126,"114":-0.38023248314857483,"115":-0.6604496240615845,"116":2.781339168548584,"117":-0.7227895259857178,"118":-0.9819216132164001,"119":-0.1181340143084526,"120":0.10516668856143951,"121":0.649375319480896,"122":1.2225464582443237,"123":2.1624677181243896,"124":0.06827009469270706,"125":-0.07059606164693832,"126":-0.9905734062194824,"127":0.43360885977745056,"128":-1.0914521217346191,"129":0.4934810996055603,"130":1.4242372512817383,"131":0.7976173758506775,"132":-2.2742507457733154,"133":-1.1843727827072144,"134":0.04900100827217102,"135":0.626819908618927,"136":1.5219099521636963,"137":0.13458150625228882,"138":-2.419842004776001,"139":-1.6710751056671143,"140":-1.674006700515747,"141":0.2242266833782196,"142":0.9382686614990234,"143":0.8657280206680298,"144":-0.7003495097160339,"145":-0.8933932781219482,"146":0.11923844367265701,"147":0.40189945697784424,"148":0.9146765470504761,"149":-0.9743257164955139,"150":0.39879143238067627,"151":1.234513521194458,"152":-0.8938568830490112,"153":1.0940096378326416,"154":0.33116474747657776,"155":0.3112156391143799,"156":0.10378827899694443,"157":-0.4346047043800354,"158":-2.2995858192443848,"159":0.05350884050130844,"160":0.5853579044342041,"161":-0.3074913024902344,"162":-1.750819444656372,"163":1.5748379230499268,"164":0.49931231141090393,"165":0.6092222332954407,"166":0.25864365696907043,"167":0.16399239003658295,"168":1.30574369430542,"169":-1.8434388637542725,"170":-2.0595169067382812,"171":-0.132478266954422,"172":0.6762371063232422,"173":0.36782747507095337,"174":-1.7190382480621338,"175":0.0107860267162323,"176":0.3137008547782898,"177":0.3268832266330719,"178":-0.3841891586780548,"179":-2.261406898498535,"180":-1.2904224395751953,"181":2.730015993118286,"182":-0.13802944123744965,"183":1.278783917427063,"184":1.7911218404769897,"185":0.2294127345085144,"186":1.0253385305404663,"187":-2.0892693996429443,"188":-0.6439498662948608,"189":-0.21750687062740326,"190":-0.5439643263816833,"191":0.9202957153320312,"192":0.551001250743866,"193":-0.10465055704116821,"194":0.8600500226020813,"195":1.355545997619629,"196":0.32193422317504883,"197":1.1456350088119507,"198":0.4580634534358978,"199":-0.7940875887870789,"200":-0.11695722490549088,"201":-0.9288592338562012,"202":0.9255200028419495,"203":-0.20832665264606476,"204":2.0730931758880615,"205":-0.44445839524269104,"206":0.1767721325159073,"207":1.1846023797988892,"208":-0.9274201989173889,"209":-1.7407097816467285,"210":1.2904161214828491,"211":-0.5606631636619568,"212":0.5183670520782471,"213":1.1286005973815918,"214":-0.29124388098716736,"215":1.5711983442306519,"216":-1.921846628189087,"217":0.4869580864906311,"218":0.36536383628845215,"219":-1.359848141670227,"220":0.5253834128379822,"221":0.6754996180534363,"222":0.2838711738586426,"223":-0.4693641662597656,"224":0.5458682775497437,"225":-0.4285055696964264,"226":0.6560562252998352,"227":-0.6484518051147461,"228":0.45323315262794495,"229":-0.6058968305587769,"230":-0.49434560537338257,"231":0.4370810091495514,"232":-0.43998482823371887,"233":-0.4171272814273834,"234":-0.6402224898338318,"235":1.132568597793579,"236":0.3694714903831482,"237":1.187116265296936,"238":0.6969195604324341,"239":-0.5439655780792236,"240":0.24450574815273285,"241":-0.7787057757377625,"242":1.7915270328521729,"243":-0.06789255887269974,"244":-0.48887503147125244,"245":0.10211068391799927,"246":-0.13278032839298248,"247":-0.5425772070884705,"248":1.2753634452819824,"249":0.4007142186164856,"250":-1.0192897319793701,"251":-0.6154728531837463,"252":-1.2339533567428589,"253":1.7014446258544922,"254":0.0470019169151783,"255":1.4469735622406006,"256":0.11264649778604507,"257":-0.23369736969470978,"258":-0.6078128814697266,"259":-0.5527124404907227,"260":-0.1823139488697052,"261":0.1865783929824829,"262":1.996832013130188,"263":0.5411999821662903,"264":-0.3888795077800751,"265":0.3090427815914154,"266":0.012021180242300034,"267":1.8063002824783325,"268":2.0070173740386963,"269":0.6539541482925415,"270":1.6499577760696411,"271":2.4228622913360596,"272":-0.3872244656085968,"273":-0.9283228516578674,"274":-2.189893960952759,"275":-0.41422292590141296,"276":2.0011425018310547,"277":1.8395239114761353,"278":2.3953986167907715,"279":-0.005952409002929926,"280":-2.1560850143432617,"281":1.0084047317504883,"282":-0.022435840219259262,"283":-0.29168814420700073,"284":0.546421229839325,"285":-0.6055735349655151,"286":-1.315895676612854,"287":0.7511768937110901,"288":1.8514409065246582,"289":0.595707356929779,"290":0.772347629070282,"291":1.668476939201355,"292":0.21812571585178375,"293":-1.4678125381469727,"294":0.19913937151432037,"295":-0.5590416789054871,"296":1.1113814115524292,"297":0.6872952580451965,"298":-1.4628517627716064,"299":-3.1807825565338135,"300":-1.4839285612106323,"301":1.7661436796188354,"302":1.8657437562942505,"303":1.7645155191421509,"304":2.2154624462127686,"305":-0.25342312455177307,"306":2.2961034774780273,"307":1.1183745861053467,"308":-1.0930050611495972,"309":0.6141097545623779,"310":0.710724949836731,"311":0.1872032731771469,"312":-1.3609838485717773,"313":-0.4723398685455322,"314":2.3626930713653564,"315":-0.9879607558250427,"316":-0.8732903003692627,"317":-2.215062141418457,"318":-2.220637559890747,"319":2.010197877883911,"320":-0.29858827590942383,"321":1.5994973182678223,"322":0.03690936416387558,"323":-0.17682553827762604,"324":0.10974337160587311,"325":-0.022022230550646782,"326":-2.1638705730438232,"327":-0.5033175945281982,"328":1.426571249961853,"329":1.2862935066223145,"330":-1.4557697772979736,"331":0.2890053391456604,"332":-0.9407564401626587,"333":-0.6878199577331543,"334":-0.4427218437194824,"335":-2.2343907356262207,"336":0.3908827602863312,"337":2.66156005859375,"338":-1.0927361249923706,"339":0.11072546243667603,"340":-1.1694540977478027,"341":-0.4606519639492035,"342":-0.5653513669967651,"343":-0.8971192240715027,"344":-1.239691972732544,"345":0.1401953399181366,"346":2.242910623550415,"347":0.7405167818069458,"348":-0.35920628905296326,"349":0.3523361384868622,"350":1.294176697731018,"351":-2.3177616596221924,"352":-1.1134023666381836,"353":-0.13495351374149323,"354":-0.5668224096298218,"355":-0.7364152073860168,"356":0.441867470741272,"357":1.8334026336669922,"358":-0.627476155757904,"359":-1.5454082489013672,"360":1.5631235837936401,"361":0.5353673100471497,"362":0.38274797797203064,"363":-1.7015775442123413,"364":-1.442355751991272,"365":-1.4012696743011475,"366":1.2614573240280151,"367":0.23014330863952637,"368":-1.5340160131454468,"369":-0.013101447373628616,"370":-1.3150464296340942,"371":-0.2990444600582123,"372":1.9369096755981445,"373":1.0453764200210571,"374":1.6048094034194946,"375":1.978230595588684,"376":-0.5114172101020813,"377":0.9805153012275696,"378":-2.9794909954071045,"379":-1.5438637733459473,"380":0.44476625323295593,"381":1.4366973638534546,"382":0.011836085468530655,"383":0.7364369034767151,"384":-0.34485742449760437,"385":1.3284001350402832,"386":0.5500650405883789,"387":-0.7281576991081238,"388":4.456496238708496,"389":-2.445073127746582,"390":-1.2215228080749512,"391":-2.6752588748931885,"392":-1.5462098121643066,"393":-0.16948536038398743,"394":-0.7471922039985657,"395":0.004890626762062311,"396":0.21381494402885437,"397":-2.5118367671966553,"398":0.8205993175506592,"399":-3.0545668601989746,"400":-0.09121040999889374,"401":2.6993088722229004,"402":1.5088704824447632,"403":-0.11500579118728638,"404":0.3662719428539276,"405":-0.044248066842556,"406":0.13106492161750793,"407":-2.9139695167541504,"408":1.0807191133499146,"409":-2.0583138465881348,"410":0.006843594368547201,"411":2.170213222503662,"412":0.8380499482154846,"413":2.16168212890625,"414":-1.7745236158370972,"415":-0.8061026334762573,"416":2.351015567779541,"417":-0.8694286346435547,"418":-0.99677973985672,"419":0.7388593554496765,"420":-0.10020079463720322,"421":0.7706698775291443,"422":0.7455203533172607,"423":-0.5468136072158813,"424":-0.12677837908267975,"425":1.3160640001296997,"426":-0.6086571216583252,"427":-2.1633660793304443,"428":-2.8912200927734375,"429":1.4825453758239746,"430":-0.2063767910003662,"431":-2.511113166809082,"432":-0.9584128856658936,"433":2.805347204208374,"434":-0.8232765197753906,"435":-0.18456196784973145,"436":-1.4132134914398193,"437":-1.4193249940872192,"438":0.1279878169298172,"439":-1.3456755876541138,"440":3.9805519580841064,"441":-0.551527202129364,"442":0.10731810331344604,"443":1.3539625406265259,"444":0.9615948796272278,"445":-2.192455530166626,"446":0.4035796821117401,"447":0.34351658821105957,"448":-1.6536191701889038,"449":0.6241572499275208,"450":-0.9462124705314636,"451":1.1789429187774658,"452":0.7345710396766663,"453":2.9821763038635254,"454":-0.33664411306381226,"455":-0.6403066515922546,"456":-0.18146054446697235,"457":0.7559970021247864,"458":-1.1604136228561401,"459":-0.5063408017158508,"460":0.9417515397071838,"461":-0.16633151471614838,"462":1.226918339729309,"463":0.864063560962677,"464":0.8405318260192871,"465":0.6859945058822632,"466":-0.535072922706604,"467":-2.623218297958374,"468":-1.2274378538131714,"469":-1.1636855602264404,"470":2.010611057281494,"471":1.2975291013717651,"472":3.255533218383789,"473":0.47727128863334656,"474":-0.18988415598869324,"475":-0.25467124581336975,"476":-0.3959381878376007,"477":0.648830771446228,"478":0.4788084626197815,"479":-1.8937777280807495,"480":-1.1404318809509277,"481":1.100766897201538,"482":-1.9640207290649414,"483":0.7534597516059875,"484":3.9902284145355225,"485":-0.4380723536014557,"486":0.3186856508255005,"487":-1.3865443468093872,"488":-0.33980855345726013,"489":-1.8485958576202393,"490":2.044898748397827,"491":1.3536605834960938,"492":-0.24340350925922394,"493":-0.2600513994693756,"494":-0.6253724694252014,"495":-0.12570662796497345,"496":0.28870126605033875,"497":1.8881266117095947,"498":1.7402229309082031,"499":-0.8447383046150208,"500":0.2948594093322754,"501":-1.8657127618789673,"502":-0.7328622937202454,"503":-0.4975251257419586,"504":-0.928430438041687,"505":-1.146925687789917,"506":-0.952213704586029,"507":2.3268306255340576,"508":0.6807623505592346,"509":-0.7536234259605408,"510":3.2212696075439453,"511":0.24167756736278534,"512":-1.488069772720337,"513":-1.3217755556106567,"514":0.633151113986969,"515":-1.6143239736557007,"516":1.9441083669662476,"517":-1.3155150413513184,"518":1.5019367933273315,"519":-1.022902011871338,"520":-1.3573960065841675,"521":0.6133475303649902,"522":-1.1468291282653809,"523":-1.2545095682144165,"524":2.8078713417053223,"525":2.701057195663452,"526":-0.15936997532844543,"527":-0.9451305270195007,"528":-0.17261546850204468,"529":2.3993399143218994,"530":-0.40983638167381287,"531":-0.6909063458442688,"532":-0.8333790302276611,"533":-1.8053867816925049,"534":0.30386024713516235,"535":-0.6465179324150085,"536":0.10208909213542938,"537":-0.1296890527009964,"538":0.18092387914657593,"539":2.1990697383880615,"540":-1.2070258855819702,"541":1.3835564851760864,"542":-0.8308926820755005,"543":-0.9548578858375549,"544":1.6384156942367554,"545":0.18668553233146667,"546":1.1705025434494019,"547":0.15815195441246033,"548":-1.1337902545928955,"549":-0.1372295767068863,"550":0.3989368975162506,"551":-0.9376034736633301,"552":-0.6766741871833801,"553":-0.7493017315864563,"554":0.49929189682006836,"555":-0.06269392371177673,"556":0.9980762600898743,"557":-0.04183628782629967,"558":0.18235339224338531,"559":-1.3992061614990234,"560":1.6974971294403076,"561":-1.229858160018921,"562":1.5903539657592773,"563":1.3313088417053223,"564":0.45470932126045227,"565":0.8481309413909912,"566":-0.07522948086261749,"567":0.8459221720695496,"568":0.30988168716430664,"569":2.7425377368927,"570":-0.04785187914967537,"571":-0.49128150939941406,"572":-1.5397223234176636,"573":1.4783061742782593,"574":-0.4814733862876892,"575":0.0017440157243981957,"576":0.8430965542793274,"577":0.004983175545930862,"578":-1.0791345834732056,"579":-0.5583584308624268,"580":1.8377512693405151,"581":0.49316170811653137,"582":0.024095453321933746,"583":-0.241472065448761,"584":0.5379087924957275,"585":-2.4754226207733154,"586":0.5304577350616455,"587":1.823338270187378,"588":0.3324200510978699,"589":-1.893863558769226,"590":0.20679029822349548,"591":-0.03248913958668709,"592":-0.541772723197937,"593":0.010355964303016663,"594":0.5821881890296936,"595":-2.6205027103424072,"596":1.6759693622589111,"597":0.059265509247779846,"598":0.15636545419692993,"599":0.33912527561187744,"600":-0.9103406667709351,"601":0.49382609128952026,"602":-0.2043486386537552,"603":-1.1175450086593628,"604":-0.033500637859106064,"605":-2.5754780769348145,"606":1.4273213148117065,"607":0.8011351823806763,"608":0.9437487125396729,"609":-0.889167845249176,"610":-1.7729911804199219,"611":-0.40700656175613403,"612":-1.7889639139175415,"613":0.0845063105225563,"614":-0.44584032893180847,"615":-1.8102517127990723,"616":-0.6927106976509094,"617":-1.913006067276001,"618":0.8536443114280701,"619":-0.1437721699476242,"620":0.35522595047950745,"621":-0.8076565861701965,"622":-0.7445802092552185,"623":0.18078309297561646,"624":-1.9249035120010376,"625":0.48714104294776917,"626":-2.153092622756958,"627":0.7152724266052246,"628":-3.4819321632385254,"629":-0.2825319766998291,"630":0.5373027920722961,"631":0.19668249785900116,"632":1.4722732305526733,"633":0.08367828279733658,"634":2.2825846672058105,"635":-1.1796021461486816,"636":0.35942327976226807,"637":-0.9772049188613892,"638":0.5664835572242737,"639":-0.42893242835998535,"640":0.8788095116615295,"641":1.6505682468414307,"642":2.6546249389648438,"643":0.10711591690778732,"644":0.5562499761581421,"645":0.22133101522922516,"646":0.32547757029533386,"647":0.022927315905690193,"648":0.7279164791107178,"649":-0.3141964077949524,"650":0.278042733669281,"651":-0.16740787029266357,"652":-0.6387904286384583,"653":-1.6814978122711182,"654":0.2868165969848633,"655":-0.375876784324646,"656":-0.2857726514339447,"657":-0.6214830279350281,"658":-0.4733526408672333,"659":-1.470726490020752,"660":1.4910000562667847,"661":-2.7095754146575928,"662":-0.9636749029159546,"663":-0.4256187975406647,"664":1.183844804763794,"665":0.9172263741493225,"666":2.6031503677368164,"667":-0.7564932107925415,"668":-1.1561287641525269,"669":-0.4160819947719574,"670":-0.07042888551950455,"671":-2.013195037841797,"672":2.353776454925537,"673":-2.2043933868408203,"674":1.446936011314392,"675":2.4789624214172363,"676":-2.053985357284546,"677":1.2578284740447998,"678":-2.3998146057128906,"679":-1.3952510356903076,"680":0.14329931139945984,"681":-0.3887287378311157,"682":-1.2667754888534546,"683":1.831813931465149,"684":0.7402792572975159,"685":-1.2248390913009644,"686":0.7241089940071106,"687":-1.4620933532714844,"688":-0.7977173924446106,"689":-0.9266813397407532,"690":-1.015173316001892,"691":0.48021647334098816,"692":-1.9239541292190552,"693":2.145742893218994,"694":-1.4845709800720215,"695":-1.7969348430633545,"696":-3.2127180099487305,"697":0.2581573724746704,"698":1.9924317598342896,"699":0.1723780483007431,"700":-0.09004295617341995,"701":-2.693951368331909,"702":-0.41977518796920776,"703":0.7041314840316772,"704":1.3702226877212524,"705":-3.7289884090423584,"706":-0.0893765389919281,"707":0.4106537401676178,"708":0.367887943983078,"709":-0.6635783314704895,"710":0.6685605049133301,"711":2.3697075843811035,"712":0.07695150375366211,"713":0.019273394718766212,"714":0.8545830249786377,"715":1.1341016292572021,"716":0.01345057226717472,"717":3.1983158588409424,"718":0.36307814717292786,"719":-2.0783512592315674,"720":-0.010604719631373882,"721":0.19464604556560516,"722":-0.31380563974380493,"723":-0.20538480579853058,"724":2.4814271926879883,"725":-0.3663457930088043,"726":-1.3129549026489258,"727":0.9924209713935852,"728":-0.5198971033096313,"729":-0.4466971158981323,"730":-1.3176261186599731,"731":0.2628265619277954,"732":-0.7301830649375916,"733":-0.5114967226982117,"734":0.4138943552970886,"735":0.5569666624069214,"736":-0.19362330436706543,"737":2.215924024581909,"738":-4.576121807098389,"739":4.077126979827881,"740":-0.5240848660469055,"741":-0.7103630900382996,"742":-0.13029973208904266,"743":0.2971215546131134,"744":1.7006908655166626,"745":-0.38414400815963745,"746":0.9692822098731995,"747":0.36234286427497864,"748":0.20677264034748077,"749":0.6386551856994629,"750":-0.021168218925595284,"751":-0.1653667688369751,"752":-0.007901211269199848,"753":0.4368438720703125,"754":-1.3097456693649292,"755":-0.4792836904525757,"756":0.8542405366897583,"757":-0.44830745458602905,"758":1.8724863529205322,"759":0.5017039775848389,"760":1.5777631998062134,"761":0.6947293877601624,"762":1.4373151063919067,"763":0.13511395454406738,"764":0.4564763605594635,"765":0.6561831831932068,"766":-0.7901212573051453,"767":0.7776470184326172,"768":0.20680584013462067,"769":-0.05078393220901489,"770":-1.361486792564392,"771":0.5766757726669312,"772":-0.3319638967514038,"773":-0.22012239694595337,"774":1.230819821357727,"775":-0.17035768926143646,"776":-0.9174606800079346,"777":-1.6028809547424316,"778":0.378506064414978,"779":0.38152921199798584,"780":-0.11312032490968704,"781":-0.8928165435791016,"782":-0.10138309746980667,"783":-0.5832931399345398,"784":0.6646232604980469,"785":0.8106195330619812,"786":0.10879825800657272,"787":0.6264491677284241,"788":-0.06840064376592636,"789":0.05590057000517845,"790":0.1714421957731247,"791":0.6148183345794678,"792":2.6066012382507324,"793":-0.8458223342895508,"794":-2.456273078918457,"795":1.325105905532837,"796":0.6055352091789246,"797":-1.8709150552749634,"798":2.383718967437744,"799":0.2880633771419525,"800":0.23589356243610382,"801":1.4314593076705933,"802":-1.5056267976760864,"803":0.786890983581543,"804":2.718714475631714,"805":-1.856332778930664,"806":-0.42174482345581055,"807":0.0778217613697052,"808":-0.7305076718330383,"809":-0.13543586432933807,"810":-0.5952635407447815,"811":-2.500908851623535,"812":-0.25595441460609436,"813":-0.1582198292016983,"814":-1.4897043704986572,"815":-0.19720838963985443,"816":0.07269458472728729,"817":-0.46296244859695435,"818":1.2158803939819336,"819":0.057518891990184784,"820":-0.027502181008458138,"821":-1.5517669916152954,"822":0.8597180843353271,"823":-1.245941162109375,"824":-0.29068323969841003,"825":0.7755935788154602,"826":-1.009987473487854,"827":-1.169234037399292,"828":-3.1033341884613037,"829":0.5073727965354919,"830":1.0852530002593994,"831":0.7862425446510315,"832":1.0593894720077515,"833":-0.5700852870941162,"834":2.1562345027923584,"835":1.650864601135254,"836":0.022515112534165382,"837":-1.069554090499878,"838":-0.4159826934337616,"839":-1.3823457956314087,"840":0.26805317401885986,"841":-0.638971745967865,"842":0.5162553787231445,"843":0.5988565683364868,"844":-0.834080159664154,"845":0.49857044219970703,"846":-0.5914891958236694,"847":2.9237356185913086,"848":-1.3670154809951782,"849":0.38434088230133057,"850":0.32252174615859985,"851":-2.550659656524658,"852":-0.05430913716554642,"853":-0.8499215245246887,"854":-1.089235544204712,"855":-1.6099210977554321,"856":-0.23580402135849,"857":0.23635511100292206,"858":-0.211013525724411,"859":0.4813803732395172,"860":0.34106573462486267,"861":0.7544470429420471,"862":-1.1760835647583008,"863":0.6898748278617859,"864":-0.9522791504859924,"865":-0.3548778295516968,"866":0.21291561424732208,"867":0.7136121392250061,"868":1.445613145828247,"869":0.0068710725754499435,"870":0.5965780019760132,"871":0.23939719796180725,"872":0.8465551733970642,"873":0.32760053873062134,"874":0.22380000352859497,"875":-1.0437241792678833,"876":0.45954659581184387,"877":0.6774166226387024,"878":-0.027106108143925667,"879":0.92902672290802,"880":0.7394601106643677,"881":0.07698158919811249,"882":-0.1935499906539917,"883":-0.18172608315944672,"884":-0.6958009600639343,"885":-0.7610396146774292,"886":2.3045926094055176,"887":0.3208531141281128,"888":0.4892949163913727,"889":-0.2618478834629059,"890":-1.027674674987793,"891":1.1221648454666138,"892":0.4195423126220703,"893":-0.08726745843887329,"894":0.8004761934280396,"895":-0.8152421712875366,"896":-0.40945056080818176,"897":-0.5470038652420044,"898":0.06893905252218246,"899":-0.4637627601623535,"900":-0.5314907431602478,"901":-1.7381548881530762,"902":0.8616443872451782,"903":0.6475334167480469,"904":0.6372736692428589,"905":-0.7335696220397949,"906":-0.27703535556793213,"907":1.0664116144180298,"908":-1.0810737609863281,"909":-1.6120209693908691,"910":2.136598825454712,"911":-0.4762733578681946,"912":0.8616346716880798,"913":-2.526089668273926,"914":-0.15195079147815704,"915":-0.22135932743549347,"916":-0.8073505759239197,"917":1.691114068031311,"918":-0.2212403118610382,"919":0.17349307239055634,"920":0.46463674306869507,"921":0.9670531153678894,"922":0.4768127501010895,"923":0.6379428505897522,"924":1.95271897315979,"925":-3.793233871459961,"926":-0.36776065826416016,"927":-0.43405842781066895,"928":1.2266322374343872,"929":2.1066341400146484,"930":1.4792734384536743,"931":0.3409113585948944,"932":-0.8074670433998108,"933":0.4718438684940338,"934":-1.012265682220459,"935":-4.024761199951172,"936":4.49453592300415,"937":-1.321611762046814,"938":1.5276269912719727,"939":0.9730864763259888,"940":-0.20842228829860687,"941":1.507647156715393,"942":-1.5053215026855469,"943":-0.8514609336853027,"944":0.6365165114402771,"945":1.0281692743301392,"946":-1.427799940109253,"947":-2.6804471015930176,"948":-0.47922685742378235,"949":-1.1918402910232544,"950":1.175510287284851,"951":0.23624351620674133,"952":0.6004716157913208,"953":-0.2154759019613266,"954":0.5125201940536499,"955":-0.3779076337814331,"956":-0.8577685952186584,"957":0.0706317201256752,"958":-1.5516427755355835,"959":-2.4424033164978027,"960":-2.1533515453338623,"961":0.9943626523017883,"962":-0.3931889235973358,"963":0.5731678605079651,"964":1.2436410188674927,"965":-2.406763792037964,"966":-0.8321827054023743,"967":-0.21491946280002594,"968":0.7514898180961609,"969":-4.136959075927734,"970":0.07092814147472382,"971":0.16213825345039368,"972":-2.4614803791046143,"973":-0.2410600334405899,"974":0.9850236177444458,"975":0.7265210151672363,"976":-0.6247975826263428,"977":-0.33853814005851746,"978":-0.03447719290852547,"979":2.1679599285125732,"980":0.05767284333705902,"981":2.9500820636749268,"982":-0.38029012084007263,"983":-1.8579291105270386,"984":-0.9161655306816101,"985":-0.8468621969223022,"986":-1.270951509475708,"987":-0.3820396065711975,"988":0.029746264219284058,"989":-1.1064305305480957,"990":0.40870365500450134,"991":-0.3193303644657135,"992":-1.5484288930892944,"993":0.035031549632549286,"994":0.37465980648994446,"995":-0.4761974513530731,"996":1.1272943019866943,"997":-0.003550164867192507,"998":-1.3782955408096313,"999":0.3524950444698334,"1000":-1.4954887628555298,"1001":0.24018707871437073,"1002":1.3429452180862427,"1003":-0.37739381194114685,"1004":-0.008257118985056877,"1005":0.9069536328315735,"1006":-0.05192108452320099,"1007":0.05019552633166313,"1008":0.27230891585350037,"1009":-0.13503560423851013,"1010":0.06790033727884293,"1011":-0.9115568399429321,"1012":-0.652918815612793,"1013":0.07777651399374008,"1014":-0.1517176777124405,"1015":-0.2402004450559616,"1016":0.563165545463562,"1017":-0.1055607944726944,"1018":-0.3662604093551636,"1019":-0.029490768909454346,"1020":0.45409178733825684,"1021":-0.6538950800895691,"1022":0.1998485028743744,"1023":-0.32981595396995544,"1024":-0.5096979737281799,"1025":-1.411867380142212,"1026":-1.3316582441329956,"1027":0.3852270543575287,"1028":-0.19590874016284943,"1029":0.005380379501730204,"1030":0.7170061469078064,"1031":0.0416434109210968,"1032":0.6201829314231873,"1033":0.6801614761352539,"1034":-0.5454513430595398,"1035":-0.6705434918403625,"1036":-0.8841137886047363,"1037":-0.9187098741531372,"1038":-0.4912995994091034,"1039":-0.062759630382061,"1040":0.6644148230552673,"1041":0.2221699208021164,"1042":-0.6680091023445129,"1043":0.08688686043024063,"1044":0.04061949998140335,"1045":0.8748870491981506,"1046":-0.24320249259471893,"1047":0.9963555335998535,"1048":0.48427724838256836,"1049":-1.4478261470794678,"1050":0.3737131655216217,"1051":-0.04683014005422592,"1052":-0.49779000878334045,"1053":-0.8939207196235657,"1054":-0.6856089234352112,"1055":-0.8297227621078491,"1056":-1.3075841665267944,"1057":-1.2085729837417603,"1058":0.12209323048591614,"1059":0.20724736154079437,"1060":0.7493658065795898,"1061":0.8591867089271545,"1062":-2.9288759231567383,"1063":-0.31304851174354553,"1064":-0.3547223210334778,"1065":-1.0344314575195312,"1066":-0.9316604137420654,"1067":-0.5339981317520142,"1068":-1.2865846157073975,"1069":0.3149448335170746,"1070":0.8095890283584595,"1071":0.4163409471511841,"1072":-0.7507771253585815,"1073":-0.6765977740287781,"1074":-1.4538692235946655,"1075":0.3796100616455078,"1076":0.874114990234375,"1077":-0.5168966054916382,"1078":0.4509941339492798,"1079":-0.6143993139266968,"1080":-0.1805887073278427,"1081":-0.7100457549095154,"1082":0.2339702993631363,"1083":-0.3557402491569519,"1084":0.06751988083124161,"1085":0.5835546255111694,"1086":-1.611412763595581,"1087":0.17407339811325073,"1088":0.8590635061264038,"1089":0.11761193722486496,"1090":-1.161506175994873,"1091":-0.6854464411735535,"1092":0.5275395512580872,"1093":-0.3474600315093994,"1094":0.26146602630615234,"1095":-0.14559835195541382,"1096":-0.794348955154419,"1097":0.3648044466972351,"1098":-0.7765637040138245,"1099":0.020917624235153198,"1100":0.13634106516838074,"1101":0.03440825268626213,"1102":-0.05698222294449806,"1103":-0.6298972964286804,"1104":-1.4989676475524902,"1105":0.05833392217755318,"1106":0.605161726474762,"1107":0.22120796144008636,"1108":0.48541295528411865,"1109":-0.03078419528901577,"1110":0.44785016775131226,"1111":-1.6649891138076782,"1112":-0.2469213604927063,"1113":1.4047799110412598,"1114":0.7644526362419128,"1115":1.6898821592330933,"1116":-1.0178436040878296,"1117":-0.060863737016916275,"1118":0.5584889650344849,"1119":-0.2716510593891144,"1120":-0.3696020245552063,"1121":-0.15034295618534088,"1122":-0.20353813469409943,"1123":0.07091231644153595,"1124":-0.8616991639137268,"1125":-0.8120059370994568,"1126":1.550236463546753,"1127":0.3541276454925537,"1128":1.9656672477722168,"1129":1.2434221506118774,"1130":0.5631746053695679,"1131":-0.6503993272781372,"1132":-3.451946258544922,"1133":-0.30611225962638855,"1134":3.1495566368103027,"1135":-0.6923138499259949,"1136":1.1267001628875732,"1137":-0.7935144305229187,"1138":-1.1364654302597046,"1139":1.7542582750320435,"1140":1.1865350008010864,"1141":-1.4062150716781616,"1142":1.6789225339889526,"1143":-0.9841636419296265,"1144":-2.030280590057373,"1145":0.3598713278770447,"1146":0.5401479005813599,"1147":0.4192509353160858,"1148":0.8879111409187317,"1149":1.7266725301742554,"1150":-0.9461191296577454,"1151":0.5508363246917725,"1152":-0.5254854559898376,"1153":-0.5452614426612854,"1154":0.08399538695812225,"1155":1.2860848903656006,"1156":-1.1619845628738403,"1157":-1.8720954656600952,"1158":-1.3846136331558228,"1159":1.2341301441192627,"1160":0.6032002568244934,"1161":1.8789477348327637,"1162":2.528430938720703,"1163":1.508870005607605,"1164":0.5003761649131775,"1165":1.0140224695205688,"1166":1.0979678630828857,"1167":-0.8420966267585754,"1168":-0.20273078978061676,"1169":1.427356243133545,"1170":-1.221301555633545,"1171":-0.3276657164096832,"1172":1.0526667833328247,"1173":-0.13348564505577087,"1174":-1.8972952365875244,"1175":0.5575847625732422,"1176":-1.4365609884262085,"1177":2.7008321285247803,"1178":-0.8352886438369751,"1179":1.6650279760360718,"1180":1.2188628911972046,"1181":-1.8687682151794434,"1182":1.2558326721191406,"1183":-0.10039394348859787,"1184":-1.649090051651001,"1185":-1.4567784070968628,"1186":1.9704921245574951,"1187":-0.30005383491516113,"1188":1.5688730478286743,"1189":0.849845826625824,"1190":-0.4144098162651062,"1191":0.823915958404541,"1192":1.1917805671691895,"1193":1.9254258871078491,"1194":0.019465327262878418,"1195":-0.07768449932336807,"1196":-0.8114408850669861,"1197":2.2892050743103027,"1198":-0.14467158913612366,"1199":-1.2916078567504883,"1200":-0.5204463005065918,"1201":0.7206547856330872,"1202":-0.2776390016078949,"1203":0.5952420234680176,"1204":1.2375942468643188,"1205":-0.20514509081840515,"1206":-1.3543145656585693,"1207":-0.5575238466262817,"1208":2.4290430545806885,"1209":-3.14562726020813,"1210":-0.2537898123264313,"1211":0.10456868261098862,"1212":-0.8139122128486633,"1213":0.5253198146820068,"1214":0.7136783599853516,"1215":0.043932024389505386,"1216":-0.2308751940727234,"1217":-0.3633922040462494,"1218":1.7880566120147705,"1219":-1.7824126482009888,"1220":1.4970612525939941,"1221":0.17503350973129272,"1222":-1.2073659896850586,"1223":-0.15054365992546082,"1224":0.5499945878982544,"1225":0.5758236646652222,"1226":-1.4522720575332642,"1227":1.386104702949524,"1228":-0.607503354549408,"1229":-0.3018185794353485,"1230":1.1523363590240479,"1231":1.183763861656189,"1232":1.5230369567871094,"1233":0.4491119086742401,"1234":-0.43907299637794495,"1235":2.1901650428771973,"1236":-1.680901288986206,"1237":-0.43729299306869507,"1238":0.11688466370105743,"1239":-2.098755359649658,"1240":0.6596777439117432,"1241":-0.585940420627594,"1242":-0.7789958715438843,"1243":0.8941121101379395,"1244":-1.364681601524353,"1245":1.0497647523880005,"1246":0.3905216157436371,"1247":0.702682375907898,"1248":-0.6796890497207642,"1249":-0.9770543575286865,"1250":-0.6411502361297607,"1251":-0.2795029580593109,"1252":1.056242823600769,"1253":1.481079339981079,"1254":-0.8412429690361023,"1255":0.16554518043994904,"1256":0.9507012367248535,"1257":0.0020245849154889584,"1258":-0.26489439606666565,"1259":-0.3038932681083679,"1260":-1.706089735031128,"1261":-0.13796281814575195,"1262":1.120056390762329,"1263":-1.0351814031600952,"1264":-0.005351741798222065,"1265":-1.2718613147735596,"1266":1.8535534143447876,"1267":2.812730550765991,"1268":1.2086081504821777,"1269":-0.263505220413208,"1270":-1.2416057586669922,"1271":-2.1950294971466064,"1272":-0.3896947205066681,"1273":0.8904459476470947,"1274":-1.1191315650939941,"1275":0.5848925709724426,"1276":0.3413815498352051,"1277":-2.611212968826294,"1278":1.1929738521575928,"1279":-2.347295045852661,"1280":-1.4592100381851196,"1281":-2.4460196495056152,"1282":2.1780011653900146,"1283":-0.14040182530879974,"1284":-3.7759695053100586,"1285":3.3728017807006836,"1286":-1.9325155019760132,"1287":0.6146433353424072,"1288":-1.2519969940185547,"1289":-1.2115378379821777,"1290":1.8625136613845825,"1291":-1.3598132133483887,"1292":0.6675066947937012,"1293":-2.4119253158569336,"1294":2.9627320766448975,"1295":0.831986129283905,"1296":-0.318362832069397,"1297":-1.4276149272918701,"1298":-4.197167873382568,"1299":0.5103845596313477,"1300":1.7905879020690918,"1301":1.0404449701309204,"1302":1.2171101570129395,"1303":2.0669984817504883,"1304":0.16926875710487366,"1305":-3.5826103687286377,"1306":1.3579550981521606,"1307":-0.7873133420944214,"1308":1.6292023658752441,"1309":-1.659164309501648,"1310":3.801321268081665,"1311":0.08983520418405533,"1312":0.3335637152194977,"1313":2.396591901779175,"1314":2.194840669631958,"1315":3.767080068588257,"1316":0.07418043911457062,"1317":-0.9669817686080933,"1318":-0.051767054945230484,"1319":-0.12763115763664246,"1320":-1.3945560455322266,"1321":-0.14685550332069397,"1322":-0.5414229035377502,"1323":-0.7593936324119568,"1324":0.7644856572151184,"1325":1.6647719144821167,"1326":0.6419257521629333,"1327":1.0850870609283447,"1328":-0.5471168160438538,"1329":-0.26060494780540466,"1330":-1.5955890417099,"1331":-0.3276285231113434,"1332":0.38127949833869934,"1333":1.8262991905212402,"1334":1.3347164392471313,"1335":0.08077824115753174,"1336":0.006263934541493654,"1337":1.4013527631759644,"1338":1.707366943359375,"1339":-1.1249945163726807,"1340":0.8927003145217896,"1341":0.008150537498295307,"1342":0.18001021444797516,"1343":0.28975430130958557,"1344":1.7232030630111694,"1345":-1.6217082738876343,"1346":0.32285076379776,"1347":1.6596293449401855,"1348":-1.1599392890930176,"1349":1.4306164979934692,"1350":0.05123170465230942,"1351":0.19576410949230194,"1352":0.7213904857635498,"1353":1.2450981140136719,"1354":-0.3183726370334625,"1355":-1.2146947383880615,"1356":-0.21647313237190247,"1357":1.0145291090011597,"1358":0.5542275905609131,"1359":2.5725772380828857,"1360":0.22327548265457153,"1361":-0.312991201877594,"1362":-0.3128531873226166,"1363":-0.787578821182251,"1364":0.25234293937683105,"1365":-0.8640328049659729,"1366":-0.21435296535491943,"1367":0.6807743310928345,"1368":-0.7803692817687988,"1369":-0.2921101450920105,"1370":1.1802259683609009,"1371":0.49283793568611145,"1372":-1.3565837144851685,"1373":-0.38478562235832214,"1374":0.4194779396057129,"1375":1.1318776607513428,"1376":0.23735731840133667,"1377":1.1698112487792969,"1378":0.14703316986560822,"1379":1.0513088703155518,"1380":-0.2804829180240631,"1381":2.169215679168701,"1382":-0.4075687825679779,"1383":0.02316136099398136,"1384":0.9640582203865051,"1385":0.9344323873519897,"1386":-3.7534968852996826,"1387":5.04484224319458,"1388":3.2576711177825928,"1389":-1.342666745185852,"1390":0.20979160070419312,"1391":1.2652753591537476,"1392":-2.221791982650757,"1393":-0.15220272541046143,"1394":2.801884889602661,"1395":1.4668008089065552,"1396":2.2084906101226807,"1397":0.6448819637298584,"1398":-0.6510173082351685,"1399":0.831043004989624,"1400":-1.011160135269165,"1401":-0.006033225916326046,"1402":1.6156638860702515,"1403":0.45675143599510193,"1404":0.06773825734853745,"1405":-0.09503647685050964,"1406":1.302296757698059,"1407":2.1925928592681885,"1408":1.554494857788086,"1409":-2.44450306892395,"1410":-2.52876615524292,"1411":0.45669257640838623,"1412":0.3865727484226227,"1413":-3.8042564392089844,"1414":2.2569057941436768,"1415":4.666904926300049,"1416":-0.8594346642494202,"1417":1.1759361028671265,"1418":-2.7023332118988037,"1419":0.44291821122169495,"1420":1.1190338134765625,"1421":-1.5932056903839111,"1422":3.6704845428466797,"1423":0.32561221718788147,"1424":-2.7994906902313232,"1425":-1.0377159118652344,"1426":-2.3850533962249756,"1427":1.7126609086990356,"1428":0.9446614384651184,"1429":-2.36985445022583,"1430":-2.012014389038086,"1431":0.6544435620307922,"1432":3.468560218811035,"1433":-1.5877587795257568,"1434":2.8984856605529785,"1435":-2.1523239612579346,"1436":-1.4564812183380127,"1437":-1.8877028226852417,"1438":0.42781177163124084,"1439":1.3723646402359009,"1440":-1.88261079788208,"1441":-2.950908660888672,"1442":-2.098708391189575,"1443":-2.3717844486236572,"1444":-1.968769907951355,"1445":2.5926496982574463,"1446":-0.35443606972694397,"1447":1.3503860235214233,"1448":-0.1793224811553955,"1449":-0.19929911196231842,"1450":0.9283654093742371,"1451":-2.5546393394470215,"1452":-1.1975129842758179,"1453":1.1244760751724243,"1454":0.1602429449558258,"1455":-0.18632303178310394,"1456":-0.28248488903045654,"1457":-2.1340415477752686,"1458":-0.1527942717075348,"1459":-1.1371915340423584,"1460":0.3313020169734955,"1461":-0.1889065057039261,"1462":-0.016752144321799278,"1463":1.4529497623443604,"1464":0.567745566368103,"1465":-0.13173559308052063,"1466":-0.6000020503997803,"1467":-0.02031468041241169,"1468":1.46816885471344,"1469":-0.12870925664901733,"1470":1.12660551071167,"1471":2.196477174758911,"1472":-2.1472785472869873,"1473":1.3992913961410522,"1474":1.1558904647827148,"1475":-1.7301785945892334,"1476":0.02758917212486267,"1477":0.12304525822401047,"1478":-1.0551339387893677,"1479":-0.31560659408569336,"1480":2.3435704708099365,"1481":1.3889774084091187,"1482":-0.6403856873512268,"1483":-0.4535273015499115,"1484":0.3739025592803955,"1485":-2.6379501819610596,"1486":0.7327375411987305,"1487":0.5387259721755981,"1488":-1.334080696105957,"1489":-0.4954948425292969,"1490":-1.7052544355392456,"1491":-0.9862694144248962,"1492":0.09913889318704605,"1493":1.6698689460754395,"1494":0.3959195613861084,"1495":-0.05985960736870766,"1496":-2.7030208110809326,"1497":0.08708456158638,"1498":-0.5578485131263733,"1499":-0.931011974811554,"1500":0.14153549075126648,"1501":-0.3958244323730469,"1502":-0.8625133037567139,"1503":-0.6117621660232544,"1504":-0.19763028621673584,"1505":0.2636875808238983,"1506":-0.6384170055389404,"1507":-1.3592876195907593,"1508":-1.3875569105148315,"1509":-1.3124092817306519,"1510":-1.5687109231948853,"1511":1.6087250709533691,"1512":1.4501842260360718,"1513":-0.2790670096874237,"1514":0.7827068567276001,"1515":0.2652053236961365,"1516":-0.4647725820541382,"1517":0.8869913816452026,"1518":-3.5092644691467285,"1519":1.759498953819275,"1520":1.820917010307312,"1521":0.28939151763916016,"1522":0.6035193800926208,"1523":1.223248839378357,"1524":-0.5659752488136292,"1525":0.6575178503990173,"1526":0.17902520298957825,"1527":0.25463390350341797,"1528":1.7181057929992676,"1529":-2.31380033493042,"1530":-0.40108272433280945,"1531":2.3084332942962646,"1532":1.0093891620635986,"1533":-1.2196589708328247,"1534":-0.04762214794754982,"1535":0.5158116221427917,"1536":-0.5608848333358765,"1537":2.8212225437164307,"1538":1.4431020021438599,"1539":0.4042361378669739,"1540":2.021389961242676,"1541":0.8776912689208984,"1542":0.7711489200592041,"1543":0.0985756367444992,"1544":-2.244237184524536,"1545":-0.20400536060333252,"1546":2.3938581943511963,"1547":2.3257644176483154,"1548":-0.8378291130065918,"1549":1.911368489265442,"1550":-2.032965660095215,"1551":-1.1203738451004028,"1552":-0.9848719835281372,"1553":-1.130721092224121,"1554":1.4203991889953613,"1555":-1.2975229024887085,"1556":-1.1947615146636963,"1557":-1.5418914556503296,"1558":-0.024374863132834435,"1559":2.483064651489258,"1560":-3.0883584022521973,"1561":-2.2483503818511963,"1562":-1.0546809434890747,"1563":0.7625440955162048,"1564":0.9523133039474487,"1565":1.06102454662323,"1566":-1.0335692167282104,"1567":1.1973443031311035,"1568":1.7594153881072998,"1569":-3.563476324081421,"1570":-0.17783161997795105,"1571":-1.419089674949646,"1572":-0.015386195853352547,"1573":-1.9317411184310913,"1574":1.8231688737869263,"1575":2.3954050540924072,"1576":-0.34080085158348083,"1577":3.820885419845581,"1578":2.0315959453582764,"1579":2.137477159500122,"1580":2.384570360183716,"1581":2.4104230403900146,"1582":0.13038013875484467,"1583":-1.4453551769256592,"1584":-1.236293077468872,"1585":-0.889008641242981,"1586":-2.583009958267212,"1587":-2.99765682220459,"1588":1.4404815435409546,"1589":0.6486461162567139,"1590":2.9447546005249023,"1591":1.2657549381256104,"1592":-2.2240285873413086,"1593":-1.1268563270568848,"1594":-3.231168270111084,"1595":-1.2932424545288086,"1596":0.7266921401023865,"1597":0.4627332389354706,"1598":0.9949321746826172,"1599":1.690887689590454,"1600":4.6271491050720215,"1601":2.177488327026367,"1602":-0.8266289830207825,"1603":-0.3223506510257721,"1604":1.760183572769165,"1605":-1.4206370115280151,"1606":-1.5799639225006104,"1607":-0.6838393211364746,"1608":1.206542730331421,"1609":0.9605526328086853,"1610":-0.08562338352203369,"1611":1.418075442314148,"1612":1.1550084352493286,"1613":0.18149599432945251,"1614":0.010286150500178337,"1615":-0.13702523708343506,"1616":-0.45987609028816223,"1617":0.6502403616905212,"1618":0.17168685793876648,"1619":-2.8513824939727783,"1620":-1.5266718864440918,"1621":2.368049383163452,"1622":-1.0306602716445923,"1623":2.5670130252838135,"1624":-0.8737348914146423,"1625":0.15035386383533478,"1626":0.9067521691322327,"1627":0.9481579065322876,"1628":2.297089099884033,"1629":1.8795033693313599,"1630":-3.40893292427063,"1631":1.285912036895752,"1632":-0.7938100099563599,"1633":-0.780797004699707,"1634":2.0963191986083984,"1635":1.812803864479065,"1636":-1.9903168678283691,"1637":2.13376784324646,"1638":-1.0820891857147217,"1639":2.4516923427581787,"1640":0.26224201917648315,"1641":2.2650394439697266,"1642":0.719662606716156,"1643":-0.33115723729133606,"1644":-1.0942089557647705,"1645":0.13394750654697418,"1646":-2.9880166053771973,"1647":-0.9701501727104187,"1648":-0.24631625413894653,"1649":1.2345679998397827,"1650":0.08526039868593216,"1651":1.2308412790298462,"1652":-2.3563809394836426,"1653":2.951746702194214,"1654":0.4867119789123535,"1655":1.9430437088012695,"1656":2.0048117637634277,"1657":-1.0466790199279785,"1658":2.857229471206665,"1659":1.9128363132476807,"1660":-3.3658244609832764,"1661":2.376678705215454,"1662":-0.3450380563735962,"1663":-0.608269214630127,"1664":0.09162189811468124,"1665":-1.578592300415039,"1666":0.34327495098114014,"1667":2.02972149848938,"1668":2.908464193344116,"1669":0.0046588652767241,"1670":2.8274874687194824,"1671":0.7716350555419922,"1672":-0.960075855255127,"1673":-2.293347120285034,"1674":-0.7263585925102234,"1675":3.3729259967803955,"1676":0.8381192684173584,"1677":2.9427034854888916,"1678":-0.558931291103363,"1679":-1.6083651781082153,"1680":1.6705721616744995,"1681":-2.0916402339935303,"1682":2.099541664123535,"1683":1.8496556282043457,"1684":0.6041173338890076,"1685":-2.247899293899536,"1686":-1.8460307121276855,"1687":-0.3241612911224365,"1688":-1.899680733680725,"1689":1.5501025915145874,"1690":-1.1851493120193481,"1691":1.7796796560287476,"1692":0.8669512867927551,"1693":1.0568742752075195,"1694":-2.1642351150512695,"1695":-1.5736137628555298,"1696":-2.3744959831237793,"1697":-1.4086896181106567,"1698":-4.1973958015441895,"1699":-3.1863842010498047,"1700":-0.8437266945838928,"1701":-2.423018217086792,"1702":-5.6603546142578125,"1703":-3.202849864959717,"1704":-2.714035749435425,"1705":0.7681892514228821,"1706":-2.0598504543304443,"1707":-0.28723233938217163,"1708":1.0071901082992554,"1709":2.0354695320129395,"1710":2.2148327827453613,"1711":1.0345772504806519,"1712":-1.66690194606781,"1713":-2.5047695636749268,"1714":0.27417269349098206,"1715":-0.7665340900421143,"1716":1.077966332435608,"1717":0.8038551211357117,"1718":-0.6562772989273071,"1719":0.8749704360961914,"1720":1.3933285474777222,"1721":-1.9032928943634033,"1722":-0.2441738098859787,"1723":-0.4553298056125641,"1724":-0.6532873511314392,"1725":0.26763808727264404,"1726":-0.039853353053331375,"1727":0.06389530748128891,"1728":0.795274555683136,"1729":2.197847366333008,"1730":1.1619683504104614,"1731":1.1248900890350342,"1732":-0.5956659317016602,"1733":-0.7180662751197815,"1734":-1.4136701822280884,"1735":1.0501430034637451,"1736":-0.4383174180984497,"1737":-1.5245389938354492,"1738":1.4469152688980103,"1739":-0.04178125783801079,"1740":1.3124192953109741,"1741":-0.9053395986557007,"1742":-0.40060585737228394,"1743":-2.8915374279022217,"1744":0.6600061655044556,"1745":-0.43634313344955444,"1746":-1.691197395324707,"1747":-0.6287133693695068,"1748":-0.7427535653114319,"1749":1.0405179262161255,"1750":-1.292456865310669,"1751":-0.3323630094528198,"1752":0.11800697445869446,"1753":-0.05923192575573921,"1754":1.054755687713623,"1755":-1.1825151443481445,"1756":-1.7421578168869019,"1757":-0.7325726747512817,"1758":1.1384193897247314,"1759":0.04950734227895737,"1760":-0.5858612060546875,"1761":-0.22218529880046844,"1762":-0.34473109245300293,"1763":0.3807818591594696,"1764":1.1480355262756348,"1765":-0.5229175090789795,"1766":0.7794405817985535,"1767":-2.150404930114746,"1768":0.18726880848407745,"1769":-0.93953537940979,"1770":0.8177297115325928,"1771":0.2160189002752304,"1772":1.2377196550369263,"1773":1.4989511966705322,"1774":0.7719249129295349,"1775":0.2533121109008789,"1776":-0.2308165580034256,"1777":0.3318362832069397,"1778":0.666924774646759,"1779":-0.7858045101165771,"1780":1.2878751754760742,"1781":-0.2780441343784332,"1782":0.5514877438545227,"1783":0.0081437136977911,"1784":-0.3590356111526489,"1785":-2.16019344329834,"1786":-1.0707217454910278,"1787":0.441185861825943,"1788":0.42282921075820923,"1789":-1.0910733938217163,"1790":0.09278202801942825,"1791":-1.1337448358535767,"1792":0.13564476370811462,"1793":-0.5485696196556091,"1794":0.6612816452980042,"1795":-0.6323076486587524,"1796":-0.5877392888069153,"1797":0.6895629167556763,"1798":0.880205512046814,"1799":1.2999112606048584,"1800":-0.22550702095031738,"1801":-2.0705294609069824,"1802":-0.18930219113826752,"1803":1.0013591051101685,"1804":-1.6380821466445923,"1805":-1.1180685758590698,"1806":-1.5399754047393799,"1807":1.6762745380401611,"1808":1.0668847560882568,"1809":0.4683338701725006,"1810":-0.6014319658279419,"1811":-0.32290393114089966,"1812":-0.1253310889005661,"1813":0.2436845898628235,"1814":0.488450825214386,"1815":0.8229103088378906,"1816":0.7333182096481323,"1817":-0.21441417932510376,"1818":1.7691426277160645,"1819":1.5046051740646362,"1820":-1.652464747428894,"1821":1.3969273567199707,"1822":-0.7124773263931274,"1823":0.22369197010993958,"1824":1.8452950716018677,"1825":-0.7093773484230042,"1826":-1.1246720552444458,"1827":-1.300851583480835,"1828":-0.2739417552947998,"1829":-0.8364485502243042,"1830":0.823939859867096,"1831":-0.7965832352638245,"1832":-0.030861737206578255,"1833":1.0333093404769897,"1834":-0.8327114582061768,"1835":1.7426906824111938,"1836":-1.0282840728759766,"1837":0.8068625926971436,"1838":0.4743901193141937,"1839":0.8260568380355835,"1840":-0.3637135326862335,"1841":-0.6313039064407349,"1842":-1.0839533805847168,"1843":0.2975626289844513,"1844":-2.7276549339294434,"1845":-1.7252558469772339,"1846":-0.37570083141326904,"1847":-0.36834201216697693,"1848":-0.5338314175605774,"1849":0.65240079164505,"1850":-0.3232481777667999,"1851":-0.37728723883628845,"1852":0.7135698199272156,"1853":1.5195242166519165,"1854":0.11788927763700485,"1855":1.2515085935592651,"1856":-1.58987557888031,"1857":-1.9625828266143799,"1858":-1.4343069791793823,"1859":-0.5881499648094177,"1860":-0.27304860949516296,"1861":0.7738874554634094,"1862":1.0202263593673706,"1863":0.8247577548027039,"1864":-1.519822597503662,"1865":1.306789517402649,"1866":-0.9134472608566284,"1867":0.9159297347068787,"1868":1.5006691217422485,"1869":-0.22056812047958374,"1870":-1.0577558279037476,"1871":2.2267112731933594,"1872":-0.3717879354953766,"1873":0.4170858561992645,"1874":-0.6423448324203491,"1875":1.092385172843933,"1876":-1.153643250465393,"1877":-1.8560222387313843,"1878":1.0913609266281128,"1879":0.35326704382896423,"1880":0.39754074811935425,"1881":-0.04217902943491936,"1882":-0.10751549899578094,"1883":-0.9380506873130798,"1884":1.3768677711486816,"1885":-1.4188653230667114,"1886":0.4698578119277954,"1887":1.6168091297149658,"1888":-0.12504325807094574,"1889":-0.8488861322402954,"1890":0.9084286093711853,"1891":-0.36322736740112305,"1892":-1.9180245399475098,"1893":-2.145911455154419,"1894":0.2646555006504059,"1895":-1.8623096942901611,"1896":-1.7537343502044678,"1897":0.31908118724823,"1898":0.669403612613678,"1899":-0.18901574611663818,"1900":-0.49580058455467224,"1901":-0.2807643413543701,"1902":0.09264516830444336,"1903":0.3428589403629303,"1904":0.20273526012897491,"1905":2.3273260593414307,"1906":1.1181665658950806,"1907":-0.12053412944078445,"1908":0.957588255405426,"1909":1.1609247922897339,"1910":-1.8890990018844604,"1911":-1.1262317895889282,"1912":-0.9893801212310791,"1913":-1.400262713432312,"1914":-3.212731122970581,"1915":-2.0984978675842285,"1916":0.35321271419525146,"1917":5.075658321380615,"1918":-2.136768341064453,"1919":2.0056278705596924,"1920":-3.1833863258361816,"1921":3.442917823791504,"1922":1.574238896369934,"1923":-1.2248046398162842,"1924":-0.7623330354690552,"1925":-2.7218408584594727,"1926":-0.549462616443634,"1927":3.509845495223999,"1928":5.407890796661377,"1929":-2.2535572052001953,"1930":-7.328007221221924,"1931":-2.136720895767212,"1932":-1.5332132577896118,"1933":2.1201364994049072,"1934":3.433772325515747,"1935":1.357426404953003,"1936":-2.770712375640869,"1937":4.253971099853516,"1938":3.6992976665496826,"1939":0.8417719602584839,"1940":-1.0588607788085938,"1941":-2.995133399963379,"1942":-3.868175506591797,"1943":1.1017694473266602,"1944":-3.8766729831695557,"1945":5.810612678527832,"1946":-7.219622611999512,"1947":4.039614200592041,"1948":-4.0019965171813965,"1949":-0.7679643034934998,"1950":1.7210454940795898,"1951":-4.9772443771362305,"1952":5.8592000007629395,"1953":-6.3005900382995605,"1954":5.6122307777404785,"1955":-3.7467665672302246,"1956":-0.5643737316131592,"1957":-1.964383602142334,"1958":1.0753509998321533,"1959":-0.3005957007408142,"1960":1.0623462200164795,"1961":4.8490376472473145,"1962":2.1872899532318115,"1963":3.856346368789673,"1964":1.8457720279693604,"1965":-4.377151012420654,"1966":0.9389888644218445,"1967":-1.4400606155395508,"1968":0.19657237827777863,"1969":-3.7015061378479004,"1970":4.553225517272949,"1971":1.2739932537078857,"1972":3.088629961013794,"1973":-0.6469725370407104,"1974":5.7873430252075195,"1975":6.7442803382873535,"1976":1.3660637140274048,"1977":-3.3878872394561768,"1978":-1.2472046613693237,"1979":-1.1632747650146484,"1980":1.6029422283172607,"1981":0.7211393117904663,"1982":-1.3725402355194092,"1983":2.862898826599121,"1984":-2.082923650741577,"1985":-3.299445152282715,"1986":-1.7150505781173706,"1987":-1.3610965013504028,"1988":1.351223111152649,"1989":2.5931010246276855,"1990":2.497816562652588,"1991":3.0285415649414062,"1992":-0.2829863727092743,"1993":-2.4436912536621094,"1994":-1.9296573400497437,"1995":-3.7565016746520996,"1996":0.5964815616607666,"1997":-3.8606953620910645,"1998":3.5602667331695557,"1999":-0.24370157718658447,"2000":-2.4990170001983643,"2001":2.8489856719970703,"2002":1.8141181468963623,"2003":-0.4078309237957001,"2004":1.5133459568023682,"2005":-0.10819441825151443,"2006":-0.5366069078445435,"2007":0.822571337223053,"2008":-0.9759963154792786,"2009":-1.413193941116333,"2010":1.0943472385406494,"2011":0.8794854879379272,"2012":1.4256824254989624,"2013":-2.6699118614196777,"2014":2.0910704135894775,"2015":2.127692461013794,"2016":-1.1389522552490234,"2017":-1.2160478830337524,"2018":-1.1843578815460205,"2019":-2.4651553630828857,"2020":1.8417890071868896,"2021":-0.0965108573436737,"2022":0.05610563978552818,"2023":1.4322748184204102,"2024":-2.6821796894073486,"2025":0.8282183408737183,"2026":-0.0800882875919342,"2027":-1.0067391395568848,"2028":2.836956262588501,"2029":0.5880215764045715,"2030":-3.46212100982666,"2031":-0.72858726978302,"2032":1.3649665117263794,"2033":-1.2946704626083374,"2034":4.131362438201904,"2035":-0.16404679417610168,"2036":-1.0941351652145386,"2037":-3.9515225887298584,"2038":-2.5377321243286133,"2039":-1.239414930343628,"2040":1.035279393196106,"2041":-0.7735259532928467,"2042":2.12973952293396,"2043":2.118913173675537,"2044":-1.7449582815170288,"2045":0.5278393626213074,"2046":-3.444544792175293,"2047":2.230954647064209,"2048":-0.4592939019203186,"2049":-3.985107421875,"2050":0.6012805104255676,"2051":-3.2550179958343506,"2052":2.778517246246338,"2053":4.509273529052734,"2054":-3.3947956562042236,"2055":-2.366497039794922,"2056":-6.794223785400391,"2057":-1.9603331089019775,"2058":-0.3854060769081116,"2059":1.026720404624939,"2060":0.15169170498847961,"2061":1.856364130973816,"2062":6.9058403968811035,"2063":2.660412311553955,"2064":0.40266409516334534,"2065":-2.363142251968384,"2066":2.1698150634765625,"2067":-2.2070844173431396,"2068":-3.4665286540985107,"2069":-2.3878278732299805,"2070":-0.845743715763092,"2071":0.6902428269386292,"2072":3.7426981925964355,"2073":3.217693567276001,"2074":-3.3447623252868652,"2075":-0.6398101449012756,"2076":4.085673809051514,"2077":-1.6992542743682861,"2078":1.9734331369400024,"2079":-1.734057903289795,"2080":-1.4550659656524658,"2081":-6.236269474029541,"2082":2.1037776470184326,"2083":2.0083980560302734,"2084":-4.476368427276611,"2085":2.493945598602295,"2086":0.4560015797615051,"2087":0.4317173361778259,"2088":3.5763344764709473,"2089":-1.3559757471084595,"2090":-1.9009724855422974,"2091":-0.23915168642997742,"2092":-0.7407597303390503,"2093":0.7338290810585022,"2094":-3.4881272315979004,"2095":-1.3349552154541016,"2096":3.7852237224578857,"2097":1.8782191276550293,"2098":-2.911550283432007,"2099":3.328645706176758,"2100":-2.1196022033691406,"2101":2.8345131874084473,"2102":1.5957993268966675,"2103":4.532567501068115,"2104":6.087162971496582,"2105":-0.2082519233226776,"2106":-1.7335517406463623,"2107":-0.19015905261039734,"2108":-4.643197536468506,"2109":-3.055887460708618,"2110":-2.72814679145813,"2111":-2.9382286071777344,"2112":0.9675386548042297,"2113":-0.35069820284843445,"2114":0.32432642579078674,"2115":-2.6186139583587646,"2116":1.6204862594604492,"2117":0.8589435815811157,"2118":1.7178294658660889,"2119":0.8159589767456055,"2120":-2.1580491065979004,"2121":-2.001753807067871,"2122":-0.7789832949638367,"2123":-2.562821865081787,"2124":1.0451525449752808,"2125":1.0355870723724365,"2126":1.1574410200119019,"2127":2.5040805339813232,"2128":-0.35336610674858093,"2129":2.1995460987091064,"2130":-2.3068199157714844,"2131":-1.652782917022705,"2132":0.6911317706108093,"2133":-2.8284575939178467,"2134":-0.3268234431743622,"2135":0.37490159273147583,"2136":0.247369647026062,"2137":-0.4047451913356781,"2138":1.3467923402786255,"2139":0.6016329526901245,"2140":0.5871651768684387,"2141":0.3966688811779022,"2142":-0.9195092916488647,"2143":-0.3866172134876251,"2144":0.006023566238582134,"2145":0.1494317650794983,"2146":-0.7449254393577576,"2147":-1.9815587997436523,"2148":-0.35494479537010193,"2149":1.8373664617538452,"2150":0.7536673545837402,"2151":1.6204036474227905,"2152":-0.7653264999389648,"2153":-0.9584037661552429,"2154":1.4706478118896484,"2155":-0.74395751953125,"2156":1.0792756080627441,"2157":-0.9546869993209839,"2158":0.2753369212150574,"2159":1.0148829221725464,"2160":-0.46926766633987427,"2161":-0.8920135498046875,"2162":2.2175512313842773,"2163":1.1833642721176147,"2164":-0.27781257033348083,"2165":1.816652536392212,"2166":-1.954478144645691,"2167":1.1255725622177124,"2168":0.36964598298072815,"2169":2.597170829772949,"2170":1.6975589990615845,"2171":0.21429507434368134,"2172":-1.4785932302474976,"2173":0.43424487113952637,"2174":-1.1431208848953247,"2175":-0.8179953694343567,"2176":0.4120144844055176,"2177":-0.7986930012702942,"2178":0.7703169584274292,"2179":-2.6152524948120117,"2180":-0.37971028685569763,"2181":-0.3924999535083771,"2182":-1.2231390476226807,"2183":-2.14955735206604,"2184":1.282849907875061,"2185":4.887443542480469,"2186":-5.352257251739502,"2187":-3.8988592624664307,"2188":-4.982751369476318,"2189":-0.36979931592941284,"2190":-2.419959783554077,"2191":-0.0772550106048584,"2192":-0.7084852457046509,"2193":5.312217712402344,"2194":-0.398659348487854,"2195":2.172720193862915,"2196":0.6791099309921265,"2197":0.9968001842498779,"2198":-0.7043942213058472,"2199":-4.934103488922119,"2200":-2.947875738143921,"2201":-1.4091236591339111,"2202":0.5128004550933838,"2203":-0.05740435793995857,"2204":-0.9289873242378235,"2205":1.3183542490005493,"2206":-7.1320013999938965,"2207":0.5819595456123352,"2208":0.6999122500419617,"2209":0.31675297021865845,"2210":3.2448198795318604,"2211":-0.300241619348526,"2212":-3.7809860706329346,"2213":-5.402612686157227,"2214":-1.2769618034362793,"2215":1.8303900957107544,"2216":1.6189684867858887,"2217":0.5446255803108215,"2218":1.3494677543640137,"2219":3.7165887355804443,"2220":0.6967900991439819,"2221":-0.5248387455940247,"2222":1.1101644039154053,"2223":-1.0484784841537476,"2224":-3.803823471069336,"2225":3.061528444290161,"2226":3.7685749530792236,"2227":-1.1326783895492554,"2228":3.6680970191955566,"2229":1.5314276218414307,"2230":-0.6091951131820679,"2231":-1.8570635318756104,"2232":-2.136349678039551,"2233":3.4672179222106934,"2234":-1.248918890953064,"2235":-0.2518231272697449,"2236":2.851637363433838,"2237":-5.0481977462768555,"2238":-0.7355607748031616,"2239":1.3503738641738892,"2240":0.10371782630681992,"2241":-1.2108579874038696,"2242":-3.314197063446045,"2243":-0.6771368384361267,"2244":0.3852684199810028,"2245":-0.6462392807006836,"2246":0.7142471075057983,"2247":0.030621610581874847,"2248":0.8558126091957092,"2249":1.7896629571914673,"2250":-0.06985773146152496,"2251":0.9757038354873657,"2252":0.11287447065114975,"2253":0.4387759268283844,"2254":-0.5277113318443298,"2255":-0.8489062786102295,"2256":-0.15994159877300262,"2257":1.335780143737793,"2258":1.097564697265625,"2259":1.0214780569076538,"2260":-1.3801666498184204,"2261":0.7878862023353577,"2262":1.709740400314331,"2263":-0.9005549550056458,"2264":0.29924747347831726,"2265":-2.1320641040802,"2266":1.4517626762390137,"2267":0.29808104038238525,"2268":0.8479385375976562,"2269":-3.7592668533325195,"2270":0.3935927748680115,"2271":0.7520304322242737,"2272":0.19119983911514282,"2273":-0.9829452633857727,"2274":0.4180862307548523,"2275":0.3979802131652832,"2276":2.732041358947754,"2277":0.34607642889022827,"2278":-1.315824270248413,"2279":-2.390848159790039,"2280":-0.7153778076171875,"2281":-0.3253021538257599,"2282":1.6766630411148071,"2283":1.8815349340438843,"2284":1.7372981309890747,"2285":-0.39307186007499695,"2286":-1.28921377658844,"2287":0.34087687730789185,"2288":-0.026291143149137497,"2289":-0.7316710352897644,"2290":0.6945129036903381,"2291":1.3078193664550781,"2292":-0.9049558639526367,"2293":0.9042788743972778,"2294":1.335963249206543,"2295":0.051749393343925476,"2296":1.2523040771484375,"2297":-0.5510807633399963,"2298":0.08776309341192245,"2299":-0.23806245625019073,"2300":-0.32581302523612976,"2301":0.7576562762260437,"2302":1.7782953977584839,"2303":0.9796081781387329,"2304":0.6213129162788391,"2305":2.453324317932129,"2306":0.13532418012619019,"2307":1.1810781955718994,"2308":-0.4320041835308075,"2309":0.6039105653762817,"2310":0.3338161110877991,"2311":0.23861171305179596,"2312":-2.1279258728027344,"2313":-1.3949300050735474,"2314":-2.913142204284668,"2315":1.343898892402649,"2316":2.177966356277466,"2317":-1.5196588039398193,"2318":-1.8220877647399902,"2319":-1.4346108436584473,"2320":-2.992295503616333,"2321":-1.0022141933441162,"2322":-4.3948774337768555,"2323":2.761477470397949,"2324":-0.08057096600532532,"2325":2.3888111114501953,"2326":0.1688082069158554,"2327":5.590879917144775,"2328":2.5023322105407715,"2329":2.1837215423583984,"2330":3.2559754848480225,"2331":-3.0759966373443604,"2332":-0.7319291234016418,"2333":-3.7925379276275635,"2334":-3.965371608734131,"2335":-0.7361833453178406,"2336":-1.760047197341919,"2337":-1.4171632528305054,"2338":-3.677616834640503,"2339":0.07060495764017105,"2340":-0.24355842173099518,"2341":-1.8804601430892944,"2342":0.9236181974411011,"2343":2.8663599491119385,"2344":1.2157280445098877,"2345":0.24182048439979553,"2346":-1.262024164199829,"2347":4.950807571411133,"2348":-2.3617303371429443,"2349":1.01991605758667,"2350":-2.4240028858184814,"2351":5.005855560302734,"2352":-0.871457040309906,"2353":-3.2866013050079346,"2354":-1.6531033515930176,"2355":-3.9883005619049072,"2356":-3.5658509731292725,"2357":2.218419075012207,"2358":3.358931303024292,"2359":-0.3422729969024658,"2360":1.1617563962936401,"2361":-2.533381700515747,"2362":-1.1633152961730957,"2363":-3.259904146194458,"2364":-2.2628531455993652,"2365":1.3449960947036743,"2366":-2.2515335083007812,"2367":4.2263617515563965,"2368":-1.5338035821914673,"2369":0.6076934337615967,"2370":2.933351516723633,"2371":2.696749687194824,"2372":0.98496413230896,"2373":0.5783663988113403,"2374":-1.130387783050537,"2375":-3.4011945724487305,"2376":-2.845165967941284,"2377":3.791496753692627,"2378":0.8483624458312988,"2379":-1.7786509990692139,"2380":4.6925787925720215,"2381":-1.4065617322921753,"2382":1.3648316860198975,"2383":2.418215036392212,"2384":-1.5491406917572021,"2385":-0.5211285352706909,"2386":-5.773837566375732,"2387":0.6806725263595581,"2388":0.16793563961982727,"2389":0.06834391504526138,"2390":0.16553956270217896,"2391":1.530008316040039,"2392":-0.0016410433454439044,"2393":3.9127607345581055,"2394":1.667051911354065,"2395":-0.4771994352340698,"2396":3.057257890701294,"2397":-4.757282733917236,"2398":-0.39675310254096985,"2399":-0.7517531514167786,"2400":-5.795373439788818,"2401":1.1842595338821411,"2402":0.6813113689422607,"2403":2.564068078994751,"2404":-2.30940318107605,"2405":-1.6558550596237183,"2406":-2.8972294330596924,"2407":-3.3148913383483887,"2408":-1.662645936012268,"2409":0.632132351398468,"2410":-2.4747066497802734,"2411":-4.334046363830566,"2412":0.28080084919929504,"2413":1.8905436992645264,"2414":-0.37259331345558167,"2415":3.409893035888672,"2416":0.7216787934303284,"2417":5.610739707946777,"2418":1.4062753915786743,"2419":0.5967840552330017,"2420":2.5306453704833984,"2421":-1.178550124168396,"2422":0.47516587376594543,"2423":3.8429949283599854,"2424":-4.433506011962891,"2425":-5.12040901184082,"2426":4.17759370803833,"2427":1.6042745113372803,"2428":-4.230811595916748,"2429":1.5762939453125,"2430":-4.497054576873779,"2431":2.4693822860717773,"2432":-2.396502733230591,"2433":2.658416986465454,"2434":7.215940952301025,"2435":0.3846595287322998,"2436":-2.763821840286255,"2437":-0.5460134744644165,"2438":-0.7605907320976257,"2439":-2.0186960697174072,"2440":0.5456347465515137,"2441":-3.301509380340576,"2442":-0.9655045866966248,"2443":-2.3300528526306152,"2444":-0.5871276259422302,"2445":-0.4250101149082184,"2446":-0.3005783259868622,"2447":1.3399615287780762,"2448":0.3261665999889374,"2449":0.8726022243499756,"2450":3.6668031215667725,"2451":2.4906132221221924,"2452":-0.6727871894836426,"2453":-0.32797566056251526,"2454":3.4829773902893066,"2455":-3.643730640411377,"2456":0.7082498073577881,"2457":-4.369297027587891,"2458":-4.41571044921875,"2459":-2.378312349319458,"2460":4.593876838684082,"2461":-0.06349784880876541,"2462":0.415068656206131,"2463":5.381224632263184,"2464":1.7611188888549805,"2465":2.037000894546509,"2466":1.8849018812179565,"2467":1.518117070198059,"2468":-3.5717709064483643,"2469":1.896418809890747,"2470":-1.4995161294937134,"2471":-1.4587810039520264,"2472":3.398001194000244,"2473":4.95424222946167,"2474":0.3097861111164093,"2475":-1.301194667816162,"2476":0.793191134929657,"2477":0.5129715800285339,"2478":-4.607481479644775,"2479":-3.465656042098999,"2480":6.24527645111084,"2481":-3.544106960296631,"2482":5.659440040588379,"2483":-2.0313448905944824,"2484":-3.322298765182495,"2485":3.9221348762512207,"2486":-0.49498775601387024,"2487":-1.4983692169189453,"2488":0.7669340968132019,"2489":0.010301484726369381,"2490":-2.857348918914795,"2491":5.132303237915039,"2492":1.0928949117660522,"2493":1.3992791175842285,"2494":-1.0494327545166016,"2495":0.27596795558929443,"2496":-0.6127234697341919,"2497":0.719093918800354,"2498":1.2474175691604614,"2499":-1.789696216583252,"2500":1.2533787488937378,"2501":-3.301628828048706,"2502":4.079500198364258,"2503":1.2830675840377808,"2504":0.700022280216217,"2505":2.2071282863616943,"2506":-0.36046820878982544,"2507":-0.43673399090766907,"2508":1.931850790977478,"2509":3.7308156490325928,"2510":-3.82584810256958,"2511":-3.4422857761383057,"2512":1.1008639335632324,"2513":-4.098995208740234,"2514":3.671506643295288,"2515":0.5262756943702698,"2516":-1.4564464092254639,"2517":-2.6565444469451904,"2518":-2.5111982822418213,"2519":0.2785288095474243,"2520":3.420186996459961,"2521":-0.8243579268455505,"2522":-1.7879676818847656,"2523":4.581682205200195,"2524":2.7981574535369873,"2525":3.3807015419006348,"2526":-1.920972228050232,"2527":-1.8045423030853271,"2528":4.266000747680664,"2529":-1.2453285455703735,"2530":-5.050663948059082,"2531":-2.022275447845459,"2532":-0.2304711788892746,"2533":1.387933373451233,"2534":-1.0351732969284058,"2535":-0.25436970591545105,"2536":-0.5045281648635864,"2537":-1.0667897462844849,"2538":0.3152875006198883,"2539":-3.1829543113708496,"2540":-3.215129852294922,"2541":2.243130683898926,"2542":-0.8023611903190613,"2543":-3.5856010913848877,"2544":-0.3146543800830841,"2545":2.6347973346710205,"2546":0.47587940096855164,"2547":4.953570365905762,"2548":-0.4922785758972168,"2549":1.055991530418396,"2550":4.8332438468933105,"2551":0.5133056044578552,"2552":2.3461904525756836,"2553":-0.26286551356315613,"2554":-2.197760581970215,"2555":1.1472382545471191,"2556":-0.4938013553619385,"2557":-4.016901969909668,"2558":0.7179594039916992,"2559":0.08535154163837433,"2560":-4.258878231048584,"2561":2.606294870376587,"2562":0.4096571207046509,"2563":5.589097023010254,"2564":2.025552272796631,"2565":4.921238899230957,"2566":0.8521211743354797,"2567":-0.16023078560829163,"2568":-3.2004358768463135,"2569":0.49819865822792053,"2570":-4.463527679443359,"2571":-6.224691390991211,"2572":-1.1519335508346558,"2573":1.0805244445800781,"2574":-0.9833739399909973,"2575":-0.3226073682308197,"2576":-2.4220292568206787,"2577":0.8885245323181152,"2578":0.9306496977806091,"2579":-2.591963291168213,"2580":-0.5369199514389038,"2581":-1.6417046785354614,"2582":-1.744439959526062,"2583":-0.589994490146637,"2584":-1.90257728099823,"2585":2.505032777786255,"2586":-0.6152042150497437,"2587":-0.37987080216407776,"2588":1.1489543914794922,"2589":-1.0111629962921143,"2590":-1.714053988456726,"2591":-0.3485124111175537,"2592":-0.15553106367588043,"2593":2.806443214416504,"2594":-1.1004748344421387,"2595":1.563171625137329,"2596":2.8256583213806152,"2597":4.508681774139404,"2598":0.42024391889572144,"2599":-1.4281147718429565,"2600":-1.993308424949646,"2601":2.728419065475464,"2602":1.1384772062301636,"2603":1.798059105873108,"2604":-0.853748619556427,"2605":0.44304439425468445,"2606":3.222670316696167,"2607":-0.731777012348175,"2608":-1.8329282999038696,"2609":1.60907781124115,"2610":-1.6469155550003052,"2611":-3.062122344970703,"2612":1.0108147859573364,"2613":-2.8478546142578125,"2614":-2.451615571975708,"2615":1.7488665580749512,"2616":-0.6295945048332214,"2617":0.7661349177360535,"2618":-0.1341300904750824,"2619":0.832655668258667,"2620":0.897699236869812,"2621":0.48200923204421997,"2622":-4.445892810821533,"2623":-0.20059850811958313,"2624":1.0830532312393188,"2625":-0.13317446410655975,"2626":-2.735995292663574,"2627":-1.2887217998504639,"2628":1.4875872135162354,"2629":-0.5915272831916809,"2630":-0.6873224973678589,"2631":0.9450214505195618,"2632":1.6541683673858643,"2633":0.6978722810745239,"2634":-0.4508427083492279,"2635":1.4087505340576172,"2636":2.298680067062378,"2637":-0.5466105937957764,"2638":0.8447675108909607,"2639":-0.017536714673042297,"2640":-0.28863266110420227,"2641":1.7471588850021362,"2642":1.580047369003296,"2643":-1.5879795551300049,"2644":0.2105841040611267,"2645":2.676351308822632,"2646":0.27951234579086304,"2647":2.790820837020874,"2648":-0.5479384660720825,"2649":-1.2119994163513184,"2650":-2.0935966968536377,"2651":-3.5757155418395996,"2652":-2.1518137454986572,"2653":0.4352136552333832,"2654":-1.1221578121185303,"2655":1.707711100578308,"2656":1.7295148372650146,"2657":1.9101206064224243,"2658":-2.40177321434021,"2659":0.18168310821056366,"2660":5.831411838531494,"2661":-1.608420491218567,"2662":-0.6554991006851196,"2663":0.053573958575725555,"2664":-3.107168197631836,"2665":0.3557906746864319,"2666":1.1035710573196411,"2667":0.4017225205898285,"2668":-1.061797857284546,"2669":1.0279772281646729,"2670":0.6842684149742126,"2671":-0.5405757427215576,"2672":-2.6797969341278076,"2673":-1.0373588800430298,"2674":-2.5164363384246826,"2675":-0.6162893772125244,"2676":2.268728017807007,"2677":1.2460952997207642,"2678":-0.9981995224952698,"2679":2.1354427337646484,"2680":-2.6240999698638916,"2681":0.2830849587917328,"2682":-0.9611385464668274,"2683":-3.500434637069702,"2684":1.4153941869735718,"2685":3.6534006595611572,"2686":2.945765972137451,"2687":0.6348732709884644,"2688":-0.8522487282752991,"2689":-0.4075579345226288,"2690":2.626046657562256,"2691":-1.1086623668670654,"2692":0.46100011467933655,"2693":3.5738370418548584,"2694":-2.17358660697937,"2695":0.36799004673957825,"2696":1.6842337846755981,"2697":2.9828763008117676,"2698":0.5806999206542969,"2699":0.8949722051620483,"2700":-2.5918147563934326,"2701":1.759192943572998,"2702":-0.5374255180358887,"2703":-0.40287157893180847,"2704":-1.017011046409607,"2705":-2.7397067546844482,"2706":0.9199498295783997,"2707":2.3743839263916016,"2708":-2.805575132369995,"2709":-1.7905569076538086,"2710":0.7457324266433716,"2711":6.247308731079102,"2712":1.245341181755066,"2713":-4.308294296264648,"2714":4.583376884460449,"2715":4.957940101623535,"2716":0.38841772079467773,"2717":-1.2006245851516724,"2718":-2.6128149032592773,"2719":4.799859046936035,"2720":1.3381896018981934,"2721":-4.102489948272705,"2722":-5.3683037757873535,"2723":4.024961471557617,"2724":0.6468642950057983,"2725":0.2968544065952301,"2726":7.671852111816406,"2727":3.2989253997802734,"2728":2.3356258869171143,"2729":3.499793529510498,"2730":-2.658033609390259,"2731":-0.8801089525222778,"2732":1.7355836629867554,"2733":-3.461268663406372,"2734":4.544605255126953,"2735":-4.655049800872803,"2736":-0.47038689255714417,"2737":-3.7152042388916016,"2738":-3.425786256790161,"2739":5.5549421310424805,"2740":2.976832628250122,"2741":1.7079191207885742,"2742":-1.9942823648452759,"2743":5.462684154510498,"2744":5.2766804695129395,"2745":6.474636077880859,"2746":-3.233630895614624,"2747":-1.727331280708313,"2748":-3.3302032947540283,"2749":0.5922413468360901,"2750":-1.356804609298706,"2751":-0.7707205414772034,"2752":-0.4647633731365204,"2753":-4.866818428039551,"2754":2.589794158935547,"2755":-2.116635799407959,"2756":-0.9515444040298462,"2757":-1.753602385520935,"2758":-0.176962748169899,"2759":0.9586343169212341,"2760":-4.600101947784424,"2761":-0.7146158218383789,"2762":-2.137190580368042,"2763":0.6165485978126526,"2764":-6.430981159210205,"2765":5.38437557220459,"2766":3.5180976390838623,"2767":3.898902654647827,"2768":-0.5653876066207886,"2769":1.2439212799072266,"2770":8.373504638671875,"2771":5.451544284820557,"2772":0.7267014980316162,"2773":1.309491515159607,"2774":-6.3660712242126465,"2775":-0.5918117761611938,"2776":-0.046582531183958054,"2777":4.019651889801025,"2778":-1.4206236600875854,"2779":0.417157381772995,"2780":3.518098831176758,"2781":3.379382610321045,"2782":-0.8992577791213989,"2783":0.24954015016555786,"2784":-4.428323268890381,"2785":2.6591761112213135,"2786":4.868162155151367,"2787":1.1744648218154907,"2788":0.39610418677330017,"2789":-1.2708789110183716,"2790":-2.467139959335327,"2791":0.2520916163921356,"2792":2.817795515060425,"2793":-1.7969650030136108,"2794":1.602850079536438,"2795":2.4938085079193115,"2796":-2.587465524673462,"2797":4.402832984924316,"2798":1.6421083211898804,"2799":0.35882264375686646,"2800":0.2256583422422409,"2801":-4.974040508270264,"2802":-1.359211802482605,"2803":-4.276856899261475,"2804":3.7308478355407715,"2805":0.9444089531898499,"2806":-1.9652152061462402,"2807":0.13953816890716553,"2808":-0.5044904351234436,"2809":0.025830423459410667,"2810":-0.9395716786384583,"2811":-1.925856113433838,"2812":-2.9762003421783447,"2813":0.2145533412694931,"2814":-0.9438921213150024,"2815":6.071749210357666,"2816":-2.458054780960083,"2817":-0.5904777646064758,"2818":-5.636438846588135,"2819":2.487563371658325,"2820":-2.694051504135132,"2821":-3.0205771923065186,"2822":0.37996014952659607,"2823":-1.4886142015457153,"2824":-2.9582762718200684,"2825":4.372077941894531,"2826":-2.994473934173584,"2827":-0.6208024024963379,"2828":-0.641048789024353,"2829":2.298232078552246,"2830":-0.4638466238975525,"2831":2.5896294116973877,"2832":-2.8755016326904297,"2833":0.6213057041168213,"2834":1.306650161743164,"2835":1.6083183288574219,"2836":0.961020290851593,"2837":0.7323194146156311,"2838":-1.633213996887207,"2839":-0.412519633769989,"2840":1.6131823062896729,"2841":-0.18407036364078522,"2842":1.1812705993652344,"2843":0.7638110518455505,"2844":-0.14722159504890442,"2845":1.2590792179107666,"2846":-2.2767372131347656,"2847":-0.7277097105979919,"2848":0.5223851799964905,"2849":-0.603373110294342,"2850":-1.944906234741211,"2851":2.645277500152588,"2852":1.265837550163269,"2853":-0.09779344499111176,"2854":-2.5438380241394043,"2855":-0.6046299338340759,"2856":-0.6502675414085388,"2857":-0.09928647428750992,"2858":0.6634066104888916,"2859":-0.6111874580383301,"2860":-1.2994015216827393,"2861":1.5928605794906616,"2862":0.8960305452346802,"2863":1.4927823543548584,"2864":0.5741396546363831,"2865":-0.5125075578689575,"2866":0.9159951210021973,"2867":2.0868330001831055,"2868":-2.9879310131073,"2869":1.5014009475708008,"2870":-2.622349977493286,"2871":1.5559574365615845,"2872":-1.9166638851165771,"2873":0.05491137132048607,"2874":0.8861100673675537,"2875":-0.7679060101509094,"2876":-0.06742365658283234,"2877":-1.1806292533874512,"2878":-1.5423036813735962,"2879":0.9405959844589233,"2880":0.1388552486896515,"2881":-3.1222574710845947,"2882":0.5625426769256592,"2883":1.9311366081237793,"2884":0.34571146965026855,"2885":0.9285823702812195,"2886":1.5327796936035156,"2887":-0.5330592393875122,"2888":2.1433706283569336,"2889":-1.8276313543319702,"2890":0.23914949595928192,"2891":0.8886593580245972,"2892":-0.37332281470298767,"2893":-2.069859027862549,"2894":2.5319595336914062,"2895":-0.14439746737480164,"2896":1.3489713668823242,"2897":0.6696586012840271,"2898":0.5610462427139282,"2899":2.31640625,"2900":-0.3037087023258209,"2901":-0.8362346291542053,"2902":2.4258055686950684,"2903":0.8576244711875916,"2904":0.46994826197624207,"2905":-1.5321452617645264,"2906":2.2514994144439697,"2907":-1.6707825660705566,"2908":2.145946502685547,"2909":4.598106861114502,"2910":1.460256576538086,"2911":6.343107223510742,"2912":-3.932710647583008,"2913":-0.3301105499267578,"2914":-0.8383837342262268,"2915":-5.299710750579834,"2916":2.9977145195007324,"2917":-0.015556874684989452,"2918":-0.21390888094902039,"2919":4.497671604156494,"2920":-1.2057745456695557,"2921":3.653458595275879,"2922":-2.7123987674713135,"2923":-2.8321192264556885,"2924":4.021455764770508,"2925":-2.5193724632263184,"2926":-2.712360382080078,"2927":0.792275607585907,"2928":2.8236043453216553,"2929":-2.1315417289733887,"2930":3.287966728210449,"2931":1.3381255865097046,"2932":0.585792601108551,"2933":-1.0565074682235718,"2934":2.375335931777954,"2935":-0.43613025546073914,"2936":-0.29676708579063416,"2937":1.438836693763733,"2938":-3.5421817302703857,"2939":-6.989769458770752,"2940":-2.215888023376465,"2941":3.258650779724121,"2942":-1.0798145532608032,"2943":0.07702778279781342,"2944":1.4258685111999512,"2945":-2.867321014404297,"2946":-0.45390528440475464,"2947":0.0741662085056305,"2948":4.949866771697998,"2949":-2.8614614009857178,"2950":0.3150855004787445,"2951":4.3985090255737305,"2952":-2.3617489337921143,"2953":-1.129260540008545,"2954":4.508431911468506,"2955":2.9883036613464355,"2956":-0.9079073071479797,"2957":0.4841066300868988,"2958":-0.6852288246154785,"2959":4.165972709655762,"2960":0.31549519300460815,"2961":1.4591182470321655,"2962":4.803677082061768,"2963":-2.067964792251587,"2964":-2.587392568588257,"2965":-1.6751539707183838,"2966":-3.2195918560028076,"2967":-0.6255747079849243,"2968":2.6900651454925537,"2969":0.4186733067035675,"2970":-3.532855987548828,"2971":3.154493808746338,"2972":3.5501980781555176,"2973":2.7935118675231934,"2974":-0.34782731533050537,"2975":1.0922411680221558,"2976":-0.5243653059005737,"2977":1.993394136428833,"2978":0.10296277701854706,"2979":2.679124593734741,"2980":0.13265502452850342,"2981":-1.6793040037155151,"2982":-1.2293000221252441,"2983":4.410751819610596,"2984":0.5893300771713257,"2985":-1.3152621984481812,"2986":0.8071998953819275,"2987":1.0918655395507812,"2988":1.0527411699295044,"2989":0.4327453672885895,"2990":1.384179949760437,"2991":2.670759439468384,"2992":-1.6596215963363647,"2993":-2.8968441486358643,"2994":-5.724635124206543,"2995":-1.1538923978805542,"2996":1.2672086954116821,"2997":1.9418487548828125,"2998":-1.6556305885314941,"2999":5.316938877105713,"3000":2.98203182220459,"3001":0.3158045709133148,"3002":-3.8372509479522705,"3003":-1.2757257223129272,"3004":0.3954514265060425,"3005":-0.2450149655342102,"3006":2.203002691268921,"3007":-1.0559265613555908,"3008":-5.051756858825684,"3009":4.16234827041626,"3010":-2.155243396759033,"3011":2.2430341243743896,"3012":1.6991868019104004,"3013":-4.2409281730651855,"3014":-0.7643926739692688,"3015":1.7561286687850952,"3016":5.106228828430176,"3017":-0.544884979724884,"3018":-0.7636765241622925,"3019":2.3122808933258057,"3020":-0.45252907276153564,"3021":-6.058766841888428,"3022":1.1330779790878296,"3023":-3.1104226112365723,"3024":-2.2879366874694824,"3025":1.2366573810577393,"3026":-0.2737273573875427,"3027":-0.5046253204345703,"3028":-4.143756866455078,"3029":5.914509296417236,"3030":4.350807189941406,"3031":1.0294524431228638,"3032":-1.1848211288452148,"3033":1.6219900846481323,"3034":1.1409305334091187,"3035":0.14272575080394745,"3036":-0.5431054830551147,"3037":0.49961546063423157,"3038":-3.1346147060394287,"3039":-2.789759635925293,"3040":-0.05239861086010933,"3041":-2.224893569946289,"3042":0.6935834884643555,"3043":-1.163070559501648,"3044":-2.931259870529175,"3045":-0.6231637597084045,"3046":0.07813704758882523,"3047":-0.3003498315811157,"3048":2.531114101409912,"3049":-2.627070188522339,"3050":-2.188551425933838,"3051":1.7787352800369263,"3052":1.29896879196167,"3053":1.4834537506103516,"3054":0.15543827414512634,"3055":-3.440478801727295,"3056":0.46950843930244446,"3057":-3.1219024658203125,"3058":-4.405111789703369,"3059":-2.2209794521331787,"3060":-1.5307800769805908,"3061":4.4460930824279785,"3062":5.188259124755859,"3063":0.14574407041072845,"3064":-2.8214190006256104,"3065":-2.166950225830078,"3066":0.3735204339027405,"3067":-3.88362979888916,"3068":0.4221779406070709,"3069":-0.42655086517333984,"3070":-2.4848811626434326,"3071":-1.2254050970077515,"3072":-0.5792952179908752,"3073":0.6009611487388611,"3074":-1.0141549110412598,"3075":-0.33639201521873474,"3076":0.6564980745315552,"3077":-1.6280115842819214,"3078":5.730735778808594,"3079":1.5241326093673706,"3080":0.49542349576950073,"3081":-1.7509732246398926,"3082":-6.833429336547852,"3083":-1.7748411893844604,"3084":2.0553689002990723,"3085":-6.283254623413086,"3086":1.0397586822509766,"3087":1.106096863746643,"3088":-4.255520343780518,"3089":4.425325870513916,"3090":-1.9373650550842285,"3091":3.047598361968994,"3092":-0.8577235341072083,"3093":0.32468199729919434,"3094":4.990126609802246,"3095":-0.24296064674854279,"3096":-3.946737051010132,"3097":-1.8166018724441528,"3098":-3.4943466186523438,"3099":-5.528656959533691,"3100":1.8700733184814453,"3101":-0.4272681474685669,"3102":2.1224348545074463,"3103":-4.934853553771973,"3104":-1.809680461883545,"3105":2.7984466552734375,"3106":2.873798131942749,"3107":-0.5423128604888916,"3108":-2.138950824737549,"3109":3.1130337715148926,"3110":-5.038451671600342,"3111":0.6200481653213501,"3112":-2.290207862854004,"3113":1.2038084268569946,"3114":-2.1310129165649414,"3115":1.7690675258636475,"3116":2.6106576919555664,"3117":0.7019628286361694,"3118":-1.3705106973648071,"3119":-1.9797872304916382,"3120":-0.46354174613952637,"3121":1.1025099754333496,"3122":-3.507143497467041,"3123":-3.1669201850891113,"3124":-1.437034249305725,"3125":-4.594302177429199,"3126":3.2530345916748047,"3127":-2.038534164428711,"3128":-4.242205619812012,"3129":2.2778053283691406,"3130":-2.6043741703033447,"3131":0.15544010698795319,"3132":-0.6399388909339905,"3133":-0.5360691547393799,"3134":-0.18071496486663818,"3135":1.194535732269287,"3136":-2.017167806625366,"3137":-2.533493757247925,"3138":-3.706620454788208,"3139":2.5996017456054688,"3140":0.6935859322547913,"3141":-1.1099539995193481,"3142":5.4018168449401855,"3143":-2.4439644813537598,"3144":-2.4205591678619385,"3145":-1.1179553270339966,"3146":0.3762666583061218,"3147":-2.0931599140167236,"3148":-1.206735372543335,"3149":3.9990389347076416,"3150":-1.2700339555740356,"3151":0.48319804668426514,"3152":2.304607391357422,"3153":-1.0680742263793945,"3154":-2.494211196899414,"3155":-2.510085344314575,"3156":3.0656442642211914,"3157":1.6214849948883057,"3158":2.0895490646362305,"3159":1.5660029649734497,"3160":-0.8709505796432495,"3161":-0.14558285474777222,"3162":-0.13880158960819244,"3163":1.562258243560791,"3164":2.590640068054199,"3165":0.2701691687107086,"3166":-1.339284062385559,"3167":2.9013445377349854,"3168":-1.6242338418960571,"3169":0.8128669261932373,"3170":0.33531129360198975,"3171":2.629995107650757,"3172":-1.0044865608215332,"3173":-0.6290026307106018,"3174":-3.8680880069732666,"3175":0.027921749278903008,"3176":0.7132330536842346,"3177":1.4705058336257935,"3178":2.453340768814087,"3179":-0.3925146758556366,"3180":-2.2575266361236572,"3181":2.1755056381225586,"3182":0.11848518997430801,"3183":-0.6511365175247192,"3184":-0.6987950205802917,"3185":-4.849264144897461,"3186":0.476318359375,"3187":0.9745505452156067,"3188":-2.8686435222625732,"3189":1.2940202951431274,"3190":3.8378829956054688,"3191":-0.2625393867492676,"3192":-0.9010922908782959,"3193":-1.3072576522827148,"3194":0.22567811608314514,"3195":-2.027848958969116,"3196":1.7567857503890991,"3197":0.6556499600410461,"3198":1.3727099895477295,"3199":0.26790252327919006,"3200":0.8931259512901306,"3201":-0.710136353969574,"3202":0.2607817053794861,"3203":1.1575273275375366,"3204":2.576068162918091,"3205":-0.3761158585548401,"3206":0.6067858338356018,"3207":-2.4739718437194824,"3208":0.049786098301410675,"3209":-0.6216744184494019,"3210":-4.108337879180908,"3211":0.4550551176071167,"3212":-1.255914330482483,"3213":0.8395466804504395,"3214":-0.0591537170112133,"3215":-0.3539343476295471,"3216":-0.9563989639282227,"3217":1.1948765516281128,"3218":-2.6432981491088867,"3219":-1.7720247507095337,"3220":3.9588358402252197,"3221":-1.4962007999420166,"3222":2.8813536167144775,"3223":-5.1903910636901855,"3224":-0.5500031113624573,"3225":-1.3091480731964111,"3226":-1.397369146347046,"3227":3.1396751403808594,"3228":0.13111726939678192,"3229":-1.6689658164978027,"3230":2.3217127323150635,"3231":4.192745685577393,"3232":-0.8498856425285339,"3233":-3.688530445098877,"3234":-1.0320473909378052,"3235":-4.01538610458374,"3236":0.9800829291343689,"3237":4.704616069793701,"3238":2.3531081676483154,"3239":4.882315635681152,"3240":-3.533787488937378,"3241":-1.1950044631958008,"3242":-0.20911867916584015,"3243":1.330243468284607,"3244":0.822378396987915,"3245":0.270425409078598,"3246":-6.968152046203613,"3247":4.540452003479004,"3248":5.0821919441223145,"3249":2.0549302101135254,"3250":-5.264919281005859,"3251":-1.998529076576233,"3252":1.3608297109603882,"3253":0.6362677812576294,"3254":4.061220645904541,"3255":-1.7750102281570435,"3256":-2.342679977416992,"3257":2.1351208686828613,"3258":-1.0095455646514893,"3259":-2.11694598197937,"3260":0.4362194538116455,"3261":1.0347000360488892,"3262":-2.465463161468506,"3263":1.5236327648162842,"3264":-2.221003532409668,"3265":1.6719419956207275,"3266":-0.6501100659370422,"3267":4.093027591705322,"3268":-4.87305212020874,"3269":1.6650843620300293,"3270":-1.1401665210723877,"3271":-0.5471934676170349,"3272":2.6320104598999023,"3273":-0.9461858868598938,"3274":-0.19164466857910156,"3275":-2.4275522232055664,"3276":-0.4701577425003052,"3277":0.535552978515625,"3278":2.406473398208618,"3279":-2.2156434059143066,"3280":0.642724871635437,"3281":3.3488056659698486,"3282":-0.8600078225135803,"3283":3.895115375518799,"3284":1.7620952129364014,"3285":-1.7360759973526,"3286":1.734099268913269,"3287":-1.5518471002578735,"3288":0.2678399682044983,"3289":-2.160527467727661,"3290":-0.5747150182723999,"3291":0.8951607942581177,"3292":-4.130832195281982,"3293":3.4076082706451416,"3294":-1.9208372831344604,"3295":4.451045989990234,"3296":2.3287465572357178,"3297":3.3872368335723877,"3298":1.9225406646728516,"3299":2.080545425415039,"3300":-3.158745527267456,"3301":-3.222593307495117,"3302":1.0320369005203247,"3303":3.9587342739105225,"3304":0.028424140065908432,"3305":2.7462849617004395,"3306":-4.521669864654541,"3307":1.1837977170944214,"3308":-0.6704646348953247,"3309":1.233783483505249,"3310":0.5771711468696594,"3311":-0.6338260769844055,"3312":-5.204593181610107,"3313":4.539478778839111,"3314":2.748645782470703,"3315":1.411348819732666,"3316":-2.5620875358581543,"3317":-2.5374226570129395,"3318":0.2525171935558319,"3319":0.8805934190750122,"3320":5.8185133934021,"3321":0.6404710412025452,"3322":-1.0668638944625854,"3323":2.54921817779541,"3324":1.3270454406738281,"3325":-1.5315388441085815,"3326":-1.594205617904663,"3327":-2.1537842750549316,"3328":-4.805566310882568,"3329":1.5493204593658447,"3330":-2.7577426433563232,"3331":5.198779582977295,"3332":-2.263502836227417,"3333":5.177401065826416,"3334":-1.0032042264938354,"3335":-1.107853651046753,"3336":0.37474891543388367,"3337":-2.369081497192383,"3338":3.2448248863220215,"3339":-3.374812126159668,"3340":-0.6631042957305908,"3341":0.8107193112373352,"3342":-4.916157245635986,"3343":-0.5372341871261597,"3344":0.16021502017974854,"3345":0.21097393333911896,"3346":0.839713990688324,"3347":2.0144731998443604,"3348":0.9339960813522339,"3349":3.0641419887542725,"3350":1.095339059829712,"3351":-4.162588596343994,"3352":2.4893951416015625,"3353":-2.397077798843384,"3354":0.6254534125328064,"3355":-2.003396511077881,"3356":3.360930919647217,"3357":2.2745895385742188,"3358":1.0518360137939453,"3359":2.0160932540893555,"3360":1.571863055229187,"3361":3.1949214935302734,"3362":1.3873257637023926,"3363":0.09789931029081345,"3364":-0.17262792587280273,"3365":3.244825839996338,"3366":-2.9762346744537354,"3367":0.6872401833534241,"3368":2.4352219104766846,"3369":-0.013938644900918007,"3370":0.009053354151546955,"3371":0.7388710975646973,"3372":-0.3518339991569519,"3373":-0.32011330127716064,"3374":-1.6092841625213623,"3375":-0.08791973441839218,"3376":0.8341156840324402,"3377":-1.4017021656036377,"3378":-2.991137742996216,"3379":1.9932546615600586,"3380":0.3748272657394409,"3381":-0.08208238333463669,"3382":0.17458708584308624,"3383":-0.1811995655298233,"3384":0.5315328240394592,"3385":-0.024421140551567078,"3386":0.823574960231781,"3387":1.2700313329696655,"3388":0.3435410261154175,"3389":0.3933359682559967,"3390":-0.13655662536621094,"3391":0.5706647634506226,"3392":-0.24839811027050018,"3393":0.8770753741264343,"3394":-0.5673224329948425,"3395":1.653435230255127,"3396":-0.5810269117355347,"3397":0.9896458387374878,"3398":-1.9974772930145264,"3399":-0.022078530862927437,"3400":-0.5553436875343323,"3401":1.526303768157959,"3402":2.288526773452759,"3403":-1.0741009712219238,"3404":-0.11169017851352692,"3405":0.025140516459941864,"3406":-3.030883550643921,"3407":0.24499036371707916,"3408":-0.703764021396637,"3409":-2.2535901069641113,"3410":0.1941932588815689,"3411":0.34735819697380066,"3412":0.5858212113380432,"3413":-0.060367170721292496,"3414":-0.22999532520771027,"3415":1.137993335723877,"3416":0.9216535687446594,"3417":-2.324557304382324,"3418":-0.33836829662323,"3419":-0.13041143119335175,"3420":0.34354937076568604,"3421":-1.4244611263275146,"3422":1.3512262105941772,"3423":0.648686408996582,"3424":-2.013467788696289,"3425":1.9466599225997925,"3426":0.08313333243131638,"3427":0.4951580762863159,"3428":0.503779947757721,"3429":1.901465654373169,"3430":0.46633878350257874,"3431":-0.5570388436317444,"3432":0.763448178768158,"3433":-0.3151577115058899,"3434":-0.3388349115848541,"3435":-0.3690299391746521,"3436":0.2642084062099457,"3437":-3.2036831378936768,"3438":0.5256167650222778,"3439":-0.0036215477157384157,"3440":-1.7207070589065552,"3441":-7.1702961921691895,"3442":-1.7147177457809448,"3443":-0.9258934855461121,"3444":1.6894917488098145,"3445":2.6730105876922607,"3446":0.3806002140045166,"3447":0.9099462628364563,"3448":-5.256811618804932,"3449":-0.4669271409511566,"3450":-2.482304811477661,"3451":3.4210283756256104,"3452":-4.859142303466797,"3453":0.26323288679122925,"3454":-2.0171146392822266,"3455":-0.07577924430370331,"3456":1.3384050130844116,"3457":-0.09605805575847626,"3458":-0.39939314126968384,"3459":-6.028002738952637,"3460":1.1691209077835083,"3461":1.0470823049545288,"3462":-4.894571781158447,"3463":1.8519231081008911,"3464":-6.487523078918457,"3465":4.408237934112549,"3466":-0.4773849546909332,"3467":-1.9636940956115723,"3468":-0.7382532954216003,"3469":1.499104619026184,"3470":6.385979175567627,"3471":-3.4796946048736572,"3472":-1.9003373384475708,"3473":2.4992973804473877,"3474":1.5868805646896362,"3475":-2.3282275199890137,"3476":-0.30389976501464844,"3477":1.7646195888519287,"3478":-2.608170509338379,"3479":2.937539577484131,"3480":3.1286802291870117,"3481":1.6432229280471802,"3482":1.1770710945129395,"3483":-3.7543017864227295,"3484":0.7321954965591431,"3485":0.16676415503025055,"3486":0.8247052431106567,"3487":2.162269115447998,"3488":1.2935972213745117,"3489":5.135004997253418,"3490":0.6635825037956238,"3491":-2.4551327228546143,"3492":0.11786054819822311,"3493":0.6861647367477417,"3494":1.0753878355026245,"3495":-4.465912818908691,"3496":-1.1713542938232422,"3497":4.234726905822754,"3498":0.1744633913040161,"3499":-0.8241016268730164,"3500":0.1319374144077301,"3501":4.068894386291504,"3502":-1.776820182800293,"3503":-0.04180727154016495,"3504":-1.9772459268569946,"3505":-3.6607978343963623,"3506":0.4482746124267578,"3507":0.5461285710334778,"3508":0.5315830111503601,"3509":5.02217960357666,"3510":0.07317236065864563,"3511":-2.600356101989746,"3512":3.25816011428833,"3513":-2.4476821422576904,"3514":-6.13026237487793,"3515":-1.820098876953125,"3516":4.0863542556762695,"3517":0.2888212502002716,"3518":0.5007877945899963,"3519":4.175056457519531,"3520":-1.2099214792251587,"3521":1.3963600397109985,"3522":1.4277949333190918,"3523":0.39245086908340454,"3524":1.2434240579605103,"3525":1.1396729946136475,"3526":-2.600224494934082,"3527":0.5013372898101807,"3528":-0.2076585739850998,"3529":0.713786780834198,"3530":1.2718299627304077,"3531":4.291285514831543,"3532":-1.3397527933120728,"3533":2.4139065742492676,"3534":-1.7639912366867065,"3535":-1.075041651725769,"3536":2.8740415573120117,"3537":0.7731874585151672,"3538":1.621421456336975,"3539":-4.029043197631836,"3540":-2.949139356613159,"3541":2.736380100250244,"3542":0.17767608165740967,"3543":-2.2411692142486572,"3544":-1.0932890176773071,"3545":-2.144033193588257,"3546":2.7135274410247803,"3547":2.0722928047180176,"3548":-4.614771366119385,"3549":2.0232162475585938,"3550":2.357797622680664,"3551":-0.7611517310142517,"3552":0.1260053813457489,"3553":-1.6324774026870728,"3554":-5.349544048309326,"3555":-3.0232508182525635,"3556":-5.74505090713501,"3557":-0.35578006505966187,"3558":3.0888898372650146,"3559":-0.6039229035377502,"3560":0.23838411271572113,"3561":1.4974464178085327,"3562":1.392519474029541,"3563":0.49567246437072754,"3564":-4.005094051361084,"3565":-8.391167640686035,"3566":2.03133487701416,"3567":3.6774914264678955,"3568":1.4802196025848389,"3569":-2.0570030212402344,"3570":-3.0497512817382812,"3571":-1.9243228435516357,"3572":0.36012157797813416,"3573":3.5773708820343018,"3574":1.9972565174102783,"3575":-2.837733268737793,"3576":-2.3729615211486816,"3577":5.402763843536377,"3578":4.342284202575684,"3579":-0.9368829727172852,"3580":-4.121724605560303,"3581":-2.4377036094665527,"3582":-5.55459451675415,"3583":4.598432540893555,"3584":-1.107954502105713,"3585":-1.257651686668396,"3586":2.58945894241333,"3587":-2.781450033187866,"3588":1.8904118537902832,"3589":-0.9962035417556763,"3590":-3.5528950691223145,"3591":-4.3098554611206055,"3592":0.18928055465221405,"3593":-7.048916816711426,"3594":-1.4046393632888794,"3595":1.0068557262420654,"3596":-3.6704635620117188,"3597":4.320653915405273,"3598":-0.8671389818191528,"3599":4.155437469482422,"3600":5.533541679382324,"3601":0.08704058825969696,"3602":2.9195258617401123,"3603":-3.3795573711395264,"3604":2.771700859069824,"3605":-0.2595241367816925,"3606":-4.2917304039001465,"3607":-0.7410647869110107,"3608":1.2251919507980347,"3609":2.047849655151367,"3610":-3.5140695571899414,"3611":-1.8415508270263672,"3612":3.8184127807617188,"3613":0.006782437674701214,"3614":-1.3587042093276978,"3615":-2.89837384223938,"3616":1.7144036293029785,"3617":-4.459379196166992,"3618":1.2050837278366089,"3619":-3.1844146251678467,"3620":3.370267868041992,"3621":3.594273090362549,"3622":-0.9756808280944824,"3623":1.7769875526428223,"3624":5.651784896850586,"3625":0.5895687937736511,"3626":2.758667469024658,"3627":0.7725341320037842,"3628":-0.1466488093137741,"3629":2.995325803756714,"3630":1.7222028970718384,"3631":-0.5388580560684204,"3632":-4.578876972198486,"3633":-1.5574398040771484,"3634":-5.948425769805908,"3635":-0.17005901038646698,"3636":1.2575435638427734,"3637":3.2858777046203613,"3638":3.0695929527282715,"3639":-0.2008177936077118,"3640":-0.34022819995880127,"3641":-0.6774683594703674,"3642":-1.5188506841659546,"3643":-3.890944242477417,"3644":-0.8975394368171692,"3645":-0.4174116849899292,"3646":0.303052693605423,"3647":0.19925354421138763,"3648":-1.714364767074585,"3649":-3.7735531330108643,"3650":-1.1708472967147827,"3651":0.9158535003662109,"3652":-0.652316689491272,"3653":2.379133701324463,"3654":-4.121067523956299,"3655":3.3849475383758545,"3656":3.6253864765167236,"3657":3.914079189300537,"3658":-3.7214207649230957,"3659":1.7052407264709473,"3660":5.142487049102783,"3661":-4.994497299194336,"3662":1.639131784439087,"3663":-0.8686509728431702,"3664":-0.34980037808418274,"3665":-1.8541803359985352,"3666":-3.0091629028320312,"3667":4.939492225646973,"3668":-2.368812322616577,"3669":1.0913910865783691,"3670":0.24698156118392944,"3671":-1.855208158493042,"3672":1.9665701389312744,"3673":2.9245874881744385,"3674":-2.291505813598633,"3675":-4.016068935394287,"3676":-2.9498636722564697,"3677":-0.5910831689834595,"3678":-2.9582908153533936,"3679":-3.8618686199188232,"3680":-1.883815050125122,"3681":3.5391836166381836,"3682":-2.597306251525879,"3683":0.41339412331581116,"3684":-1.6280744075775146,"3685":-0.16886427998542786,"3686":-2.6727261543273926,"3687":-0.5025862455368042,"3688":1.2116549015045166,"3689":-2.3384432792663574,"3690":2.741445302963257,"3691":-3.786989212036133,"3692":-2.031923770904541,"3693":-2.380638837814331,"3694":3.570885181427002,"3695":-4.214661121368408,"3696":2.397587776184082,"3697":2.4622039794921875,"3698":-3.146121025085449,