{"sizes":[49,24,3],"layers":[{"0":{},"1":{},"2":{},"3":{},"4":{},"5":{},"6":{},"7":{},"8":{},"9":{},"10":{},"11":{},"12":{},"13":{},"14":{},"15":{},"16":{},"17":{},"18":{},"19":{},"20":{},"21":{},"22":{},"23":{},"24":{},"25":{},"26":{},"27":{},"28":{},"29":{},"30":{},"31":{},"32":{},"33":{},"34":{},"35":{},"36":{},"37":{},"38":{},"39":{},"40":{},"41":{},"42":{},"43":{},"44":{},"45":{},"46":{},"47":{},"48":{}},{"0":{"bias":0.10622654855251312,"weights":{"0":-0.04072511941194534,"1":-0.15372440218925476,"2":0.02004365622997284,"3":0.13595715165138245,"4":-0.07110609114170074,"5":-0.016939379274845123,"6":-0.09378783404827118,"7":0.13435007631778717,"8":0.17897891998291016,"9":0.17225874960422516,"10":0.13345298171043396,"11":-0.09106729179620743,"12":-0.15279290080070496,"13":-0.01385862473398447,"14":0.04045138135552406,"15":-0.026265835389494896,"16":0.1434081643819809,"17":-0.07036977261304855,"18":0.16423046588897705,"19":0.19699564576148987,"20":-0.07438869029283524,"21":0.027627239003777504,"22":-0.07463354617357254,"23":0.027842076495289803,"24":-0.02097058668732643,"25":0.1268356740474701,"26":-0.23561494052410126,"27":-0.008960725739598274,"28":-0.010819433256983757,"29":0.1269320696592331,"30":-0.013332183472812176,"31":0.021847780793905258,"32":-0.025032920762896538,"33":0.036330100148916245,"34":-0.03080511838197708,"35":-0.005823416169732809,"36":-0.1336561143398285,"37":-0.04314428195357323,"38":0.030069058761000633,"39":0.12479053437709808,"40":0.1407610923051834,"41":0.03751760348677635,"42":0.14400090277194977,"43":-0.2178330421447754,"44":-0.035693347454071045,"45":-0.24594369530677795,"46":-0.19803839921951294,"47":-0.01464639138430357,"48":0.1684037744998932}},"1":{"bias":-0.1057959496974945,"weights":{"0":0.03504544869065285,"1":0.26451772451400757,"2":0.17769312858581543,"3":0.26940202713012695,"4":0.13059699535369873,"5":0.09117977321147919,"6":0.32772862911224365,"7":0.19622457027435303,"8":0.03630166873335838,"9":0.1848842054605484,"10":0.17127826809883118,"11":0.029859425500035286,"12":0.12006867676973343,"13":-0.21135689318180084,"14":-0.09040984511375427,"15":-0.055871494114398956,"16":-0.05843052640557289,"17":-0.02883627824485302,"18":-0.019601618871092796,"19":-0.08318398892879486,"20":-0.2871849536895752,"21":0.2572370171546936,"22":-0.27078109979629517,"23":-0.39661985635757446,"24":-0.3416130244731903,"25":-0.28586262464523315,"26":-0.35675862431526184,"27":0.24630045890808105,"28":-0.046555474400520325,"29":-0.09108715504407883,"30":-0.14461225271224976,"31":0.16616027057170868,"32":-0.06956345587968826,"33":-0.1627776324748993,"34":-0.22795192897319794,"35":0.07172799110412598,"36":-0.04861576482653618,"37":0.11462878435850143,"38":-0.10437967628240585,"39":-0.10864587873220444,"40":0.14122852683067322,"41":-0.27723896503448486,"42":0.23102489113807678,"43":-0.07865384221076965,"44":0.017752205953001976,"45":-0.2498628795146942,"46":-0.08891411870718002,"47":-0.14532196521759033,"48":0.6303542256355286}},"2":{"bias":-0.08213331550359726,"weights":{"0":0.23810341954231262,"1":-0.11807259172201157,"2":0.016772150993347168,"3":0.24167834222316742,"4":0.19818754494190216,"5":-0.12095999717712402,"6":0.23747316002845764,"7":0.16491542756557465,"8":0.008696528151631355,"9":0.11320798099040985,"10":-0.19704440236091614,"11":-0.10233821719884872,"12":0.10017309337854385,"13":-0.17878472805023193,"14":0.2171831578016281,"15":0.1451033055782318,"16":-0.14176596701145172,"17":0.028342600911855698,"18":0.1823866069316864,"19":-0.04074392095208168,"20":-0.22843505442142487,"21":0.06537172198295593,"22":-0.4849669337272644,"23":-0.4996299147605896,"24":-0.3400043547153473,"25":-0.34735313057899475,"26":-0.48093950748443604,"27":0.012841343879699707,"28":-0.007860503159463406,"29":0.03322221338748932,"30":0.06049148738384247,"31":-0.17921461164951324,"32":-0.07999449223279953,"33":-0.00829409435391426,"34":-0.4832451045513153,"35":0.13312207162380219,"36":0.047173596918582916,"37":-0.1668901890516281,"38":-0.06887703388929367,"39":-0.0730733796954155,"40":0.149801105260849,"41":-0.2931821048259735,"42":0.07354307919740677,"43":-0.05299549177289009,"44":0.13456124067306519,"45":-0.04810765013098717,"46":0.18328966200351715,"47":-0.11021696776151657,"48":0.5806163549423218}},"3":{"bias":-0.08828293532133102,"weights":{"0":-0.18243096768856049,"1":0.08699364960193634,"2":-0.11992312967777252,"3":-0.04956496134400368,"4":0.21691593527793884,"5":-0.06519119441509247,"6":0.058591682463884354,"7":-0.004830711521208286,"8":0.08100888878107071,"9":-0.18016782402992249,"10":0.09885034710168839,"11":0.13021934032440186,"12":-0.18248632550239563,"13":-0.1697915643453598,"14":0.08207455277442932,"15":-0.154876247048378,"16":0.1905970722436905,"17":-0.15892867743968964,"18":-0.10126180946826935,"19":-0.12543468177318573,"20":0.11668670177459717,"21":0.24261632561683655,"22":-0.17956842482089996,"23":0.03657083213329315,"24":-0.1201750859618187,"25":-0.07074469327926636,"26":-0.007330835331231356,"27":0.28518763184547424,"28":0.11736854910850525,"29":0.04479945823550224,"30":0.01993631012737751,"31":0.18005360662937164,"32":0.1140342578291893,"33":0.12001395225524902,"34":-0.05397497117519379,"35":0.0732966884970665,"36":0.10924959927797318,"37":0.1371016800403595,"38":-0.004182079806923866,"39":0.13505050539970398,"40":-0.0686369389295578,"41":-0.11247031390666962,"42":0.008931560441851616,"43":-0.2939266562461853,"44":-0.05145847797393799,"45":-0.19650030136108398,"46":-0.012890719808638096,"47":-0.2793663442134857,"48":0.4343785047531128}},"4":{"bias":-0.050997376441955566,"weights":{"0":-0.12838543951511383,"1":0.21005097031593323,"2":0.14509551227092743,"3":0.03562450408935547,"4":0.04636403173208237,"5":0.04776038974523544,"6":0.10869807004928589,"7":0.29737985134124756,"8":0.06102096661925316,"9":-0.13843338191509247,"10":-0.04177280142903328,"11":0.10759103298187256,"12":0.16167956590652466,"13":-0.09735176712274551,"14":0.21452675759792328,"15":0.033996812999248505,"16":0.029233206063508987,"17":0.046505384147167206,"18":0.16094793379306793,"19":-0.03282260522246361,"20":-0.08584107458591461,"21":0.06912755966186523,"22":-0.17529773712158203,"23":-0.008630198426544666,"24":-0.02232256904244423,"25":-0.1296304315328598,"26":-0.28643959760665894,"27":0.38387128710746765,"28":0.16116470098495483,"29":0.0897841677069664,"30":-0.17822474241256714,"31":0.04460340365767479,"32":-0.17707407474517822,"33":0.12630115449428558,"34":-0.0663415789604187,"35":-0.06753870844841003,"36":0.07123663276433945,"37":-0.04085773974657059,"38":0.15325374901294708,"39":0.01621713861823082,"40":0.035921286791563034,"41":-0.2715751826763153,"42":0.2719832956790924,"43":-0.10190954059362411,"44":-0.37430527806282043,"45":-0.3507966101169586,"46":-0.36401131749153137,"47":-0.19225922226905823,"48":0.44414234161376953}},"5":{"bias":-0.07386172562837601,"weights":{"0":0.21573592722415924,"1":0.182754784822464,"2":-0.09013445675373077,"3":0.16790388524532318,"4":0.1387135237455368,"5":-0.10845187306404114,"6":0.02055296301841736,"7":0.08832071721553802,"8":-0.0720992311835289,"9":-0.04017296060919762,"10":0.10896778106689453,"11":0.19632193446159363,"12":-0.18922337889671326,"13":-0.3397189974784851,"14":0.007156488485634327,"15":-0.10447251051664352,"16":-0.03977227956056595,"17":0.1704654097557068,"18":-0.004195119719952345,"19":-0.028590774163603783,"20":-0.18701626360416412,"21":0.14115940034389496,"22":-0.30659428238868713,"23":-0.060585714876651764,"24":-0.17486286163330078,"25":-0.0688822865486145,"26":-0.3552253544330597,"27":-0.3670201599597931,"28":0.06968740373849869,"29":0.06873612850904465,"30":0.0903894230723381,"31":-0.16326609253883362,"32":-0.07787037640810013,"33":0.1849518120288849,"34":-0.32023462653160095,"35":0.011685673147439957,"36":0.11666671931743622,"37":0.16186946630477905,"38":0.12954911589622498,"39":-0.002853904152289033,"40":-0.11292921751737595,"41":-0.16319312155246735,"42":0.05931718647480011,"43":0.12422086298465729,"44":0.2265307456254959,"45":0.30060169100761414,"46":0.1421167552471161,"47":0.08390486985445023,"48":-0.16290462017059326}},"6":{"bias":-0.1636604368686676,"weights":{"0":0.03723566606640816,"1":-0.008341995067894459,"2":-0.02699739672243595,"3":0.16499271988868713,"4":-0.07868381589651108,"5":0.1443612277507782,"6":0.0968979150056839,"7":-0.1359386295080185,"8":-0.19129939377307892,"9":0.17662616074085236,"10":0.1655173897743225,"11":0.14878705143928528,"12":0.16967858374118805,"13":-0.32255980372428894,"14":-0.14664772152900696,"15":-0.18518604338169098,"16":-0.19392985105514526,"17":-0.1379041075706482,"18":0.1529061645269394,"19":0.17295271158218384,"20":-0.3167751133441925,"21":-0.13610923290252686,"22":-0.22404596209526062,"23":-0.20647121965885162,"24":-0.30914127826690674,"25":-0.43739691376686096,"26":-0.43340522050857544,"27":0.052247803658246994,"28":0.11992518603801727,"29":0.01437363401055336,"30":0.13751177489757538,"31":-0.07162308692932129,"32":-0.04724188148975372,"33":-0.0976579487323761,"34":-0.275809645652771,"35":0.14897193014621735,"36":-0.03042503446340561,"37":-0.11483852565288544,"38":0.07619237154722214,"39":0.172403022646904,"40":-0.019726602360606194,"41":-0.22498518228530884,"42":0.005732364021241665,"43":0.24952881038188934,"44":0.15918175876140594,"45":0.22460898756980896,"46":0.19404159486293793,"47":0.22616736590862274,"48":0.28661516308784485}},"7":{"bias":-0.07061273604631424,"weights":{"0":-0.20756325125694275,"1":0.13452185690402985,"2":0.14628681540489197,"3":0.05454999580979347,"4":0.07801494747400284,"5":-0.09369181096553802,"6":-0.07169466465711594,"7":-0.14848361909389496,"8":-0.1740972399711609,"9":0.018606213852763176,"10":0.11625716090202332,"11":-0.04240640997886658,"12":-0.05699348822236061,"13":-0.26725122332572937,"14":-0.01010386273264885,"15":0.1923554688692093,"16":0.13104282319545746,"17":-0.04935484379529953,"18":-0.0141702676191926,"19":-0.02541530318558216,"20":-0.2731773257255554,"21":0.18824219703674316,"22":-0.05126132443547249,"23":-0.04230515658855438,"24":-0.2805325388908386,"25":-0.18900078535079956,"26":0.09834516793489456,"27":0.12086962163448334,"28":0.0015817394014447927,"29":0.18401150405406952,"30":0.08295050263404846,"31":-0.1449943333864212,"32":0.010533479042351246,"33":0.02096906490623951,"34":-0.25654658675193787,"35":-0.16907572746276855,"36":0.013727739453315735,"37":-0.07310252636671066,"38":-0.1348261833190918,"39":-0.06638802587985992,"40":-0.10447748750448227,"41":0.10330423712730408,"42":0.10404710471630096,"43":0.07823871076107025,"44":0.02662697806954384,"45":-0.0408547967672348,"46":-0.21676111221313477,"47":0.05254103243350983,"48":0.0759333148598671}},"8":{"bias":0.16712066531181335,"weights":{"0":0.04807092994451523,"1":0.03743716701865196,"2":-0.051675036549568176,"3":-0.0015662082005292177,"4":0.16056858003139496,"5":-0.10636267811059952,"6":-0.3919788599014282,"7":-0.017299717292189598,"8":0.03173835948109627,"9":-0.02212654985487461,"10":0.08943082392215729,"11":0.09118296951055527,"12":0.19528546929359436,"13":0.213163360953331,"14":-0.17934705317020416,"15":-0.180139422416687,"16":0.14490041136741638,"17":-0.07395331561565399,"18":0.12904183566570282,"19":-0.012226725928485394,"20":0.15524393320083618,"21":0.02386166714131832,"22":0.17812801897525787,"23":0.48848554491996765,"24":0.2656015157699585,"25":0.4490441083908081,"26":0.46554112434387207,"27":0.14259973168373108,"28":-0.1310451775789261,"29":-0.013715747743844986,"30":-0.11597154289484024,"31":0.16276706755161285,"32":0.05894985795021057,"33":0.023654267191886902,"34":0.15993309020996094,"35":-0.10515639185905457,"36":0.1555260866880417,"37":0.12677180767059326,"38":-0.14767016470432281,"39":-0.1506471186876297,"40":-0.06512148678302765,"41":0.5030630826950073,"42":0.010817241854965687,"43":-0.24258625507354736,"44":-0.20831264555454254,"45":-0.1757870316505432,"46":-0.2626243233680725,"47":0.03552618622779846,"48":-0.24006667733192444}},"9":{"bias":0.11869382858276367,"weights":{"0":-0.0013154738117009401,"1":-0.2146638035774231,"2":-0.03754705563187599,"3":-0.07435518503189087,"4":-0.21087802946567535,"5":0.05312144011259079,"6":-0.06633608043193817,"7":-0.18030351400375366,"8":0.050302647054195404,"9":0.16542060673236847,"10":0.15039871633052826,"11":0.056971438229084015,"12":0.041940681636333466,"13":0.1694471538066864,"14":0.03584358096122742,"15":-0.04984988644719124,"16":0.11373615264892578,"17":0.09013219177722931,"18":-0.1430225670337677,"19":0.13395096361637115,"20":0.11281955987215042,"21":-0.0003998993488494307,"22":0.12882141768932343,"23":-0.07025715708732605,"24":0.02075742930173874,"25":0.12411519885063171,"26":-0.11067550629377365,"27":-0.3228166401386261,"28":-0.12339406460523605,"29":0.1950046271085739,"30":-0.06014767289161682,"31":0.15570642054080963,"32":-0.02186371013522148,"33":-0.1426393687725067,"34":0.026772625744342804,"35":0.14814242720603943,"36":0.1197480782866478,"37":-0.1000896468758583,"38":-0.08514820784330368,"39":0.037199683487415314,"40":0.10832400619983673,"41":0.10738427191972733,"42":0.022309163585305214,"43":0.10806763172149658,"44":-0.021136190742254257,"45":0.13091027736663818,"46":0.3189014196395874,"47":0.18933385610580444,"48":-0.09393458813428879}},"10":{"bias":-0.23748259246349335,"weights":{"0":0.08135838061571121,"1":0.04915918782353401,"2":-0.06617095321416855,"3":-0.14993403851985931,"4":0.14349554479122162,"5":-0.23579631745815277,"6":-0.2246985137462616,"7":-0.24901245534420013,"8":0.12059405446052551,"9":0.036607615649700165,"10":-0.09024938941001892,"11":-0.0755322128534317,"12":-0.025134162977337837,"13":0.28948915004730225,"14":-0.0710671916604042,"15":0.008315563201904297,"16":0.1737200766801834,"17":0.10189011693000793,"18":0.0748191624879837,"19":-0.13854001462459564,"20":0.29771772027015686,"21":0.12071444094181061,"22":0.16053444147109985,"23":-0.07667109370231628,"24":0.23940449953079224,"25":-0.0031601351220160723,"26":0.26190394163131714,"27":-0.10590638220310211,"28":-0.07592430710792542,"29":0.155251607298851,"30":-0.18062664568424225,"31":-0.037363454699516296,"32":-0.0944991484284401,"33":0.09428055584430695,"34":0.053977396339178085,"35":0.08974401652812958,"36":-0.1608043909072876,"37":-0.1679648458957672,"38":0.15714359283447266,"39":-0.016407130286097527,"40":-0.11899621039628983,"41":0.12377893179655075,"42":-0.19016490876674652,"43":0.25405097007751465,"44":0.21384625136852264,"45":-0.07923459261655807,"46":0.13286186754703522,"47":0.05095290392637253,"48":-0.3720499575138092}},"11":{"bias":0.14960497617721558,"weights":{"0":-0.5316836833953857,"1":-0.025008898228406906,"2":-0.10278478264808655,"3":0.15341375768184662,"4":-0.12342879176139832,"5":0.18225319683551788,"6":-0.02907538414001465,"7":0.1598607301712036,"8":-0.11179687082767487,"9":-0.17433515191078186,"10":0.053738001734018326,"11":-0.03889923915266991,"12":0.14027638733386993,"13":0.04908495768904686,"14":0.06813565641641617,"15":0.03226907178759575,"16":0.06385806202888489,"17":-0.016902098432183266,"18":-0.1449066698551178,"19":0.02007116563618183,"20":-0.035066284239292145,"21":0.09388211369514465,"22":0.10223811119794846,"23":0.0952928438782692,"24":-0.10043465346097946,"25":0.019504085183143616,"26":-0.12764398753643036,"27":0.5146908760070801,"28":-0.09435983002185822,"29":0.03686020150780678,"30":0.061548855155706406,"31":0.009652934968471527,"32":0.12908101081848145,"33":-0.1664983183145523,"34":0.17211845517158508,"35":0.019733011722564697,"36":-0.17346808314323425,"37":0.12955130636692047,"38":-0.100211001932621,"39":0.06178103759884834,"40":0.19788873195648193,"41":0.1760447472333908,"42":-0.01120016910135746,"43":-0.497477263212204,"44":-0.3661637306213379,"45":-0.4685995280742645,"46":-0.4723797142505646,"47":-0.5134477019309998,"48":0.5493984222412109}},"12":{"bias":0.0013206037692725658,"weights":{"0":0.27213141322135925,"1":-0.04069776460528374,"2":-0.09767156839370728,"3":-0.23527948558330536,"4":0.07582750916481018,"5":-0.1335678994655609,"6":-0.1450158953666687,"7":0.12098301202058792,"8":-0.06303072720766068,"9":-0.1501801609992981,"10":0.037128012627363205,"11":0.09307170659303665,"12":-0.16320428252220154,"13":0.06836671382188797,"14":0.04874828830361366,"15":0.06782038509845734,"16":0.014006451703608036,"17":0.1038842648267746,"18":-0.18315671384334564,"19":0.18317987024784088,"20":-0.05655212700366974,"21":0.11557598412036896,"22":-0.08727101981639862,"23":-0.03938242420554161,"24":0.23584812879562378,"25":0.09348806738853455,"26":0.18776917457580566,"27":-0.26367416977882385,"28":0.08190985023975372,"29":-0.1770658642053604,"30":-0.08987915515899658,"31":-0.16927631199359894,"32":0.06305680423974991,"33":0.009003078565001488,"34":0.24295549094676971,"35":-0.23012009263038635,"36":-0.17155562341213226,"37":0.060380350798368454,"38":0.13458745181560516,"39":0.016503190621733665,"40":-0.06589212268590927,"41":-0.042605578899383545,"42":-0.1581810861825943,"43":0.2386733442544937,"44":0.22030813992023468,"45":-0.02988543175160885,"46":-0.023567069321870804,"47":0.09582415223121643,"48":-0.3575056195259094}},"13":{"bias":0.22551687061786652,"weights":{"0":-0.17264431715011597,"1":-0.103933185338974,"2":0.04441508278250694,"3":-0.07946251332759857,"4":-0.027399057522416115,"5":0.2373548001050949,"6":0.06045488640666008,"7":0.10300549864768982,"8":0.14025063812732697,"9":-0.19486650824546814,"10":0.05037042871117592,"11":0.028256043791770935,"12":0.11213058978319168,"13":0.10550710558891296,"14":0.039173226803541183,"15":-0.03953452408313751,"16":-0.14908407628536224,"17":-0.07927785068750381,"18":0.11697853356599808,"19":0.1988094598054886,"20":-0.17696815729141235,"21":-0.10257422178983688,"22":-0.07030721008777618,"23":0.10235343128442764,"24":-0.2832608222961426,"25":0.05481034517288208,"26":-0.1613772213459015,"27":0.24896489083766937,"28":-0.11895960569381714,"29":0.03427397087216377,"30":-0.05467797443270683,"31":-0.11100039631128311,"32":0.14917458593845367,"33":-0.13784542679786682,"34":-0.23318634927272797,"35":0.16471976041793823,"36":0.026837751269340515,"37":-0.13869889080524445,"38":-0.02780228480696678,"39":0.03946975618600845,"40":-0.014946198090910912,"41":-0.19219988584518433,"42":0.1826096624135971,"43":-0.10846541076898575,"44":-0.08247976750135422,"45":-0.15628193318843842,"46":-0.24285639822483063,"47":-0.05167294293642044,"48":0.23561932146549225}},"14":{"bias":0.09250155091285706,"weights":{"0":-0.4281826913356781,"1":0.154770627617836,"2":0.08025107532739639,"3":0.05064604431390762,"4":0.09828909486532211,"5":0.1233484074473381,"6":-0.16111749410629272,"7":0.15815533697605133,"8":0.0862022116780281,"9":-0.17826956510543823,"10":0.026888282969594002,"11":0.09504390507936478,"12":-0.17903313040733337,"13":-0.05916435271501541,"14":0.0033667071256786585,"15":0.18524084985256195,"16":-0.13987639546394348,"17":-0.13980913162231445,"18":0.15953101217746735,"19":-0.1612023413181305,"20":0.15949027240276337,"21":-0.017595285549759865,"22":0.09707532078027725,"23":-0.11473879963159561,"24":-0.05001809448003769,"25":-0.011466607451438904,"26":0.13628411293029785,"27":0.2342863231897354,"28":0.07919303327798843,"29":-0.1046714037656784,"30":-0.11226121336221695,"31":-0.14321893453598022,"32":-0.09416602551937103,"33":0.015519043430685997,"34":-0.041295550763607025,"35":-0.1912406086921692,"36":-0.012105082161724567,"37":0.09857863187789917,"38":-0.18991294503211975,"39":-0.17465893924236298,"40":-0.03867090120911598,"41":0.10924582928419113,"42":-0.007626757491379976,"43":-0.1328755021095276,"44":-0.35236459970474243,"45":-0.3785867393016815,"46":-0.4104883670806885,"47":-0.3856160044670105,"48":0.11155538260936737}},"15":{"bias":-0.0745769664645195,"weights":{"0":0.20519647002220154,"1":0.17318449914455414,"2":0.02187684364616871,"3":-0.07599975168704987,"4":-0.0324653796851635,"5":-0.10325264930725098,"6":0.35653018951416016,"7":-0.09274886548519135,"8":-0.08697444200515747,"9":0.04288465902209282,"10":-0.06472047418355942,"11":0.12069068104028702,"12":-0.06252437829971313,"13":-0.03600849211215973,"14":0.03210705891251564,"15":0.08924596011638641,"16":-0.05455295741558075,"17":-0.041365981101989746,"18":0.03049238584935665,"19":-0.1235174760222435,"20":-0.20369289815425873,"21":-0.04109526798129082,"22":-0.018599502742290497,"23":-0.07279737293720245,"24":-0.22407078742980957,"25":-0.3136002719402313,"26":-0.30739927291870117,"27":-0.16878783702850342,"28":-0.04771948978304863,"29":-0.024041209369897842,"30":0.06545314192771912,"31":-0.0708460584282875,"32":-0.07879101485013962,"33":-0.17144784331321716,"34":-0.2627226710319519,"35":0.21474623680114746,"36":-0.09640052169561386,"37":-0.1035904586315155,"38":-0.0774458795785904,"39":0.11571572721004486,"40":0.07984548807144165,"41":-0.0962371677160263,"42":-0.09957731515169144,"43":-0.09918376058340073,"44":0.06057723984122276,"45":-0.0011614178074523807,"46":0.10585543513298035,"47":-0.08902670443058014,"48":0.15141189098358154}},"16":{"bias":-0.15697987377643585,"weights":{"0":0.3599318861961365,"1":0.1483994871377945,"2":0.07201359421014786,"3":-0.03429500386118889,"4":-0.16855394840240479,"5":-0.11641354113817215,"6":0.03125006705522537,"7":0.11677758395671844,"8":0.0858139917254448,"9":0.0313686802983284,"10":-0.06948617100715637,"11":0.07736928015947342,"12":-0.12693215906620026,"13":0.15600739419460297,"14":0.02068617008626461,"15":-0.1740189790725708,"16":0.137267604470253,"17":-0.1339249163866043,"18":-0.04206082224845886,"19":-0.14825622737407684,"20":-0.13190001249313354,"21":0.020631341263651848,"22":0.014752582646906376,"23":0.016355399042367935,"24":-0.19328053295612335,"25":-0.06772461533546448,"26":-0.00464551942422986,"27":-0.3612983226776123,"28":-0.20259028673171997,"29":-0.1107470840215683,"30":0.029463084414601326,"31":0.11415564268827438,"32":0.12923076748847961,"33":0.06043051555752754,"34":-0.15226487815380096,"35":-0.003297658869996667,"36":-0.14463339745998383,"37":0.08804169297218323,"38":0.1788998395204544,"39":0.08979487419128418,"40":-0.19298161566257477,"41":0.03312080353498459,"42":-0.1608196645975113,"43":0.23901745676994324,"44":0.5198763012886047,"45":0.48974609375,"46":0.5032799243927002,"47":0.4349234104156494,"48":-0.49248653650283813}},"17":{"bias":-0.10161761194467545,"weights":{"0":0.5271334648132324,"1":-0.15527977049350739,"2":0.0514865517616272,"3":0.14515551924705505,"4":-0.12176358699798584,"5":0.08845881372690201,"6":0.06463515013456345,"7":-0.08221230655908585,"8":0.17562268674373627,"9":-0.06000926345586777,"10":0.03478427976369858,"11":-0.06558524817228317,"12":0.059802789241075516,"13":-0.02587113343179226,"14":0.005984110292047262,"15":-0.11038608849048615,"16":0.1813414841890335,"17":-0.07551892101764679,"18":0.1906552016735077,"19":0.12195456027984619,"20":-0.02655138075351715,"21":-0.0661478266119957,"22":-0.22390049695968628,"23":-0.058534104377031326,"24":-0.06455816328525543,"25":-0.18971648812294006,"26":-0.22498929500579834,"27":-0.36848184466362,"28":-0.14286459982395172,"29":-0.05369821563363075,"30":0.19708412885665894,"31":-0.054880332201719284,"32":-0.1659596562385559,"33":0.19561432301998138,"34":-0.005785977002233267,"35":0.1947566568851471,"36":-0.19709837436676025,"37":0.02657892368733883,"38":0.012547020800411701,"39":0.1454940140247345,"40":-0.1296757608652115,"41":-0.23287568986415863,"42":0.0820627361536026,"43":0.515335202217102,"44":0.5788267254829407,"45":0.5528646111488342,"46":0.4434792399406433,"47":0.507197380065918,"48":-0.40359705686569214}},"18":{"bias":-0.17488351464271545,"weights":{"0":-0.27413174510002136,"1":-0.055820245295763016,"2":0.16164802014827728,"3":-0.1777535229921341,"4":0.10750141739845276,"5":-0.07665112614631653,"6":0.015304017812013626,"7":0.15597683191299438,"8":-0.11211733520030975,"9":0.1756388247013092,"10":0.18609434366226196,"11":0.1725681722164154,"12":0.12874339520931244,"13":-0.044840484857559204,"14":-0.07558238506317139,"15":-0.007390920072793961,"16":-0.12536829710006714,"17":0.15836285054683685,"18":-0.027229517698287964,"19":0.024333573877811432,"20":-0.10794287919998169,"21":0.15791955590248108,"22":-0.09692278504371643,"23":0.09946662932634354,"24":0.13977853953838348,"25":0.19481734931468964,"26":0.1249174103140831,"27":0.2540395259857178,"28":-0.07188732177019119,"29":-0.04487387835979462,"30":0.03591778874397278,"31":0.13997402787208557,"32":-0.061836954206228256,"33":-0.09545489400625229,"34":0.040332771837711334,"35":0.10150213539600372,"36":-0.10671617835760117,"37":0.19594569504261017,"38":-0.009256851859390736,"39":-0.06657138466835022,"40":0.11062893271446228,"41":0.26956674456596375,"42":-0.1399555802345276,"43":-0.08440138399600983,"44":-0.2104770839214325,"45":-0.2801310420036316,"46":-0.09678778052330017,"47":-0.321626752614975,"48":0.13917234539985657}},"19":{"bias":0.1290685534477234,"weights":{"0":0.007123338058590889,"1":-0.06761492043733597,"2":0.1819433718919754,"3":0.16240434348583221,"4":-0.1812743842601776,"5":-0.11336540430784225,"6":0.1562757045030594,"7":-0.06977901607751846,"8":0.010443354025483131,"9":-0.15333649516105652,"10":-0.11207734793424606,"11":0.003766281995922327,"12":0.12238681316375732,"13":-0.10287029296159744,"14":-0.03781552240252495,"15":0.08557317405939102,"16":0.02207576297223568,"17":0.11792602390050888,"18":0.14052647352218628,"19":-0.032587695866823196,"20":0.08393701910972595,"21":-0.03363289311528206,"22":-0.05125218257308006,"23":-0.10752545297145844,"24":-0.034480322152376175,"25":0.15196938812732697,"26":-0.11800197511911392,"27":0.004326131660491228,"28":-0.03559968248009682,"29":-0.19846010208129883,"30":0.06939620524644852,"31":0.0908459722995758,"32":0.1736299991607666,"33":-0.14336012303829193,"34":0.0861743688583374,"35":-0.19405806064605713,"36":0.02579728700220585,"37":-0.01878848485648632,"38":0.04702270030975342,"39":-0.12748876214027405,"40":-0.12518402934074402,"41":-0.10776349157094955,"42":-0.07147334516048431,"43":0.09356944262981415,"44":0.0970311313867569,"45":-0.20323684811592102,"46":-0.226052924990654,"47":-0.15613766014575958,"48":0.1058662086725235}},"20":{"bias":0.17236021161079407,"weights":{"0":0.1694522351026535,"1":0.11066766828298569,"2":0.1414402425289154,"3":-0.01832362450659275,"4":0.08742839097976685,"5":-0.049183640629053116,"6":-0.14817626774311066,"7":0.14652493596076965,"8":-0.10525384545326233,"9":-0.010980430990457535,"10":-0.14874961972236633,"11":0.17706240713596344,"12":-0.050182126462459564,"13":0.10099650919437408,"14":-0.013521866872906685,"15":-0.13539756834506989,"16":-0.10627210140228271,"17":0.01539257075637579,"18":0.050924208015203476,"19":0.1381535530090332,"20":-0.22525539994239807,"21":-0.19152721762657166,"22":0.09529949724674225,"23":-0.17318037152290344,"24":-0.1801590621471405,"25":-0.1726546287536621,"26":-0.13514336943626404,"27":-0.5436347126960754,"28":-0.07330535352230072,"29":-0.02503938041627407,"30":-0.19467668235301971,"31":0.18294161558151245,"32":0.11183486878871918,"33":0.07735192775726318,"34":0.02829461731016636,"35":0.15089285373687744,"36":-0.0632748156785965,"37":0.07910022884607315,"38":0.12650658190250397,"39":0.19708946347236633,"40":0.0340479239821434,"41":-0.16672636568546295,"42":-0.07272373139858246,"43":0.16526515781879425,"44":0.34621673822402954,"45":0.32049107551574707,"46":0.5464425086975098,"47":0.4740179777145386,"48":-0.49764639139175415}},"21":{"bias":-0.027341242879629135,"weights":{"0":0.09831826388835907,"1":-0.062079545110464096,"2":0.07789711654186249,"3":0.12329787760972977,"4":-0.04231342300772667,"5":-0.06728701293468475,"6":-0.07823532819747925,"7":0.043121010065078735,"8":0.08795516192913055,"9":0.13490137457847595,"10":-0.14626659452915192,"11":-0.11592341959476471,"12":0.1549021154642105,"13":0.055373843759298325,"14":0.041257623583078384,"15":-0.030062660574913025,"16":-0.11053867638111115,"17":0.11116030812263489,"18":0.07807647436857224,"19":-0.13231904804706573,"20":-0.013693341054022312,"21":0.0695183128118515,"22":0.1844937801361084,"23":0.1156187355518341,"24":0.09792307764291763,"25":-0.09088003635406494,"26":-0.12438661605119705,"27":-0.17286252975463867,"28":-0.24871523678302765,"29":-0.03900758549571037,"30":0.10772880166769028,"31":0.12852247059345245,"32":-0.16654929518699646,"33":-0.14960423111915588,"34":-0.00039957326953299344,"35":-0.24245406687259674,"36":-0.1759660542011261,"37":-0.12432502955198288,"38":0.11291871219873428,"39":-0.0994279533624649,"40":-0.16339832544326782,"41":-0.000023116717784432694,"42":-0.23908667266368866,"43":0.20258454978466034,"44":0.33514121174812317,"45":0.2275095283985138,"46":0.3618837594985962,"47":0.2879059314727783,"48":-0.4517970383167267}},"22":{"bias":-0.09897661209106445,"weights":{"0":0.09673850238323212,"1":-0.15670904517173767,"2":-0.1467561423778534,"3":-0.17026406526565552,"4":0.05047132074832916,"5":0.06195145845413208,"6":-0.1827009618282318,"7":0.06500005722045898,"8":0.05258429795503616,"9":-0.19099316000938416,"10":-0.0523410327732563,"11":-0.10893023759126663,"12":0.0127706965431571,"13":0.09772883355617523,"14":-0.08179910480976105,"15":0.11175471544265747,"16":-0.04904593527317047,"17":0.10278293490409851,"18":-0.045057881623506546,"19":-0.17755438387393951,"20":0.24824242293834686,"21":0.06327556073665619,"22":0.21527333557605743,"23":0.31212374567985535,"24":0.40823739767074585,"25":0.4407713711261749,"26":0.35349348187446594,"27":-0.20321519672870636,"28":0.09871302545070648,"29":-0.18709687888622284,"30":0.0871797651052475,"31":0.05220547318458557,"32":0.07210320234298706,"33":-0.03686454892158508,"34":0.226486474275589,"35":-0.028157923370599747,"36":0.09231140464544296,"37":0.12351188063621521,"38":0.0885612890124321,"39":0.14917901158332825,"40":0.05588201433420181,"41":0.44915544986724854,"42":-0.14555290341377258,"43":-0.2083369940519333,"44":-0.07186079770326614,"45":-0.029738713055849075,"46":-0.09460726380348206,"47":-0.14685358107089996,"48":-0.271327406167984}},"23":{"bias":-0.21607676148414612,"weights":{"0":-0.11148319393396378,"1":-0.03433872014284134,"2":0.12011752277612686,"3":-0.13405348360538483,"4":0.04275929927825928,"5":-0.049726299941539764,"6":-0.3417368531227112,"7":0.051599740982055664,"8":0.10681457817554474,"9":0.06832469999790192,"10":0.15369431674480438,"11":0.1468692570924759,"12":-0.04049909859895706,"13":0.28495287895202637,"14":-0.16329221427440643,"15":-0.10818912833929062,"16":0.0887969359755516,"17":-0.06944432854652405,"18":0.00792672298848629,"19":0.19892869889736176,"20":0.43094173073768616,"21":-0.09031810611486435,"22":0.4733632504940033,"23":0.3214556574821472,"24":0.2941376566886902,"25":0.10216870158910751,"26":0.4938245117664337,"27":0.034129995852708817,"28":0.008574436418712139,"29":-0.05189089849591255,"30":0.12044835090637207,"31":-0.14674387872219086,"32":-0.10614286363124847,"33":-0.10162372142076492,"34":0.4727671444416046,"35":0.09810519963502884,"36":-0.031125957146286964,"37":0.12528444826602936,"38":0.0038582917768508196,"39":-0.18819640576839447,"40":0.16063357889652252,"41":0.3457128405570984,"42":0.009668460115790367,"43":-0.012188900262117386,"44":-0.2684943974018097,"45":-0.3424827456474304,"46":-0.0727928876876831,"47":-0.04616839438676834,"48":-0.22356794774532318}}},{"a":{"bias":0.08952942490577698,"weights":{"0":0.12327605485916138,"1":0.036815278232097626,"2":-0.3205064535140991,"3":0.35611492395401,"4":0.48262178897857666,"5":-0.8025940656661987,"6":-0.3410455584526062,"7":-0.034248217940330505,"8":0.4043784737586975,"9":-0.3533240556716919,"10":-0.17037761211395264,"11":1.1899209022521973,"12":-0.3917759358882904,"13":0.24485334753990173,"14":0.6107415556907654,"15":-0.2623964548110962,"16":-0.9426106214523315,"17":-1.3524702787399292,"18":0.5230929851531982,"19":0.12782518565654755,"20":-0.9577324986457825,"21":-0.5814846754074097,"22":0.14518055319786072,"23":0.47719892859458923}},"b":{"bias":-0.3559635877609253,"weights":{"0":-0.38742274045944214,"1":-1.1942452192306519,"2":-1.1075093746185303,"3":-0.7041515707969666,"4":-1.0224440097808838,"5":-0.19129620492458344,"6":-0.5174905061721802,"7":-0.4723193645477295,"8":0.4391234815120697,"9":0.2506709098815918,"10":0.5156717300415039,"11":-1.0628610849380493,"12":0.33487018942832947,"13":-0.6224765181541443,"14":-0.6156399846076965,"15":-0.5437866449356079,"16":0.8025516867637634,"17":0.6781438589096069,"18":-0.3194637894630432,"19":-0.21665945649147034,"20":0.5845174789428711,"21":0.5268489718437195,"22":0.5821186900138855,"23":0.5020855069160461}},"c":{"bias":-0.21499061584472656,"weights":{"0":-0.1595616340637207,"1":0.8551517128944397,"2":0.991776168346405,"3":0.0036660805344581604,"4":0.1473691463470459,"5":0.46729540824890137,"6":0.8902769684791565,"7":0.09446289390325546,"8":-1.184402346611023,"9":-0.19878508150577545,"10":-0.48944801092147827,"11":-0.2852116823196411,"12":-0.32120099663734436,"13":0.13153383135795593,"14":-0.4570397138595581,"15":0.3101561963558197,"16":0.3231857120990753,"17":0.5250563621520996,"18":-0.3519871234893799,"19":0.039009932428598404,"20":0.2832428216934204,"21":-0.06966286897659302,"22":-0.9626277685165405,"23":-1.273904800415039}}}],"outputLookup":true,"inputLookup":false,"activation":"sigmoid","trainOpts":{"iterations":20000,"errorThresh":0.005,"log":true,"logPeriod":10,"learningRate":0.3,"momentum":0.1,"callbackPeriod":10,"beta1":0.9,"beta2":0.999,"epsilon":1e-8}}